<?xml version="1.0"?>
<opencv_storage>
<_3_class_64x128 type_id="opencv-object-detector-hog">
  <winSize>
    64 128</winSize>
  <blockSize>
    16 16</blockSize>
  <blockStride>
    8 8</blockStride>
  <cellSize>
    8 8</cellSize>
  <nbins>9</nbins>
  <derivAperture>1</derivAperture>
  <winSigma>4.</winSigma>
  <histogramNormType>0</histogramNormType>
  <L2HysThreshold>2.0000000000000001e-01</L2HysThreshold>
  <gammaCorrection>1</gammaCorrection>
  <nlevels>64</nlevels>
  <signedGradient>0</signedGradient>
  <SVMDetector>
    -1.90989841e-02 -3.11671931e-04 2.30861660e-02 3.47211324e-02
    6.68185577e-03 2.91386545e-02 9.88574047e-03 -4.71612625e-03
    -1.72700528e-02 -2.32132878e-02 -1.01322662e-02 6.12695562e-03
    3.03452499e-02 -2.93879281e-03 1.11441100e-02 -5.11057209e-03
    -8.87258537e-03 -1.90376509e-02 2.15062946e-02 1.59479678e-02
    1.56115759e-02 4.70416024e-02 6.88463158e-04 1.88984293e-02
    7.18671130e-03 -8.20249226e-03 -5.90063026e-03 8.15319829e-03
    4.34789713e-03 -5.81057556e-03 3.19638066e-02 -1.63557101e-02
    9.73696914e-03 2.23560887e-03 -5.58186369e-03 2.04874650e-02
    -1.49562880e-02 8.02467950e-03 -1.07830595e-02 1.65575929e-02
    -4.68900939e-03 5.32857515e-03 -5.44755301e-03 1.41676364e-03
    -1.17386887e-02 -1.67024601e-02 -1.08663449e-02 -1.78328659e-02
    1.27726505e-02 -2.66884100e-02 1.79557316e-03 1.74376968e-04
    8.36937409e-03 -1.90306529e-02 -1.10659446e-03 4.42853710e-03
    -8.60811025e-03 1.80880371e-02 -2.14846786e-02 1.22265937e-02
    4.63993475e-03 1.55214407e-03 9.20497254e-03 7.77303940e-04
    -2.05001154e-04 1.74526535e-02 3.38157490e-02 -3.25588207e-03
    2.77395155e-02 1.35472091e-02 1.39856925e-02 -6.99186698e-03
    -7.29211047e-03 -1.04354890e-02 -7.75185646e-03 1.20218024e-02
    -2.78588980e-02 1.17882965e-02 -8.44120048e-03 -1.99938659e-02
    -1.64563879e-02 2.86016241e-03 2.35748217e-02 2.46990081e-02
    9.23720282e-03 -1.89521760e-02 8.33617896e-03 -1.39335860e-02
    -2.09790636e-02 -1.63997207e-02 -9.62322392e-03 -2.98785735e-02
    1.28159560e-02 1.58838090e-02 -2.74327733e-02 2.00811923e-02
    6.50088768e-03 -9.36665013e-03 -1.74762569e-02 -1.40086878e-02
    -2.69423481e-02 2.98726410e-02 1.22906491e-02 -2.22343504e-02
    1.29738711e-02 -4.52365261e-03 -1.22635318e-02 -2.45372634e-02
    2.50967741e-02 2.28554998e-02 1.18861794e-02 1.20348192e-03
    -8.18126660e-04 5.27645275e-03 -7.61099905e-03 -1.54953208e-02
    -1.57605093e-02 3.86031866e-02 2.88414769e-02 -1.23172277e-03
    -1.60874669e-02 -2.09389646e-02 2.14838777e-02 2.03150250e-02
    -2.15756595e-02 7.15413317e-03 -7.71929091e-03 -4.44860151e-03
    1.47798350e-02 7.23079359e-03 -1.31448898e-02 6.26682676e-03
    3.06992745e-03 -1.15995631e-02 -3.71850207e-02 -1.03238234e-02
    4.38834215e-03 1.58313885e-02 2.03984184e-03 -1.11971823e-02
    1.42791085e-02 4.64156177e-03 -8.07080325e-03 -1.92724019e-02
    3.60735394e-02 1.28841195e-02 3.74981109e-03 -1.38684046e-02
    -2.05220897e-02 2.28339862e-02 2.45028269e-02 9.61156271e-04
    1.36229228e-02 2.89228577e-02 1.48723228e-02 3.53699550e-03
    5.65175200e-03 -8.20740685e-03 2.96449922e-02 2.66015977e-02
    -1.87635631e-03 2.22978666e-02 -1.69462655e-02 4.01134882e-03
    9.76092275e-03 1.60783213e-02 -2.11152639e-02 2.38291603e-02
    7.71109760e-03 2.41856254e-03 -3.96335078e-03 2.39146664e-03
    -6.79028966e-03 -3.53474095e-02 3.34004010e-03 -1.36216907e-02
    2.33344529e-02 4.85958823e-04 1.12088080e-02 8.60537123e-03
    1.43990610e-02 1.18869711e-02 -7.12445239e-03 3.08105582e-03
    -2.87752296e-03 3.76988277e-02 4.30000164e-02 9.14735999e-03
    1.06311878e-02 2.38664523e-02 2.36124471e-02 9.29866452e-03
    6.77478267e-03 -4.25655395e-03 9.83119104e-03 2.80313436e-02
    -2.46201083e-03 -5.04278718e-03 -3.79073346e-04 1.54240113e-02
    -2.59626638e-02 1.42283542e-02 -5.03078150e-03 3.42392437e-02
    8.23621266e-03 3.54684214e-03 -1.84763409e-02 -7.75572099e-03
    1.73211563e-02 3.76657443e-03 2.84662377e-02 -1.75696854e-02
    1.06995869e-02 -1.17655303e-02 -5.77680580e-03 -1.38915991e-02
    1.03007546e-02 2.36659683e-02 1.45182982e-02 -7.73817720e-03
    -5.79200638e-03 -4.72166250e-03 -6.58415165e-03 -1.67479254e-02
    -4.41035023e-03 -1.47225999e-03 2.91836578e-02 3.65104415e-02
    4.20523435e-03 -8.04303959e-03 2.01135548e-03 1.01118414e-02
    1.73850241e-03 -1.88824255e-02 -2.51276232e-03 1.93326231e-02
    1.42525379e-02 1.37192197e-02 -1.40949441e-02 1.30818440e-02
    -1.09579582e-02 -2.47282651e-03 -6.68540318e-03 6.28499128e-03
    2.00717412e-02 2.56639346e-02 1.16235809e-02 -1.75315104e-02
    3.27674416e-03 -1.10889710e-02 1.50174676e-02 -7.66558945e-03
    -1.37747340e-02 1.16417417e-02 2.69729993e-03 -2.64298334e-03
    -2.96982788e-02 -9.93050635e-03 -1.73977949e-03 9.02376138e-03
    -3.86881270e-03 -8.07142002e-04 9.11033060e-03 7.54201459e-03
    6.43398473e-03 -2.28181551e-03 8.12599156e-03 4.59552626e-04
    1.17635187e-02 1.09527931e-02 -8.08866788e-03 9.35473759e-03
    -9.71691776e-03 -4.43425030e-03 -1.72346029e-02 -1.08654741e-02
    -1.42473150e-02 7.03440839e-03 -7.30131869e-05 2.41748467e-02
    1.33956643e-02 2.00974246e-04 1.66151784e-02 2.49805907e-03
    7.93759897e-03 1.26741175e-02 1.92390047e-02 2.62732208e-02
    -6.75910711e-03 5.15082665e-03 8.27533286e-03 1.37224328e-02
    -1.63337477e-02 1.56214908e-02 9.28227883e-03 -5.55954594e-03
    1.24603594e-02 -1.15599344e-02 1.65103382e-04 -1.09423576e-02
    -1.25402026e-03 -1.58040766e-02 1.22230118e-02 -4.80870763e-03
    -1.00169154e-02 6.26347540e-03 2.35717408e-02 1.55919706e-02
    2.83020712e-03 1.52725475e-02 -2.29208730e-02 8.96849297e-03
    -1.10551119e-02 1.31535437e-02 2.67161205e-02 2.65805190e-03
    1.18328128e-02 -1.44064426e-02 9.26757790e-03 -1.30476881e-04
    1.93272007e-03 -1.16448589e-02 8.25136434e-03 2.68055890e-02
    1.50451940e-02 1.94011489e-03 -2.91350763e-04 -3.17241764e-04
    5.33354469e-03 1.64830443e-02 6.18330017e-03 2.49468163e-03
    3.89806973e-03 -1.56718884e-02 -1.76695082e-02 4.08225367e-03
    7.52981240e-03 -7.17569888e-03 1.21236555e-02 -4.54560760e-03
    -1.03808613e-02 -1.93191841e-02 2.46641636e-02 1.19279390e-02
    6.89011184e-04 1.35601331e-02 2.40563862e-02 2.95224991e-02
    1.04466593e-02 2.45190971e-02 3.43244113e-02 1.02812573e-02
    -1.01139313e-02 1.00836437e-02 -2.66607315e-03 4.23010439e-03
    2.65684281e-03 -8.00557435e-03 1.02421455e-02 -3.55271879e-03
    -1.36427050e-02 -2.60394216e-02 -6.30397815e-04 8.27663206e-03
    1.91616453e-02 7.79000809e-03 1.31795621e-02 3.31925880e-03
    -5.13086212e-04 3.16292932e-03 -1.07723642e-02 1.57650281e-02
    1.49265435e-02 -1.13909449e-02 -1.60976723e-02 -5.97479800e-03
    6.98632421e-03 9.56171285e-03 3.14863473e-02 7.19055254e-03
    1.86057854e-02 8.57030135e-03 2.07641684e-02 1.80231743e-02
    3.35779530e-03 2.16762759e-02 1.80240739e-02 3.15874740e-02
    1.30647356e-02 1.21777430e-02 1.87910013e-02 6.81637414e-03
    1.05302427e-02 -1.14227813e-02 9.44165234e-03 3.09029780e-02
    -3.08176223e-02 -1.99075080e-02 9.33551043e-03 2.59478786e-03
    -1.47727644e-02 -2.32180431e-02 -8.46652035e-03 3.08812573e-03
    2.41021582e-04 -2.92241462e-02 -1.94224308e-03 2.83378102e-02
    5.94769372e-03 1.11823408e-02 -1.83237214e-02 -8.89555493e-04
    1.26254102e-02 -1.28697287e-02 3.85859190e-03 1.36316952e-03
    2.30761133e-02 1.59238689e-02 2.40254495e-02 -1.15513727e-02
    -1.02495393e-02 3.48788826e-03 1.57189444e-02 2.20204387e-02
    1.98848974e-02 6.45436347e-02 1.59783065e-02 4.16937210e-02
    6.76380331e-03 1.55713391e-02 1.05062611e-02 3.83852702e-03
    -1.55754024e-02 1.45721948e-04 3.04589234e-03 -1.43277096e-02
    -2.26876251e-02 -3.10366992e-02 -8.44085962e-03 7.32719898e-03
    -1.16509600e-02 -5.13629708e-03 7.65494257e-03 1.41379116e-02
    1.35622080e-02 -1.43258413e-03 1.42918937e-02 2.09899247e-03
    -7.86106009e-03 -1.94520000e-02 5.09160709e-05 -9.08999331e-03
    1.50770508e-02 -1.79245919e-02 -1.38307940e-02 -1.44004961e-02
    2.65590358e-03 2.58420152e-03 3.14566982e-03 1.14111388e-02
    1.53365834e-02 1.51233505e-02 2.29650773e-02 -8.56926758e-03
    6.53493451e-03 1.08666448e-02 1.99139565e-02 1.24983853e-02
    4.08452889e-03 6.31473167e-03 1.27287433e-02 2.06865817e-02
    -9.08577908e-03 2.48357821e-02 9.59308352e-03 -9.57188662e-03
    -4.72236890e-03 1.54389152e-02 1.87744182e-02 1.55006330e-02
    1.51327802e-02 -6.72119809e-03 1.58203747e-02 -6.92025386e-03
    -5.59282955e-03 3.04486416e-03 -1.84136815e-02 6.88106986e-04
    6.69627124e-03 2.07390841e-02 -1.23930555e-02 2.92152492e-03
    1.18774027e-02 1.75235011e-02 4.78701480e-03 -7.60346930e-03
    1.41828563e-02 5.40693710e-03 -2.41370828e-04 5.19418623e-03
    8.35569296e-03 -3.68295819e-03 -1.05579561e-02 1.20543418e-02
    -1.86404178e-03 1.26315868e-02 9.29148961e-03 2.57175695e-02
    -1.28642395e-02 2.51473114e-02 -6.54694950e-03 -4.00027540e-03
    1.20894308e-03 -1.08484505e-03 1.50177740e-02 1.01341447e-02
    1.67570487e-02 7.18964962e-03 2.68610809e-02 2.00373866e-02
    -8.51554272e-04 -6.30131317e-03 -3.99336359e-03 1.27666825e-02
    1.32848890e-02 1.70820635e-02 -1.10628773e-02 1.55022256e-02
    5.92849869e-03 -5.58292260e-03 1.12934969e-02 8.35290086e-03
    1.59932394e-02 2.74784546e-02 2.02988107e-02 1.78805727e-04
    2.09105071e-02 7.59197050e-04 1.88584812e-02 1.84352435e-02
    1.58394668e-02 6.08039898e-07 2.02191044e-02 2.24046055e-02
    -1.49780400e-02 7.59619754e-03 -4.23143269e-04 -2.25262307e-02
    3.51817056e-04 -4.99185175e-04 -2.45070644e-02 -9.28669516e-03
    5.32058859e-03 -2.51669344e-02 1.57729220e-02 -8.92712455e-03
    -2.87755970e-02 -1.65762175e-02 1.91537458e-02 2.61200313e-02
    4.51173671e-02 3.35145183e-02 -1.27776582e-02 1.27155883e-02
    -5.07192174e-03 -1.43592656e-02 1.51033448e-02 1.35611324e-02
    -1.18413856e-02 -1.50760612e-03 2.08869781e-02 -1.26071023e-02
    2.42855661e-02 9.42813233e-03 1.52671402e-02 2.98085734e-02
    -1.10049266e-02 -9.19397641e-03 -3.11731757e-03 4.82873945e-03
    -2.46116705e-02 9.67235491e-03 -1.03286644e-02 -1.99592970e-02
    -3.26941628e-03 -4.15464584e-03 -3.04154097e-03 5.09749027e-03
    -8.83577205e-03 -3.01675443e-02 8.68845917e-03 6.29474642e-03
    8.00824375e-04 -3.30556557e-03 1.29518369e-02 -6.85661985e-03
    1.97101161e-02 2.94517037e-02 1.05484454e-02 2.95197684e-02
    2.25912780e-02 1.98004190e-02 2.80046836e-02 -8.50841869e-03
    -6.90733036e-03 -9.36339516e-03 2.22050939e-02 -1.58914290e-02
    8.84138513e-03 1.54395727e-02 7.71103427e-03 1.54378600e-02
    -1.65337678e-02 -1.37824873e-02 2.10401379e-02 1.00641614e-02
    -2.98271962e-02 1.87396910e-02 3.15440726e-03 -5.07302955e-03
    -1.08862743e-02 -8.92818347e-03 -2.68215854e-02 1.28116217e-02
    2.67011416e-03 -3.68438400e-02 -5.34009247e-04 -2.45076325e-02
    -1.98670495e-02 -1.15652177e-02 -3.42011714e-04 9.42220632e-03
    9.50615853e-03 3.21397409e-02 -4.27295081e-03 1.56922601e-02
    1.72516089e-02 9.89378197e-04 8.98888614e-03 1.72526401e-03
    6.64684689e-04 8.63341428e-03 1.73522774e-02 -2.65557133e-02
    -7.78170628e-03 -1.26612410e-02 -1.41853932e-02 3.90188769e-03
    1.37847904e-02 2.83732591e-03 1.95601638e-02 2.83257272e-02
    1.02414389e-03 3.13892425e-03 -1.21078631e-02 -4.36854362e-03
    4.66813659e-03 -6.97593158e-03 2.08523832e-02 2.89746132e-02
    1.48835443e-02 -1.75575390e-02 1.35993082e-02 1.19698225e-02
    8.31122790e-03 1.24339282e-03 8.40360764e-03 -6.32014824e-03
    -2.03080429e-03 1.77417081e-02 8.24973569e-04 6.72064815e-03
    -1.25941122e-02 2.23381794e-03 1.08724823e-02 -3.94608686e-03
    1.13559812e-02 1.68349966e-03 1.15769990e-02 -2.87537351e-02
    -1.22687481e-02 -2.15123985e-02 -5.77440439e-03 7.71637727e-03
    -5.94095746e-03 2.20327103e-03 6.11593481e-03 6.22051861e-03
    -1.63139217e-02 7.97900464e-03 5.19316271e-03 1.05098467e-02
    5.12837386e-03 1.41872857e-02 1.04053617e-02 -5.88190334e-04
    2.48909369e-03 -1.56532619e-02 1.82208214e-02 1.45346634e-02
    1.93850324e-02 1.51944868e-02 -1.17676016e-02 9.38245188e-03
    5.61930332e-03 5.84475975e-03 -1.78627837e-02 -3.64775115e-05
    -4.12723515e-03 -3.51110916e-03 -1.01540210e-02 1.18451733e-02
    9.73098446e-03 1.36237619e-02 9.34936013e-03 -1.39322169e-02
    8.00504629e-03 1.16183124e-02 2.62166257e-03 4.18130634e-03
    1.10456171e-02 2.67158765e-02 4.16370720e-04 3.93239595e-03
    -1.97034720e-02 1.08710548e-03 1.44869229e-03 6.38757646e-03
    5.91016468e-03 1.89232584e-02 3.00365444e-02 1.88957471e-02
    2.73101274e-02 -1.54133355e-02 1.21627683e-02 -8.89019016e-03
    8.89648404e-03 1.53700355e-02 -2.72755325e-03 1.11014526e-02
    2.78173611e-02 -1.72416330e-03 -1.59691907e-02 -4.31874022e-03
    1.73536446e-02 -7.48750637e-04 -1.72094367e-02 -3.68964043e-03
    2.47318726e-02 3.99207249e-02 1.55614633e-02 -1.62277780e-02
    -1.86096912e-03 -1.48325898e-02 -2.67428588e-02 -3.03866528e-02
    -6.66041952e-03 1.91409215e-02 1.31462105e-02 1.60563737e-03
    -3.08725815e-02 -8.31675832e-04 -4.20509605e-03 9.82602872e-03
    6.16171770e-03 5.86589798e-03 2.16421187e-02 2.49849577e-02
    4.04963642e-03 -2.80479267e-02 6.63491478e-03 -5.43023227e-03
    3.40381335e-03 6.90553570e-03 -1.76281743e-02 1.57375876e-02
    1.78587139e-02 2.02833931e-03 -2.68415175e-02 -1.83819386e-03
    -1.19152498e-02 -9.45357699e-03 -2.49434486e-02 -5.78430248e-03
    1.22364340e-02 3.02030891e-02 9.46395285e-03 -1.15027716e-02
    1.97131783e-02 3.23746790e-05 1.28567321e-02 -7.28723221e-03
    -1.93985575e-03 1.32859396e-02 -3.15316283e-04 -9.60494392e-03
    -3.74154821e-02 -2.07950873e-03 -3.23981196e-02 -1.21533498e-02
    -5.73627744e-03 1.23095196e-02 4.49208962e-03 -5.69115160e-03
    7.23264925e-03 7.88890384e-03 4.74140327e-03 1.44056501e-02
    8.07638932e-03 9.87993367e-03 -8.91882740e-03 1.05004106e-02
    5.40265348e-03 -1.43598532e-02 -3.46371941e-02 1.50955934e-02
    -1.78736988e-02 -4.55087889e-03 1.83393899e-03 1.01466104e-02
    2.10164823e-02 7.90612306e-03 -3.75587307e-03 -1.40063500e-03
    9.11977608e-03 6.63109822e-03 -4.61661723e-03 2.65530348e-02
    1.31397322e-02 -6.35814248e-03 -7.64309196e-03 5.28781395e-03
    -2.00741254e-02 -3.37659195e-03 -1.31694903e-03 1.34968860e-02
    2.35115439e-02 4.51852335e-03 1.63246377e-03 -5.04863355e-03
    1.26000047e-02 -4.43030288e-03 1.76893715e-02 -1.05153164e-02
    1.90248468e-03 8.97682272e-03 1.37688480e-02 1.46656670e-02
    -3.31178377e-03 1.13183539e-02 -1.09468680e-02 3.86330090e-03
    -8.94006807e-03 -1.18614351e-02 2.75360444e-03 7.85005221e-04
    5.43107605e-03 -1.67540256e-02 1.89443938e-02 -1.35222012e-02
    9.64408647e-03 7.89133832e-03 7.29197217e-03 1.11407181e-02
    -2.63116322e-03 7.85429683e-03 -5.55093109e-04 1.30961463e-03
    1.88688922e-03 2.80785095e-02 -5.73743461e-03 7.52485637e-03
    1.23648979e-02 -8.87207803e-04 1.11602480e-03 -9.44775995e-03
    -1.18687386e-02 -1.09726200e-02 -1.76551640e-02 -2.05786452e-02
    6.28909515e-03 -9.40456428e-03 3.83392768e-03 8.48719012e-03
    9.32238717e-03 7.40785105e-03 -1.44342631e-02 1.93080567e-02
    6.23008702e-03 3.45830340e-03 1.09639959e-02 1.19938105e-02
    6.93834387e-03 1.19154062e-02 4.74012084e-03 -2.52088998e-02
    4.30771412e-04 1.36489677e-03 1.42854666e-02 4.30206768e-03
    9.69775952e-03 -1.20406626e-02 -3.47497547e-03 -1.09308343e-02
    -8.50607362e-03 -3.66115198e-03 -1.79824978e-02 -9.45588015e-03
    2.86686071e-03 1.22140060e-04 -7.21798232e-03 -4.39391471e-03
    -6.64559333e-03 -1.08354958e-02 6.94575312e-04 -3.08255926e-02
    -1.06495302e-02 3.52270389e-03 1.52019756e-02 2.60831229e-02
    1.65154096e-02 4.00211103e-03 -9.47876647e-03 1.70066841e-02
    1.34982057e-02 2.74834502e-02 1.89066548e-02 8.64625257e-03
    2.02981886e-02 1.90840960e-02 -3.36858211e-04 -1.50014460e-02
    9.44813527e-03 6.35728240e-03 2.68359799e-02 8.80472641e-03
    -2.08571483e-03 -9.04267014e-04 6.94126450e-03 -2.09492515e-03
    -1.14535168e-02 -2.35919729e-02 -3.43723595e-02 -6.34184480e-03
    9.31297895e-03 -9.74968279e-05 -3.37102404e-03 2.24902201e-02
    -3.03904293e-03 -8.13487545e-03 -1.58391949e-02 -1.05443047e-02
    -6.16332516e-03 -7.80683989e-03 9.77838784e-03 2.83353310e-02
    3.04500144e-02 1.39249652e-03 -1.97557546e-02 -2.24405825e-02
    -1.47913741e-02 4.12589451e-03 1.25127397e-02 1.53845679e-02
    2.30179913e-02 4.81487140e-02 1.70637276e-02 -1.38817625e-02
    -5.34289051e-03 -9.69246123e-03 -1.05504482e-03 -9.99017432e-03
    -1.32682864e-02 -4.82996879e-03 1.95304658e-02 3.36184213e-03
    -2.56986767e-02 -8.66412278e-03 7.78927840e-03 6.03868533e-03
    -1.65259780e-03 1.21063786e-02 -2.75891041e-03 1.29125193e-02
    -1.83557230e-03 -4.36719730e-02 -1.14444103e-02 1.07949451e-02
    2.09906977e-02 1.99594107e-02 7.88681582e-03 3.02209631e-02
    3.92130129e-02 1.97513476e-02 -2.06946209e-02 -6.69001974e-03
    2.40944661e-02 2.59224549e-02 -7.82797579e-03 2.31562573e-02
    2.75941398e-02 2.16529556e-02 5.01084549e-04 -3.38396169e-02
    -1.48224141e-02 1.38660101e-03 1.01365289e-02 2.01323573e-02
    4.18693479e-03 -4.45382763e-03 1.19332140e-02 3.18323984e-03
    -2.67607961e-02 2.01270282e-02 2.18728688e-02 1.09362146e-02
    1.15918787e-02 1.22567555e-02 1.23801539e-02 1.44722192e-02
    -6.57775486e-03 -2.85754260e-02 1.88734978e-02 1.76062305e-02
    -6.13000803e-03 9.89515707e-03 2.23021619e-02 1.21752508e-02
    2.42766514e-02 -2.08284939e-03 -2.06984188e-02 4.94060991e-03
    -3.01010744e-03 -2.17729551e-03 1.43039571e-02 3.50162089e-02
    1.43686133e-02 1.76748745e-02 1.53514147e-02 -1.58741754e-02
    1.27705326e-02 1.85424276e-02 3.10560502e-03 3.65102105e-02
    -4.29813564e-03 -1.54573377e-03 8.91638082e-03 5.55509701e-04
    -2.67234650e-02 2.18471810e-02 3.41761187e-02 -6.61581231e-04
    3.77065269e-03 -1.17508322e-03 -5.15385577e-03 2.02460922e-02
    1.55823007e-02 -8.44839774e-03 4.20867652e-02 2.32014898e-02
    1.27200680e-02 2.40035448e-02 7.15701329e-03 -1.56910270e-02
    3.77141871e-03 1.88928060e-02 -2.20793542e-02 1.81554891e-02
    1.45420879e-02 4.27035009e-03 9.52737126e-03 1.86112449e-02
    5.80591150e-03 3.31506096e-02 4.75429818e-02 9.26451851e-03
    5.25392294e-02 1.44631313e-02 1.71354797e-03 1.31225884e-02
    -5.37523860e-03 -3.01186810e-03 2.36886330e-02 2.48416979e-02
    -3.29364948e-02 4.98012989e-04 -9.15960316e-03 -6.64360309e-03
    -4.79910569e-03 1.07139256e-03 -2.25336924e-02 -1.43844998e-02
    2.38881744e-02 -1.54306609e-02 8.66461918e-03 -1.82793383e-02
    -8.10317881e-03 7.63142528e-03 9.56742745e-03 -8.14809115e-04
    2.75229793e-02 4.31781225e-02 -4.46998216e-02 1.30848242e-02
    -1.57001475e-03 1.17755225e-02 9.96969454e-03 5.40689193e-03
    -4.12298134e-03 7.54111027e-03 1.83884520e-02 -4.17502411e-02
    -1.66580398e-02 -1.01553788e-02 7.40118232e-03 -1.47805759e-03
    1.52442558e-02 1.36318605e-03 1.38684660e-02 3.33855785e-02
    -4.98291757e-03 1.78292710e-02 -1.26754642e-02 -2.30484991e-03
    3.76615417e-03 9.73031577e-03 -9.63147078e-03 -1.09958481e-02
    2.77624466e-02 -1.77269261e-02 8.19952879e-03 -9.26543586e-03
    -5.33516053e-03 1.87748652e-02 -5.83677785e-04 -2.93880398e-03
    1.62148557e-04 3.21871825e-02 -1.92008950e-02 8.86783842e-03
    1.94104221e-02 6.71679899e-03 -1.06120831e-03 1.18010648e-04
    -9.75546055e-03 4.85745331e-05 3.83686014e-02 -6.44789636e-03
    1.95632465e-02 4.29013046e-03 -6.86434191e-03 -7.15131639e-03
    -1.21033248e-02 -5.20133739e-03 -6.19293517e-03 1.36395330e-02
    -1.35008562e-02 -1.11381686e-03 -7.57696480e-03 -9.45387801e-05
    -3.62658803e-03 -2.45179031e-02 5.66973258e-03 -2.39642756e-03
    7.63336243e-03 -2.57818419e-02 -1.77863091e-02 -1.09590031e-02
    -5.63198607e-03 -1.69849582e-02 -1.33044077e-02 1.13722309e-02
    1.66618824e-02 3.46091464e-02 -2.26062257e-03 1.05769746e-02
    -1.02357212e-02 -1.65904369e-02 -1.65681001e-02 -1.32252183e-02
    7.51016149e-03 3.03912302e-03 3.51269706e-03 -2.27031969e-02
    -7.61170266e-03 4.75066435e-03 -1.26666389e-02 -1.82270426e-02
    -3.25078540e-03 2.09882837e-02 -5.89360530e-03 1.95892695e-02
    4.14417684e-03 -1.55904924e-03 -3.68911936e-03 -5.20559913e-03
    6.18195278e-04 -2.47276165e-02 -7.06142513e-03 -2.45046113e-02
    -1.88255974e-03 -3.83402742e-02 -2.24315450e-02 -1.92809496e-02
    -1.31901391e-02 -1.46681480e-02 1.31418770e-02 3.26407515e-02
    6.09421544e-03 2.53684390e-02 9.58403759e-03 1.69804860e-02
    2.28504669e-02 -4.41602059e-03 -5.50977793e-03 2.60550273e-03
    6.88840309e-03 -8.98224022e-03 1.21654533e-02 -1.78276859e-02
    -3.20163392e-03 -1.38078183e-02 1.55958887e-02 2.35576346e-03
    -1.20828934e-02 -5.32205682e-03 -3.66807799e-04 6.03038585e-03
    -1.36220688e-02 -2.09080568e-03 -4.80995979e-03 6.01670193e-03
    -1.43138720e-02 -6.58431929e-03 -6.70693233e-04 1.65548846e-02
    8.62727966e-03 -5.48801711e-03 1.44814793e-02 2.46472401e-03
    3.92579567e-03 -1.59388967e-02 9.65966191e-03 1.37338685e-02
    1.10052526e-02 5.31567680e-03 2.57497886e-03 1.95916649e-02
    7.00321514e-03 1.09616779e-02 6.22274354e-03 -4.18111729e-03
    6.26664981e-03 -1.92737754e-03 -4.04832745e-03 2.96269171e-03
    1.82775036e-02 1.18799005e-02 8.27641040e-03 1.03589585e-02
    -1.70156953e-03 8.56043585e-03 3.23127434e-02 2.57878331e-03
    4.85939812e-03 9.17074271e-03 -6.81356702e-04 8.42531677e-03
    -5.22109214e-03 8.28584190e-03 3.42556871e-02 3.13485526e-02
    8.33846349e-03 -1.31705068e-02 -4.61952481e-03 -1.83338597e-02
    -1.12011395e-02 -2.39615701e-03 6.75233407e-03 6.88285474e-03
    -2.00923160e-03 -4.48128395e-03 5.85272396e-03 2.09459718e-02
    8.87035020e-03 9.28625092e-03 1.03897145e-02 8.19751341e-03
    7.60371843e-03 -5.74524235e-03 1.79393012e-02 -5.26222121e-03
    1.21573936e-02 -4.19501401e-03 -5.82541898e-03 2.16019456e-03
    -1.01798465e-02 1.62175745e-02 1.59371812e-02 1.75577693e-03
    -1.43268453e-02 5.15700970e-03 -1.41519774e-02 -1.66527946e-02
    -1.87733434e-02 -1.08976113e-02 5.00645163e-03 1.29922247e-02
    5.04437555e-03 1.78628918e-02 2.96716318e-02 -7.43998215e-03
    -3.32411204e-04 -1.91673078e-02 -6.18542871e-03 -4.85629484e-04
    -5.76263247e-03 -1.61150622e-03 -1.47575233e-02 5.20726433e-03
    8.49218294e-03 -6.24442752e-03 -1.66930500e-02 7.34788249e-04
    5.40904410e-04 2.34459570e-04 4.58681723e-03 6.19695708e-03
    1.62763894e-02 1.46611431e-03 -9.47698663e-06 -6.91973604e-03
    1.31045864e-03 8.87835119e-03 -3.02336877e-03 -6.88263727e-03
    -6.98328158e-03 2.03505233e-02 -1.58686563e-02 -1.85075160e-02
    -3.54530290e-03 6.40441896e-03 8.46502185e-03 3.23976343e-03
    2.16104602e-03 1.85257383e-02 2.93952189e-02 2.42506973e-02
    4.69953520e-03 5.25871711e-03 8.37374013e-03 2.15588473e-02
    -5.12658479e-03 3.60199925e-03 -1.97716914e-02 1.22247655e-02
    -3.61267067e-02 -1.51701625e-02 -1.28960256e-02 5.23899635e-03
    2.23992672e-02 8.63070972e-03 1.79339983e-02 1.25617301e-02
    2.97409147e-02 8.04989715e-04 -9.81397089e-03 -1.87507481e-03
    2.83375208e-04 1.46010248e-02 -1.23167112e-02 -1.27250236e-03
    -3.49141221e-04 1.18720103e-02 -4.12353361e-03 -2.11867858e-02
    -1.52404252e-02 -8.75404570e-03 6.03318401e-03 -2.11699810e-02
    9.69441421e-03 7.90798850e-03 3.97098958e-02 8.55956879e-03
    -8.07444286e-03 -1.19679933e-03 -6.86819060e-03 1.11739477e-02
    -1.17449919e-02 -5.60136698e-03 -1.05835218e-02 1.57940891e-02
    -6.88682590e-03 -1.46023137e-02 -6.45284494e-03 6.24008616e-03
    9.14014596e-03 -1.29674412e-02 5.32118417e-03 8.55391566e-03
    3.51329185e-02 1.76192690e-02 7.38376845e-03 -4.64087585e-03
    -1.59349516e-02 1.94687257e-03 -7.87915103e-03 -2.61744414e-03
    -6.15869462e-03 2.03496292e-02 1.17619913e-02 -1.49447806e-02
    -1.27772987e-03 -6.91907434e-03 1.36155272e-02 1.13840327e-02
    -6.71807770e-03 -1.60861295e-02 5.07970108e-03 -1.77601520e-02
    -3.33150383e-03 8.98320973e-03 3.95783223e-03 1.76642872e-02
    -1.49482805e-02 -8.91957991e-03 -1.82097740e-02 8.98758974e-03
    4.61623212e-03 2.98797432e-03 6.95412001e-03 7.27815932e-05
    1.79232284e-02 5.27280942e-03 -1.51264516e-03 1.64063671e-03
    3.10458965e-03 -1.11793038e-02 -1.34427072e-02 7.43347965e-03
    -1.97715964e-02 1.29112741e-02 8.06802884e-03 -5.41658560e-03
    -1.75482815e-03 1.64360516e-02 -2.66879681e-03 1.29683856e-02
    7.70553900e-03 -1.18228290e-02 8.39371141e-03 -3.35316523e-04
    2.73110531e-03 -1.03183305e-02 3.23732360e-03 5.33139240e-03
    3.16129439e-02 -2.50008260e-03 -3.32801021e-03 1.04677258e-02
    -4.70646453e-04 2.09266236e-05 1.11482497e-02 1.11065144e-02
    2.73104198e-03 4.89175180e-03 1.30290193e-02 -1.36351120e-03
    2.27757427e-03 -1.30140465e-02 -2.07321178e-02 -4.44274163e-03
    2.27774791e-02 -5.43760275e-03 2.31720172e-02 9.85880010e-03
    -2.11581960e-03 1.89557709e-02 2.89648660e-02 1.04413200e-02
    -1.17422338e-03 -7.72629457e-04 -1.36030223e-02 -2.07079761e-03
    2.08445569e-03 -3.58028710e-03 1.19241290e-02 3.32132429e-02
    1.89881288e-02 -7.10178958e-03 1.07534556e-02 -1.58930212e-04
    6.45158347e-03 1.72529891e-02 1.00638939e-03 2.53872890e-02
    2.71159932e-02 1.45575416e-03 4.63297544e-03 1.42930150e-02
    3.93718993e-03 1.63423978e-02 9.73919965e-03 -1.00985868e-02
    1.17305657e-02 5.52347256e-03 8.67350772e-03 -1.58468056e-02
    4.84497566e-03 -8.40575434e-03 -2.48014531e-03 6.54167077e-03
    5.84727107e-03 2.34457962e-02 1.62770860e-02 6.02525519e-03
    -4.52227481e-02 1.10830581e-02 7.63340201e-03 1.67951901e-02
    1.06571242e-02 1.12064835e-02 1.18577424e-02 1.44430548e-02
    -5.17093111e-03 -4.02848832e-02 -3.11179343e-03 5.40611288e-03
    1.13246532e-03 6.19253982e-03 -6.24819985e-03 2.52556438e-05
    -1.05103534e-02 4.39051259e-03 -2.99276859e-02 8.64464417e-03
    -1.88143284e-04 -1.52643975e-02 9.01665911e-03 -6.25448115e-03
    -1.16003975e-02 -3.80682456e-03 1.19405109e-02 -2.21751500e-02
    1.12139098e-02 1.08383195e-02 1.15004051e-02 1.00934850e-02
    1.07182097e-02 2.03657392e-02 1.85016133e-02 2.93817837e-03
    -3.19596939e-02 -9.58754309e-03 -1.31672639e-02 -1.41807608e-02
    1.10330619e-02 1.33055383e-02 2.21920237e-02 1.32067669e-02
    1.83001403e-02 -3.38022485e-02 -1.13809416e-02 -9.81101766e-05
    -1.55661656e-02 7.29490397e-03 -8.68890842e-04 -2.73903646e-03
    -9.44628567e-03 3.60240275e-03 -3.05591207e-02 9.46449023e-03
    2.37699654e-02 1.79436896e-02 -1.87214185e-03 7.57765584e-03
    1.86053831e-02 9.99881420e-03 1.43887708e-02 -1.45760756e-02
    1.73196720e-03 -4.09361022e-03 -6.62778830e-03 4.66400618e-03
    1.70068368e-02 7.68473884e-03 1.35772469e-04 1.91301238e-02
    -2.56301947e-02 1.43008772e-02 -2.13057618e-03 -6.32863084e-04
    -9.02975164e-03 1.15746129e-02 1.36998380e-02 2.64436975e-02
    5.02535589e-02 -4.34656302e-03 1.73533261e-02 -7.14801950e-03
    8.41282163e-05 -6.07832428e-03 1.72335480e-03 -1.07315974e-02
    3.16620292e-03 1.16693089e-02 1.42326960e-02 2.02301275e-02
    -3.43957054e-03 -1.45802451e-02 1.16179534e-03 8.62568617e-03
    -1.07294647e-02 7.18811573e-03 2.75861099e-02 -5.42673841e-03
    1.39426114e-02 1.50422174e-02 -3.29191028e-03 -1.12668320e-03
    5.34259994e-03 -1.09211383e-02 3.27461725e-03 4.20968980e-02
    -3.41557153e-02 2.30074320e-02 1.70387211e-03 1.35905799e-02
    2.43989448e-03 2.88125942e-03 -1.06689604e-02 1.32202823e-03
    2.81404201e-02 -3.84700969e-02 -1.26510421e-02 -1.26518533e-02
    2.49246322e-02 -1.00153619e-02 -1.62891019e-02 -1.97525285e-02
    8.15659179e-04 9.85118747e-03 -2.89876219e-02 1.51970545e-02
    1.93814822e-02 -7.93700386e-03 -2.29643676e-02 -3.26700765e-03
    -1.78844873e-02 -1.09563647e-02 1.79481693e-02 -4.53882627e-02
    -7.21894391e-03 -2.99701858e-02 -4.84009692e-03 -1.82684138e-02
    5.84581634e-03 2.82171764e-03 -7.00928271e-04 2.40571145e-02
    -5.37154637e-03 1.31879356e-02 8.59418232e-03 1.76558569e-02
    -5.74986590e-03 2.93543423e-03 -5.52508421e-03 -1.97058655e-02
    7.77770532e-03 -1.56289712e-02 2.28701495e-02 2.97941291e-03
    -3.11641052e-04 -8.75628367e-03 9.02771950e-03 -9.43664089e-03
    -1.01767154e-02 1.07217999e-02 -2.17135176e-02 1.00967661e-02
    3.86869302e-03 2.24476438e-02 -1.15302240e-03 9.86920856e-03
    5.23040071e-04 -6.83236495e-03 1.07909273e-02 -3.16988081e-02
    2.02288050e-02 -1.10199545e-02 1.17642079e-02 -1.21297548e-02
    -1.98351797e-02 -8.48959107e-03 -6.97487360e-03 1.74723119e-02
    4.30923328e-03 3.84983681e-02 9.79553163e-03 -3.73043772e-03
    -2.01993380e-02 -2.27150340e-02 8.24116264e-03 -1.99644640e-02
    -4.66884114e-03 -1.13167074e-02 3.82270175e-03 -2.64736358e-03
    -9.36292671e-03 -1.37970904e-02 -5.39672608e-03 -7.74326967e-03
    1.70238476e-04 1.95831992e-02 -1.07849184e-02 2.80782767e-02
    6.10035518e-03 -5.28893946e-03 -1.49086462e-02 -9.03959200e-03
    1.32007580e-02 -1.20308697e-02 9.71875712e-03 -2.03105081e-02
    -8.84219445e-03 -8.20066407e-03 -9.57808644e-03 -1.36177950e-02
    9.07529204e-04 1.97280142e-02 -9.01042111e-03 1.77457388e-02
    -9.16054565e-03 2.97893840e-03 -9.67257749e-03 -1.40411155e-02
    -2.34497711e-02 1.43882399e-02 2.03630957e-03 -2.71140393e-02
    2.04989943e-03 -2.28938498e-02 9.70776100e-03 -1.18623525e-02
    8.24153423e-03 -7.61645520e-03 -9.55422036e-03 8.85155238e-03
    3.75232473e-03 2.03957893e-02 -1.33956736e-02 1.78078841e-03
    -2.34472454e-02 -7.27917440e-03 -3.60450149e-03 1.23450020e-02
    -7.28407316e-03 -6.29123626e-03 -7.75414426e-03 -1.74811669e-02
    1.19958390e-02 -2.11254042e-02 1.19414786e-02 8.75674281e-03
    1.51178557e-02 1.00358697e-02 -1.66778953e-03 1.35636833e-02
    6.52055489e-03 2.60497238e-02 -3.50200036e-03 -8.09179619e-03
    3.86678893e-03 1.68929603e-02 -6.16527023e-03 3.72042996e-04
    2.79819872e-03 3.09583405e-03 1.54339727e-02 2.70518521e-03
    -5.98136242e-03 6.46892330e-03 1.45886270e-02 -3.66881432e-04
    -8.13465659e-03 4.32961155e-03 -8.14120471e-03 8.32169596e-03
    -2.21769158e-02 7.22094206e-03 6.40958082e-03 4.85937158e-03
    5.22575714e-03 1.63843594e-02 2.44041272e-02 -1.47982603e-02
    1.18921669e-02 -1.54160438e-02 6.83603203e-03 1.47179905e-02
    2.42804084e-02 6.65648049e-03 -4.89905187e-06 1.22467391e-02
    -5.00984490e-04 1.82175469e-02 6.86874380e-03 -1.18142022e-02
    1.69816874e-02 2.03495622e-02 7.56110158e-03 -9.98929702e-03
    2.91246939e-02 -1.36342756e-02 2.27641757e-03 -2.93683680e-03
    -1.41556589e-02 -9.99054057e-04 2.29705088e-02 2.53219120e-02
    2.83547658e-02 1.41097689e-02 -8.44179839e-03 2.44373064e-02
    1.01574669e-02 2.05862662e-03 2.10199524e-02 3.17235105e-02
    2.96372883e-02 1.90638825e-02 1.91336256e-02 -9.96442977e-03
    1.49455881e-02 7.53020402e-03 5.14218770e-03 6.16021827e-03
    1.87365226e-02 3.30907269e-03 -6.84207724e-03 1.98858115e-03
    -7.82201253e-03 -6.60330849e-03 -3.64269246e-03 5.47394802e-06
    -2.49691703e-03 1.43566811e-02 -2.88224197e-03 -4.85382602e-03
    1.08857267e-02 3.19923908e-02 2.58927066e-02 1.19001027e-02
    -9.41155385e-03 -5.76694123e-03 2.24071257e-02 -1.05337659e-03
    1.58482753e-02 5.61228860e-03 4.87011205e-03 8.23112763e-03
    -1.89905316e-02 1.14287222e-02 1.85537226e-02 -1.59886666e-02
    -1.04697337e-02 1.16335917e-02 6.73241168e-03 2.96577439e-02
    2.86232904e-02 2.51923525e-03 1.18648130e-02 8.23067874e-03
    -8.16628989e-03 1.72833242e-02 -1.22988764e-02 -4.67568357e-03
    -1.57838017e-02 3.17546376e-03 -2.57360712e-02 -1.02435788e-02
    -1.00803850e-02 1.23952124e-02 6.35302858e-03 2.10655201e-03
    1.72193330e-02 2.56136823e-02 3.93840894e-02 -4.94311657e-03
    -8.26579519e-03 9.71233845e-03 -1.09165683e-02 -8.93590692e-03
    -1.27827032e-02 -8.22748523e-03 3.44063248e-03 4.32729401e-04
    -2.64933519e-02 -2.26327851e-02 -1.36865582e-02 -2.97322590e-03
    -2.98754568e-03 -1.74529757e-02 1.62769537e-02 4.65247594e-02
    3.36677171e-02 -1.48933392e-03 -2.44013336e-03 -7.81988376e-04
    4.76174429e-03 -1.05232839e-02 -8.89129844e-03 1.06236106e-02
    3.82951926e-03 2.50074156e-02 -4.24295757e-03 -1.36666205e-02
    -1.09692225e-02 5.59055666e-03 -8.48866161e-03 1.19708851e-03
    1.29505154e-02 -2.83540040e-03 2.79211737e-02 -9.22427233e-03
    -1.36704221e-02 -1.17299415e-03 -6.63905777e-03 -1.99331827e-02
    -1.57708488e-02 3.01934779e-02 1.75624173e-02 1.46476477e-02
    -2.43424643e-02 -1.18629010e-02 -1.20040197e-02 -8.86444096e-03
    -2.29126438e-02 -7.23093282e-04 4.08597477e-02 3.67743410e-02
    3.10641453e-02 -3.66515410e-03 -1.40562253e-02 -4.56303405e-03
    2.43446175e-02 9.19104833e-03 -7.29133142e-04 2.82419822e-03
    -2.94742119e-02 1.23209890e-03 4.33555292e-03 -8.94495472e-03
    2.25036032e-02 1.76560860e-02 1.92053989e-02 1.08780703e-02
    -5.04909782e-04 -6.61717402e-03 1.45173613e-02 -3.76660051e-03
    -1.21676549e-02 1.15468958e-03 -6.79427339e-03 4.09947336e-03
    -3.34323128e-03 1.77572742e-02 -2.64280732e-03 7.23545859e-03
    -9.06625390e-03 -5.70484262e-04 8.71552434e-03 1.19917961e-02
    2.25129537e-02 9.50236060e-03 1.09987818e-02 -1.30713833e-02
    7.03730760e-03 -6.61524059e-03 -1.23485215e-02 1.98850203e-02
    1.59149989e-02 1.70764085e-02 3.38286441e-03 3.09634185e-03
    2.15439443e-02 2.53887381e-02 1.97210070e-02 1.08265374e-02
    -3.49794072e-03 1.24165490e-02 8.18287209e-03 -2.05538310e-02
    -2.29795706e-02 -2.14875173e-02 1.95590928e-02 1.33902747e-02
    1.98084917e-02 5.99694764e-03 1.73873454e-02 1.13008982e-02
    -1.78493105e-03 7.48660509e-03 3.70415999e-03 1.01788789e-02
    -1.24110868e-02 -1.50023233e-02 -1.05413860e-02 -4.12310101e-03
    9.04500857e-03 -1.17796175e-02 -1.01627111e-02 -1.83406677e-02
    2.02050228e-02 8.95016640e-03 4.59414767e-03 6.18158607e-04
    1.90054197e-02 2.87506934e-02 1.68869030e-02 -1.03464127e-02
    -2.58290824e-02 -1.18849264e-03 7.31462566e-03 1.83746275e-02
    -5.43115893e-03 1.29947346e-02 2.22387966e-02 6.96050888e-03
    1.10591180e-03 -2.23583449e-02 4.62147407e-03 1.25353705e-04
    7.63700996e-03 -6.64836774e-03 1.97778270e-02 2.92769428e-02
    3.51964636e-03 -1.01381335e-02 -2.76632886e-02 1.20248487e-02
    9.42543615e-03 1.04827248e-02 1.23320697e-02 1.62506383e-02
    6.94731390e-03 -6.87552942e-03 5.75158978e-03 -3.04929148e-02
    6.34113653e-03 -1.45527872e-03 2.04668865e-02 4.64885170e-03
    5.17394301e-03 4.21833666e-03 8.79049487e-03 1.55263720e-03
    -1.96526591e-02 6.14056038e-03 2.06108647e-03 5.99105749e-03
    -1.84977392e-03 1.89299148e-03 1.28999185e-02 6.45635370e-03
    1.73477270e-02 -9.58830491e-03 3.77867185e-03 9.22047440e-03
    6.74704975e-03 1.63414562e-03 1.19278161e-02 -6.52036956e-03
    3.38269002e-03 -2.06748676e-03 -3.15376967e-02 2.78524566e-03
    -1.06756377e-03 1.60085224e-02 -7.86685944e-03 6.99866097e-03
    8.16990249e-03 5.40064648e-03 1.51566612e-02 -1.54034104e-02
    -5.03944466e-03 8.67904397e-04 -1.13756854e-04 -1.30674765e-02
    6.83154259e-03 1.52194314e-02 2.16195942e-03 1.93692818e-02
    -9.77661088e-03 1.16683799e-03 1.06688775e-02 2.34452728e-03
    -5.60319005e-03 2.22955570e-02 9.51248221e-03 1.15696033e-02
    2.24766750e-02 4.81303874e-03 9.91681591e-03 -7.91843329e-03
    1.55529167e-04 1.39542222e-02 8.38695280e-03 -5.11976331e-03
    2.70008342e-04 1.12730088e-02 -1.48137622e-02 6.17991947e-03
    2.22664836e-04 -4.21688054e-03 -3.17042577e-03 -2.81325239e-03
    -6.75999466e-03 5.19191707e-03 2.16142386e-02 -1.09501351e-02
    1.49174761e-02 -6.66028541e-03 -8.27509817e-03 3.38556175e-03
    1.37168216e-02 2.11896204e-05 7.49508617e-03 -7.83732467e-05
    8.47771298e-03 -3.06879892e-03 -1.13672847e-02 -1.65137500e-02
    1.18022447e-03 1.82874445e-02 1.42579554e-02 6.50360889e-04
    2.20940765e-02 -4.74101724e-03 1.10399706e-04 6.24261377e-03
    -7.83466827e-03 -7.66679784e-03 -2.49790624e-02 2.27020727e-03
    1.76678260e-03 1.62045229e-02 -5.33781620e-03 2.41814274e-02
    1.41694932e-03 -1.46672968e-03 -1.19792460e-03 9.18710884e-03
    1.21836644e-02 1.61173858e-03 3.41809504e-02 -7.09656021e-03
    3.67511995e-02 2.32326277e-02 6.44489005e-03 -6.69434434e-04
    -9.68708075e-04 -2.28510089e-02 3.04615544e-03 9.09473654e-03
    -2.87107248e-02 1.29562514e-02 3.18279192e-02 2.95382030e-02
    2.05545388e-02 2.37551834e-02 -1.52250128e-02 -4.78683226e-03
    4.12874040e-04 -3.26028280e-02 7.89930229e-04 -5.10273408e-03
    2.58141775e-02 2.41351835e-02 -3.69107351e-02 -2.78284773e-02
    -7.26673799e-03 1.56027405e-02 -2.64602732e-02 1.22164888e-02
    1.18738376e-02 -1.25065749e-03 -1.03067339e-03 -2.67506670e-03
    -1.13279335e-02 -8.73200130e-03 -7.16643035e-03 -5.22512607e-02
    -1.81984790e-02 -1.20173683e-02 -2.23246180e-02 -3.34933121e-03
    2.62711067e-02 -4.49163467e-03 5.27874520e-03 2.40639634e-02
    -1.97179150e-04 3.03619169e-03 6.07619807e-03 9.76484176e-03
    -5.74948592e-03 1.44099575e-02 1.14175293e-03 -4.37897805e-04
    3.80486064e-02 -1.11407982e-02 3.73202562e-02 1.63571220e-02
    2.38232557e-02 5.60203509e-04 1.73821375e-02 1.32898549e-02
    -1.41229306e-04 5.32854395e-03 -2.85632256e-02 -9.33113159e-04
    -2.28321253e-04 -1.42889759e-02 -1.41350655e-02 -1.07659595e-02
    -2.49500456e-03 -5.80566470e-03 1.04737014e-03 -3.46584730e-02
    1.58529412e-02 -4.84842993e-03 -8.55712406e-03 -9.20768641e-03
    -6.69943076e-03 -1.47222765e-02 -7.16165267e-03 1.75093729e-02
    -1.94099788e-02 4.27861437e-02 3.07576284e-02 2.05238201e-02
    -1.16756046e-02 8.06817133e-03 9.88896284e-03 1.07631180e-02
    -5.26807876e-03 -2.69730818e-02 1.45785464e-02 4.55456832e-03
    -8.88844114e-03 -1.05248215e-02 -1.61671173e-02 -2.16824710e-02
    -8.64768866e-03 9.55513027e-03 -2.58056130e-02 3.32971029e-02
    2.32909974e-02 6.18331181e-03 -1.09360842e-02 -1.92827196e-03
    -3.86962667e-03 3.81927798e-03 -1.13666821e-02 -3.58406119e-02
    2.97360215e-02 -1.02957198e-03 -1.01370215e-02 -1.89276654e-02
    2.37784651e-03 1.29596228e-02 1.96919683e-02 1.85860880e-02
    -9.19615477e-03 5.10259625e-03 -1.78814158e-02 -7.79314339e-03
    6.50150003e-03 2.67469883e-03 1.04561553e-03 7.06149358e-03
    5.33228181e-03 -2.44729500e-02 -9.41138528e-03 -1.87363792e-02
    4.24244953e-03 2.69885305e-02 1.40975816e-02 6.69894321e-03
    1.63190309e-02 1.27697056e-02 -1.29278982e-02 2.13072989e-02
    -1.10347550e-02 -4.17181436e-04 3.34391196e-04 2.24854890e-03
    1.18286368e-02 4.33893595e-03 4.64606006e-03 -3.65780741e-02
    -5.03523182e-03 -2.20601112e-02 9.10458434e-03 5.63549483e-03
    2.11280421e-03 8.06510355e-03 3.99803557e-03 1.41126532e-02
    -6.76387083e-03 3.16672307e-03 -1.36924302e-02 5.33161545e-03
    9.25364811e-03 4.24073543e-03 3.51759628e-03 4.07824805e-03
    2.08779480e-02 -2.14749593e-02 6.80369511e-03 6.17006421e-03
    1.61669087e-02 1.65656246e-02 6.24794420e-03 2.01396253e-02
    2.23503560e-02 2.16943212e-02 -1.69068556e-02 1.10686896e-02
    -1.45273702e-03 2.54355744e-02 1.72592867e-02 2.88041644e-02
    2.80174408e-02 1.65423118e-02 1.18210036e-02 -2.90624443e-02
    -7.82920886e-03 4.40298067e-03 2.56062020e-02 2.38723774e-02
    1.48610340e-03 2.57467013e-02 2.69791521e-02 2.75744870e-03
    -2.80406773e-02 1.72402207e-02 1.27167208e-02 9.91814118e-03
    9.42586921e-03 2.53761578e-02 3.78786325e-02 3.13526541e-02
    -5.53410035e-03 -2.93434002e-02 1.75490864e-02 8.98120180e-03
    2.07531843e-02 7.57701579e-04 5.89519786e-03 1.88024398e-02
    4.36881231e-03 4.25503170e-03 -2.90081073e-02 5.48416981e-04
    6.43894868e-03 1.72050130e-02 1.78577136e-02 1.27529502e-02
    1.41811203e-02 1.49152726e-02 1.16899926e-02 -1.36119463e-02
    4.90307459e-04 7.24352291e-03 2.36605126e-02 1.94734689e-02
    8.54369532e-03 1.11063467e-02 1.21348575e-02 -1.06482022e-02
    -1.45862401e-02 6.21499820e-03 -7.27739651e-03 2.07712520e-02
    -6.05061557e-03 -1.93160381e-02 -6.34499406e-03 1.96805578e-02
    1.54465707e-02 1.10731917e-02 1.21437982e-02 -4.63495962e-03
    2.84346696e-02 4.17127134e-03 -6.72747428e-03 -2.71613081e-03
    9.21065453e-03 1.82579607e-02 8.57350044e-03 6.42971462e-03
    5.82461059e-03 1.01711936e-02 -3.90149094e-03 1.24539202e-03
    1.56010902e-02 2.58424394e-02 3.44023220e-02 3.42125930e-02
    1.14244949e-02 2.72203167e-03 9.92854685e-03 5.00792963e-03
    -1.16665736e-02 -1.83476694e-02 -4.60752519e-03 4.48998093e-04
    3.67503404e-03 -7.64790690e-03 -1.57292504e-02 1.01280743e-02
    2.98345415e-03 1.84117462e-02 -4.35583619e-03 -6.13858830e-03
    2.47778893e-02 2.63682008e-02 2.12621912e-02 -6.66222395e-03
    1.33588479e-03 1.11553036e-02 -1.99531242e-02 1.22126110e-03
    2.92190211e-03 9.19487793e-03 -2.01933854e-03 -1.86655410e-02
    -2.76313853e-02 -2.41600629e-03 -2.02534217e-02 -8.35132040e-03
    1.28532629e-02 9.78598953e-04 1.36141498e-02 9.37032141e-03
    -7.33787520e-03 -2.33531613e-02 -5.48304524e-03 -8.30130558e-03
    1.11157272e-03 -6.07544603e-03 -4.52188635e-03 3.90443914e-02
    1.97315533e-02 -1.71878038e-03 -3.53198871e-02 -1.60113126e-02
    2.13356945e-03 5.57522243e-03 -1.53725576e-02 -1.12425070e-04
    2.83232629e-02 1.63216610e-02 1.45371258e-02 -7.30800955e-03
    6.45006681e-03 1.18961604e-02 -6.70074206e-03 6.43684296e-03
    -2.47888057e-03 3.29198390e-02 -8.49925447e-03 -1.01674674e-02
    -3.59433107e-02 -2.57283747e-02 -2.23236065e-02 -2.45575048e-03
    1.33830374e-02 1.90361328e-02 3.46087255e-02 -1.49837146e-02
    -1.57378558e-02 -3.06021087e-02 -1.93812035e-03 -8.89994483e-03
    -9.81688220e-03 -1.51002873e-02 1.19309826e-02 2.24629734e-02
    7.32163060e-03 1.06382240e-02 1.06331892e-02 1.15959188e-02
    3.94828431e-03 1.08888829e-02 6.72109798e-03 1.06746228e-02
    2.51938123e-02 -2.50376016e-03 3.52467760e-03 3.57667683e-03
    7.92010105e-04 -1.18845915e-02 -8.60120170e-03 -9.50498320e-03
    1.39241349e-02 1.01348124e-02 -5.26399491e-03 -1.14299757e-02
    -5.71136549e-03 5.97001519e-03 -1.61800943e-02 -2.67073400e-02
    -2.20563542e-02 -1.16675440e-02 1.46238767e-02 -3.90326395e-03
    -3.72055429e-03 -1.32449146e-03 4.01172228e-03 -7.52074458e-03
    2.50986405e-02 2.30148286e-02 5.11166267e-03 1.85227729e-02
    -1.36894558e-03 9.02397383e-04 -1.39341550e-03 1.05799204e-02
    -8.27900600e-03 1.94424968e-02 2.79510524e-02 5.76072140e-03
    -1.65378803e-03 -1.77116171e-02 1.42043233e-02 5.55910543e-03
    1.96371023e-02 -4.81685577e-03 1.98479854e-02 -5.55649260e-03
    3.15306988e-03 2.61731762e-02 2.21913542e-05 -5.67352492e-03
    -5.51077165e-03 -5.37870161e-04 -4.85271029e-03 2.78082583e-02
    8.42810795e-03 9.21112485e-03 7.49808084e-03 -2.90194452e-02
    -1.50912872e-03 -2.13183765e-03 1.93559024e-02 1.96304321e-02
    1.87384076e-02 1.71345994e-02 1.02050358e-03 9.57633276e-03
    -5.97304851e-03 2.14973297e-02 1.74095500e-02 1.68104749e-02
    -5.33231487e-03 2.00828835e-02 1.65299978e-02 2.10991781e-03
    1.94542706e-02 -2.89792921e-02 8.83682817e-03 2.24113883e-03
    7.35343713e-03 7.04267342e-03 9.05808806e-03 1.39445392e-03
    -5.61373215e-03 9.58072208e-03 -1.37676289e-02 1.00181680e-02
    1.22836912e-02 9.06704552e-03 6.15328830e-03 6.11866638e-03
    4.12676018e-03 -1.47002293e-02 1.47255585e-02 -4.51506712e-02
    -6.27595466e-03 -8.92235152e-03 -2.12251442e-03 1.17256287e-02
    7.95790181e-03 7.26900669e-03 9.02119093e-03 1.71093624e-02
    -2.53355876e-02 1.91206317e-02 1.09118118e-03 6.22670585e-03
    5.24292048e-03 3.00428737e-02 3.55083402e-03 7.74976797e-03
    3.21560614e-02 -1.26901893e-02 1.28214629e-02 -5.29844128e-03
    3.12046101e-03 2.05185656e-02 9.31347348e-03 3.46897217e-03
    -1.34946685e-02 -1.39524796e-04 -4.62396443e-02 3.83058423e-03
    -8.68184026e-03 7.64663564e-03 1.37346406e-02 7.96678942e-03
    1.00565273e-02 4.07381635e-03 1.67576391e-02 -1.25357471e-02
    1.22703388e-02 2.83425697e-03 1.15267257e-03 1.41090769e-02
    2.55975779e-02 -6.48030080e-03 -4.24161740e-03 1.74093228e-02
    -1.55421114e-02 2.10965890e-02 7.40398420e-03 -6.24158944e-04
    3.20878043e-03 1.49744088e-02 -7.68647157e-03 -5.61814569e-03
    2.07673144e-02 -1.57795511e-02 2.44088396e-02 1.90059524e-02
    7.52655510e-03 1.83766838e-02 8.87503289e-03 1.28411539e-02
    6.14695949e-03 1.86301786e-02 -9.67941433e-03 1.78455506e-02
    -2.32466683e-03 -2.78817769e-02 3.66522418e-03 1.44163612e-02
    -1.34509662e-03 1.60691363e-03 1.46659100e-02 -2.53295451e-02
    4.24487591e-02 1.76262595e-02 8.59711028e-04 2.26955004e-02
    -3.78186628e-03 8.77181161e-03 3.04914382e-03 3.01685780e-02
    -1.42165963e-02 2.89076865e-02 2.23112050e-02 1.30306948e-02
    1.83365121e-02 2.23466400e-02 2.53039338e-02 7.73814507e-03
    4.18341421e-02 -7.78124575e-03 3.63444537e-02 1.98416375e-02
    1.30496658e-02 1.18366256e-02 1.00049702e-02 -4.21347475e-04
    1.02682998e-02 2.14552004e-02 -2.25967932e-02 3.02520115e-02
    1.18033476e-02 1.27233295e-02 -1.43116596e-03 2.02744803e-03
    -3.83711886e-03 2.01668795e-02 1.76113937e-02 -3.05746403e-02
    2.83741429e-02 1.94365457e-02 2.30642930e-02 7.50983786e-03
    -2.42316611e-02 2.94021866e-03 1.58339906e-02 3.80310751e-02
    -3.65386694e-03 2.22815089e-02 2.49887351e-02 7.48890685e-03
    -5.39023103e-03 1.31475534e-02 1.40332617e-02 1.72807707e-03
    1.98383853e-02 -1.08589437e-02 4.41583665e-03 -5.87578211e-03
    -1.53314450e-03 -1.11787557e-03 -1.56998914e-02 -9.30033065e-03
    -1.96644142e-02 9.04271752e-03 -5.56844985e-03 1.80957653e-02
    3.89313959e-02 2.92184507e-03 -2.09191181e-02 -1.92525126e-02
    -2.39626747e-02 -1.11936852e-02 -1.54047534e-02 -2.07168516e-02
    4.34820540e-04 -4.28752974e-03 -1.26128383e-02 -1.69086494e-02
    -1.17201696e-03 1.24998847e-02 1.60265677e-02 1.68263447e-03
    -1.60913058e-02 9.43843182e-03 -6.05291361e-03 -1.80756636e-02
    -2.31528766e-02 -7.04864226e-03 1.64752752e-02 4.62382706e-03
    -8.02137796e-03 1.56626534e-02 4.36249413e-02 1.63241569e-02
    -6.32406492e-03 -9.92670096e-03 -5.10501815e-03 -8.24954826e-03
    -6.15164358e-03 -9.79777239e-03 -2.79735439e-02 1.21613825e-02
    -1.88276276e-03 -6.74242526e-03 -6.45484356e-03 7.90579070e-04
    -3.33483657e-03 -2.08410458e-03 1.86914369e-03 1.65218208e-03
    2.67412104e-02 -3.38125648e-03 -1.23254666e-02 -1.11914091e-02
    -1.12817073e-02 -7.88889360e-03 -1.31167052e-02 -8.40608403e-03
    -1.59204919e-02 4.29428108e-02 2.65330411e-02 -1.71724381e-03
    -1.42555749e-02 3.36004910e-03 -1.92059241e-02 -1.02179013e-02
    -6.44119550e-03 -5.65833878e-03 3.67255844e-02 2.66922489e-02
    2.42166165e-02 -1.13716666e-02 -3.55794281e-03 -1.90445047e-03
    -2.22976524e-02 -2.15032734e-02 -2.67990585e-02 1.29209301e-02
    5.20305941e-03 -2.62152590e-02 -2.08928548e-02 -7.42124743e-04
    -4.54296824e-03 -7.78917177e-03 -2.18123700e-02 -2.99039502e-02
    1.89484619e-02 1.57625899e-02 6.96703233e-03 5.15744276e-03
    7.18655158e-03 -1.35421799e-02 -4.63253167e-03 1.70781892e-02
    -8.45701620e-03 9.51293670e-03 -9.32572130e-03 8.27653706e-03
    1.68542061e-02 1.02885198e-02 1.52912559e-02 4.79822187e-03
    1.50300544e-02 -2.59555317e-03 1.76372658e-02 -7.15640886e-03
    1.17682386e-02 1.96640287e-02 1.25673739e-02 1.24070011e-02
    1.66212618e-02 2.34439713e-03 -2.14502532e-02 7.00685801e-03
    1.73542891e-02 1.37995044e-02 6.77767070e-03 1.64890420e-02
    2.16877814e-02 5.26939402e-04 1.14025315e-02 -1.76499486e-02
    1.95172410e-02 -7.16514792e-03 1.19145736e-02 -6.68890309e-04
    2.77103251e-03 1.99957825e-02 2.71295793e-02 1.70615781e-02
    -1.76294502e-02 1.75324548e-03 -7.74979708e-04 1.38819488e-02
    1.94611121e-02 2.33781673e-02 2.54006907e-02 2.70943008e-02
    1.65975355e-02 -3.92231196e-02 -2.35837491e-04 -1.57982670e-03
    1.17963925e-02 2.19315905e-02 1.04006054e-02 1.48655446e-02
    4.48167603e-03 2.34546475e-02 -2.17834394e-03 8.29988997e-03
    -1.36303706e-02 -4.64176992e-03 -8.47148802e-03 5.84537303e-03
    2.23856196e-02 2.06442531e-02 2.71267425e-02 -3.18517946e-02
    -3.17598053e-04 5.12149138e-03 1.68759208e-02 1.66532975e-02
    1.10823484e-02 1.49061568e-02 -7.39659695e-03 1.64217781e-02
    -3.41335163e-02 -4.90513630e-03 6.97312225e-03 1.84955485e-02
    5.38559025e-03 -1.93380553e-03 9.37738549e-03 7.50099774e-03
    1.25996042e-02 -3.11866254e-02 -4.50500334e-03 1.40510257e-02
    3.45675759e-02 6.59337267e-03 1.68502182e-02 3.58213135e-03
    6.91930763e-03 1.33741391e-03 -5.26513718e-02 -2.75637535e-03
    3.02745122e-02 2.79666223e-02 2.85556372e-02 1.24977399e-02
    -1.07094261e-03 1.28590381e-02 5.20489691e-03 -4.08523902e-02
    1.45425769e-02 2.23181099e-02 3.69803496e-02 3.17802839e-02
    -1.09467679e-03 1.65003445e-02 1.87522620e-02 1.24780936e-02
    -7.29666371e-03 4.54922207e-04 7.41486112e-03 2.13976521e-02
    -3.75724724e-03 1.20965494e-02 3.32447477e-02 1.64921358e-02
    1.40223280e-02 -5.89762640e-04 7.59947579e-03 -1.32984230e-02
    5.49467932e-03 -3.27803893e-03 1.29688829e-02 6.11037016e-03
    3.17174685e-03 -1.10654635e-02 -2.29409970e-02 4.82888659e-03
    1.36363348e-02 2.49467250e-02 1.53929852e-02 9.59815737e-03
    8.69947951e-03 -7.90348556e-03 4.48202016e-03 -1.60295889e-02
    -1.31656451e-03 6.79811044e-03 1.34389186e-02 1.93163026e-02
    5.33269579e-03 1.17151299e-02 1.26040555e-04 5.94320893e-03
    -1.77670848e-02 -9.72856767e-03 -2.36449614e-02 -4.02722089e-03
    5.21871913e-03 -1.78152369e-03 5.01337787e-03 1.01330616e-02
    5.34614595e-03 -1.51361953e-02 -2.35229428e-03 -2.74365186e-03
    8.37589893e-03 1.21884709e-02 1.18173826e-02 3.51562398e-03
    -1.88017450e-02 -2.54098698e-03 -2.12938394e-02 -1.13675208e-03
    -4.69198544e-03 1.12337340e-02 1.70515794e-02 2.64304932e-02
    1.81684829e-02 3.04517895e-02 1.51551496e-02 -2.31417120e-02
    7.49657443e-03 1.55263683e-02 2.60410905e-02 3.03063765e-02
    1.34106344e-02 1.48856845e-02 1.29041690e-02 2.11697407e-02
    -1.71326827e-02 -8.59445799e-03 -1.49744703e-02 -1.40098156e-02
    9.67944681e-04 3.14660296e-02 1.18338689e-02 2.48848442e-02
    3.76869775e-02 -2.20865291e-03 -1.65957566e-02 -3.08496617e-02
    -5.30264666e-03 -2.28557251e-02 1.04477238e-02 1.57068372e-02
    2.39771102e-02 1.30093889e-02 -2.78186146e-02 -1.47703681e-02
    -1.51819298e-02 2.93079880e-03 7.16836890e-03 2.57211830e-02
    1.05172964e-02 8.38198513e-03 1.90565027e-02 -1.75616685e-02
    -1.29608773e-02 -3.73023227e-02 -1.00262677e-02 -4.62462986e-03
    2.04317085e-02 4.69295913e-03 1.71534158e-02 1.49443448e-02
    -2.68118200e-03 -8.84909835e-03 -5.32626780e-03 2.40168604e-03
    4.13293391e-03 -9.34052281e-03 -6.29481161e-04 -5.88871399e-03
    1.35435974e-02 4.57891356e-03 5.14303893e-03 8.72095022e-03
    6.29183790e-03 -9.62199061e-04 1.25049558e-02 1.52019178e-03
    -1.91553001e-04 -6.88173762e-03 -2.16023494e-02 -1.76338537e-03
    -1.78111214e-02 -1.24446834e-02 -3.98846483e-03 7.89095927e-03
    6.33426243e-03 -1.02779223e-02 4.02803579e-03 -3.41550657e-03
    1.13460915e-02 6.63109310e-03 -1.96495373e-02 1.15499124e-02
    2.44136504e-03 -1.02241663e-02 1.90045568e-03 1.17293010e-02
    -8.14487517e-04 3.22097656e-03 -3.92935565e-03 5.18710725e-03
    -5.37806947e-04 1.62632708e-02 -1.12502119e-02 -8.87406711e-03
    1.03737172e-02 -2.47088559e-02 1.32847335e-02 8.05149041e-03
    6.60005305e-03 -4.76389797e-03 3.79361808e-02 4.95207403e-03
    -1.87755805e-02 1.11188227e-02 3.07093887e-03 9.09642875e-03
    -2.37651635e-03 -3.37158609e-03 2.53706821e-03 1.65335797e-02
    5.81605406e-03 -7.52318231e-03 3.10937548e-03 -2.45475788e-02
    -1.05468314e-02 -3.66721093e-03 6.59780391e-03 1.09561868e-02
    8.07031151e-03 1.47590255e-02 4.83030127e-03 1.03480881e-02
    -2.01232377e-02 1.19128143e-02 8.64539389e-03 -5.10201696e-03
    -1.66600421e-02 2.93435566e-02 2.56784447e-02 1.99142899e-02
    2.05296874e-02 -3.58887091e-02 -3.56208230e-03 -9.68216266e-03
    -9.51720309e-03 -9.06631630e-03 1.92248244e-02 8.73930869e-04
    -1.43112091e-03 -1.03433551e-02 -1.71309896e-02 8.53890833e-03
    2.09517535e-02 1.14572309e-02 8.57931748e-03 2.46205498e-02
    -7.63609400e-03 1.80919818e-03 -1.13058509e-02 -1.94523688e-02
    5.96959004e-03 8.02120008e-03 -1.14839419e-03 1.36222504e-02
    2.36866660e-02 2.54795998e-02 2.06079427e-02 1.29265012e-02
    -2.63125151e-02 -1.02132058e-03 -3.57341091e-03 -9.51542147e-03
    4.18086350e-03 1.85008924e-02 1.98793318e-02 2.80515086e-02
    9.47402976e-03 -1.60267595e-02 2.32899431e-02 2.03259755e-02
    -1.56535604e-03 1.83922853e-02 1.39508676e-02 6.64780661e-03
    1.74899225e-03 -2.09073024e-03 -1.45863509e-02 1.57656092e-02
    -2.58869841e-04 7.16668292e-05 1.36576695e-02 3.15921847e-03
    6.38420554e-03 -2.00595031e-03 -8.44546221e-03 -4.20463383e-02
    2.82393284e-02 9.16997902e-03 5.42918360e-03 1.50028821e-02
    1.85135454e-02 1.41321234e-02 1.97815839e-02 3.06651723e-02
    -7.03357672e-03 3.91519926e-02 7.99584109e-03 -2.44119838e-02
    -3.15221702e-03 1.59285534e-02 1.40396086e-02 2.54045278e-02
    3.17914709e-02 1.04819648e-02 5.75942025e-02 1.07123191e-02
    -7.56355794e-03 1.32876285e-03 1.53687794e-03 6.89024059e-03
    -7.10521452e-03 2.45688809e-03 -3.28129716e-02 2.75022686e-02
    -8.42419104e-04 -1.11261150e-02 -3.73649877e-03 -4.07771766e-03
    9.71791800e-03 1.04229141e-03 6.04265882e-03 -2.53786761e-02
    3.73885408e-02 1.03218947e-02 -4.74624988e-03 -1.10860169e-02
    -9.41098854e-03 7.87922181e-03 2.75351349e-02 3.14262360e-02
    -2.29234039e-03 5.88372424e-02 1.32334810e-02 -1.06327692e-02
    -2.16903239e-02 -1.74321346e-02 1.41660188e-04 3.41862850e-02
    4.20143344e-02 -2.36143055e-03 6.60670698e-02 2.88296677e-02
    1.16577307e-02 -9.01283696e-03 -1.35590145e-02 -1.01770007e-03
    3.04247311e-04 1.27739012e-02 -1.88565720e-02 2.96171010e-02
    8.07705242e-03 -6.39167614e-03 -9.51053854e-03 -3.62731777e-02
    -2.11838633e-02 -7.63573404e-03 1.91820003e-02 -2.24810988e-02
    2.83090007e-02 2.63547860e-02 5.65950992e-03 3.93119873e-03
    -1.41441701e-02 -1.13453707e-02 -2.38338299e-02 9.83635150e-03
    -3.25987907e-03 1.91679709e-02 3.35241184e-02 -6.03811303e-03
    -1.02760866e-02 3.12970462e-03 -1.48258661e-03 -1.22730229e-02
    1.73376082e-03 -9.27912351e-03 -5.39402338e-03 9.52384155e-03
    -2.46519819e-02 -1.14251655e-02 -6.98974542e-03 -3.65918092e-02
    -4.26706932e-02 1.66939048e-03 -1.20319352e-02 2.38688812e-02
    2.84330063e-02 9.92224086e-03 -1.28354942e-02 -1.28847519e-02
    -9.37996712e-03 -1.00526744e-02 5.93042886e-03 -1.14720240e-02
    4.62048268e-03 2.25243587e-02 -2.16023671e-03 8.23942665e-03
    -1.04786530e-02 -4.68209898e-03 -1.53556396e-03 -6.55440288e-03
    -2.04661377e-02 -4.50845622e-03 6.04520133e-03 -1.71135459e-02
    -1.31139122e-02 -6.75656693e-03 1.08299981e-04 6.82472996e-03
    3.98478191e-03 1.63596887e-02 3.37247141e-02 5.96044166e-03
    -1.75549258e-02 -1.90256666e-02 -1.11127710e-02 6.22953661e-03
    1.37826847e-02 5.86191658e-03 -2.47857627e-02 -1.00517087e-02
    3.66610847e-02 1.89117454e-02 2.92883441e-03 -8.00914131e-03
    1.08271632e-02 4.40547196e-03 6.74822973e-03 -4.18448355e-03
    8.56548641e-03 7.44634774e-03 -2.26787975e-04 -1.73371639e-02
    -5.44154132e-03 4.58262488e-03 -4.88122087e-03 2.31099152e-03
    1.41923036e-02 2.84834169e-02 8.16116575e-03 -3.09291631e-02
    -2.56059933e-02 -4.98619484e-05 -1.81696769e-02 1.03156958e-02
    1.38269598e-03 1.95391593e-03 2.47715171e-02 4.33163233e-02
    2.80308276e-02 -9.05783288e-03 -2.36999262e-02 6.79567643e-03
    1.60304811e-02 6.75600721e-03 -1.43956179e-02 -5.31464256e-03
    -2.21747160e-03 -1.82205569e-02 -2.70955563e-02 -1.89880226e-02
    -1.14888623e-02 1.27128651e-02 9.39307967e-04 -8.37381184e-03
    -4.44519427e-03 3.35686095e-02 2.05315799e-02 -1.50366453e-02
    1.11955255e-02 -1.03261024e-02 2.36610156e-02 3.68545763e-03
    -1.66106950e-02 -1.28659513e-02 2.86779180e-02 2.52721254e-02
    1.08886333e-02 1.71307023e-04 8.72857030e-03 1.27329677e-02
    2.38645934e-02 -2.21442874e-03 -7.83568248e-03 8.24597292e-03
    1.88796353e-02 -6.44266896e-04 1.45291723e-03 -2.02106847e-03
    5.94884623e-03 7.01510254e-03 -8.43023881e-03 -1.98762156e-02
    2.88460255e-02 3.33161429e-02 1.86268277e-02 3.93563742e-03
    -1.05536717e-03 1.69673059e-02 1.27820866e-02 -1.92499049e-02
    -3.40614505e-02 -4.68583731e-03 1.89134665e-02 2.48572398e-02
    -2.87706149e-03 9.08204261e-03 -4.54487861e-04 4.49791783e-03
    -1.03870677e-02 7.27845822e-04 -1.52979158e-02 -7.64929550e-03
    -1.30564058e-02 8.57346132e-03 1.23674981e-02 1.09895924e-02
    1.44344745e-02 -5.35719236e-03 4.35610209e-03 1.72176901e-02
    1.64431650e-02 1.44945178e-02 -1.24665338e-03 -1.54735942e-04
    9.06893332e-03 4.61402116e-03 -1.14020612e-02 -1.78518016e-02
    -1.85693949e-02 1.76147446e-02 2.29108874e-02 3.24517116e-02
    -7.49407616e-03 2.01135292e-03 5.38342725e-03 -1.25892356e-03
    -1.12925731e-02 -2.31513195e-02 3.75513136e-02 3.84840481e-02
    1.41551299e-03 -1.08516458e-02 7.10083777e-03 4.39187046e-03
    -2.24347245e-02 5.49001805e-03 1.61969960e-02 8.22412688e-03
    6.85392972e-03 1.02850213e-03 -4.25604545e-03 -1.93942641e-03
    -5.84744895e-03 -2.37799846e-02 1.74077936e-02 1.67123657e-02
    3.34034339e-02 2.24894173e-02 1.72215700e-02 -1.07222795e-02
    6.65662903e-03 1.30041316e-02 -1.07612032e-02 -1.19055137e-02
    -1.49697652e-02 3.19394171e-02 2.29255892e-02 8.36208928e-03
    2.45272778e-02 6.85652066e-03 6.15393789e-03 -6.73680892e-03
    7.20029883e-03 2.17218930e-03 3.15322690e-02 1.32256299e-02
    -1.50445495e-02 -8.37031007e-03 -1.32112694e-03 5.12371771e-03
    -1.08680204e-02 4.05815197e-03 7.47376960e-03 8.92703049e-03
    4.47429763e-03 1.91036146e-03 -8.93502124e-03 -3.64642288e-03
    1.28670083e-02 -1.02563230e-02 -8.13207962e-03 1.51351914e-02
    1.45780733e-02 3.37681291e-03 7.46906968e-03 2.25606132e-02
    -3.99457617e-03 7.21919956e-03 7.16243987e-04 6.10722322e-03
    6.99770031e-03 1.02253966e-02 1.36133861e-02 2.88170613e-02
    5.36890235e-03 5.41146705e-03 1.23543404e-02 1.50015391e-03
    2.09128397e-04 1.09513029e-02 2.50941440e-02 3.15967724e-02
    -2.33029649e-02 -1.35961222e-02 -2.20983177e-02 -4.05772356e-03
    -2.98136156e-02 -8.41904525e-03 -4.29973891e-03 3.50945164e-03
    4.18011751e-03 -4.19450644e-03 1.18922871e-02 1.03503494e-02
    2.18736250e-02 -2.09670878e-04 4.17414261e-03 9.12194885e-03
    1.87513623e-02 1.91259868e-02 1.25176897e-02 4.61793970e-03
    -1.07932091e-02 9.23961401e-03 -5.34924166e-03 -5.82487672e-04
    2.15280056e-03 2.23232154e-02 2.81028133e-02 1.66415963e-02
    2.01073848e-02 1.06219882e-02 1.97726842e-02 7.66575895e-03
    3.93220270e-03 5.84614463e-03 1.92724206e-02 2.14504190e-02
    1.94179837e-03 1.02566127e-02 2.05552448e-02 2.28106007e-02
    -1.64247770e-02 -2.95953616e-03 -9.55732819e-03 1.04913376e-02
    2.18250230e-02 9.50528367e-04 -1.42856184e-02 -2.56644692e-02
    -4.93580359e-04 -2.23304518e-02 1.08364262e-02 -1.93569176e-02
    1.17555540e-02 7.59695610e-03 9.95328650e-03 1.14704389e-02
    1.34879239e-02 2.49809138e-02 -3.18341586e-03 -5.94782690e-03
    -4.60183946e-03 3.56096169e-03 2.30382737e-02 -7.83875026e-03
    -1.15247006e-02 -1.29726948e-02 2.41491627e-02 -1.37735135e-03
    1.51386103e-02 -9.09871829e-04 6.79325452e-03 7.66075123e-03
    1.39579251e-02 -1.09824818e-02 -1.51361898e-02 -3.94914299e-03
    -2.74548568e-02 8.15180875e-03 -9.31999646e-03 -5.95862512e-03
    7.45477062e-03 2.86757089e-02 -2.60689436e-03 -1.06566073e-02
    2.26433366e-03 -2.76631908e-03 2.33461875e-02 1.08754812e-02
    3.69872618e-03 2.71251518e-02 1.20299049e-02 -6.51322625e-05
    -9.18936543e-03 2.43092440e-02 -5.91701549e-03 1.33567704e-02
    5.11392672e-03 1.48813194e-02 -4.85713448e-04 8.80388729e-03
    -1.27883870e-02 -1.18687842e-03 2.13055480e-02 -4.50467598e-03
    2.45010592e-02 -4.20269353e-04 1.18597236e-03 4.50316910e-03
    3.41533758e-02 1.64737739e-03 -1.53167397e-02 1.38722928e-02
    1.02439867e-02 2.14834642e-02 8.46961048e-03 1.74143873e-02
    4.19741720e-02 3.05356123e-02 1.94157772e-02 -1.40040442e-02
    -1.23686530e-02 -3.04155443e-02 -1.55327935e-02 1.20812673e-02
    2.27378700e-02 3.31349596e-02 1.31633505e-03 -2.44297907e-02
    -6.06686994e-03 1.49936257e-02 2.65138838e-02 2.42817234e-02
    1.49745615e-02 2.57889368e-03 1.32169975e-02 2.36039166e-03
    -9.32984613e-03 -1.29691930e-02 -6.75476575e-03 -1.26305912e-02
    1.15881683e-02 1.68755483e-02 1.38454009e-02 1.00521976e-02
    5.22446400e-03 7.30504375e-03 -4.81111463e-04 -1.29140746e-02
    -1.27098160e-02 1.82700064e-03 2.67950315e-02 1.29399281e-02
    -7.31071364e-03 1.06413560e-02 4.07665269e-03 8.49007256e-03
    -4.17485880e-03 -2.23028474e-03 9.15980805e-03 2.21677087e-02
    -6.78502256e-03 2.47085281e-03 -2.49920413e-03 3.59601155e-03
    6.99084997e-03 9.31344461e-03 1.10207526e-02 2.41954681e-02
    2.88384836e-02 1.87512934e-02 -9.57883522e-03 -8.39845557e-03
    2.83909496e-04 8.70378222e-03 2.34156922e-02 5.02763409e-03
    9.40885302e-03 1.51157016e-02 3.46897729e-03 -1.47193251e-02
    2.41716281e-02 2.04386692e-02 2.76028621e-03 6.95711281e-03
    -1.36782294e-02 1.18232472e-03 5.37393801e-03 -1.15759652e-02
    1.87560543e-02 4.51650820e-04 1.68731681e-03 -2.61798911e-02
    -7.60502182e-03 -2.07428969e-02 3.01184449e-02 1.39544746e-02
    -7.41556147e-03 1.11409891e-02 -2.75739731e-04 -9.04567260e-03
    -1.61936227e-02 1.44850863e-02 -2.52437009e-03 4.32916777e-03
    1.15803331e-02 -1.24469155e-03 -1.84373613e-02 -1.42751494e-02
    -1.90097373e-02 -4.83898111e-02 -7.42992712e-03 -2.62198541e-02
    2.57913917e-02 2.34456398e-02 5.70525508e-03 -2.22993642e-02
    2.36202758e-02 -8.84739507e-04 -2.41884626e-02 -6.71996549e-03
    -1.36705898e-02 3.19742411e-02 1.00038499e-02 -7.76481582e-03
    1.34037863e-02 9.63610876e-03 -5.28671546e-03 -1.24855610e-02
    6.66417601e-03 -1.12485979e-02 3.55833992e-02 2.33207960e-02
    8.43440183e-03 -6.70902524e-03 -6.44092914e-03 -2.67233141e-02
    -3.92498448e-02 -1.13213416e-02 -8.99560191e-03 3.03643066e-02
    2.85582375e-02 1.59873646e-02 8.34323373e-03 -2.61018723e-02
    -2.90211905e-02 -1.43577652e-02 -1.07233282e-02 -4.50917780e-02
    2.09363848e-02 3.16582695e-02 3.25930445e-03 -4.85951360e-03
    1.53095843e-02 -1.03187039e-02 1.36031685e-02 1.93242710e-02
    7.28912791e-03 3.79069597e-02 1.62672717e-02 3.50491889e-03
    5.05500007e-03 2.40672682e-03 -1.63636021e-02 5.51471021e-03
    1.63990576e-02 2.06390303e-02 2.83922963e-02 9.24152229e-03
    -4.23065620e-03 -4.06425679e-05 -2.41258666e-02 -2.19404176e-02
    -2.67659221e-03 8.76171142e-03 -1.12493895e-02 3.47989798e-02
    1.55281927e-02 -5.52455476e-03 -1.70716234e-02 -1.04779070e-02
    -1.15625709e-02 -8.37530009e-03 1.21223135e-02 -4.42419108e-03
    1.97912380e-02 -6.89710025e-03 -1.31587507e-02 -1.10243522e-02
    -4.28107232e-01</SVMDetector></_3_class_64x128>
</opencv_storage>
