<?xml version="1.0"?>
<opencv_storage>
<car_64x128 type_id="opencv-object-detector-hog">
  <winSize>
    64 128</winSize>
  <blockSize>
    16 16</blockSize>
  <blockStride>
    8 8</blockStride>
  <cellSize>
    8 8</cellSize>
  <nbins>9</nbins>
  <derivAperture>1</derivAperture>
  <winSigma>4.</winSigma>
  <histogramNormType>0</histogramNormType>
  <L2HysThreshold>2.0000000000000001e-01</L2HysThreshold>
  <gammaCorrection>1</gammaCorrection>
  <nlevels>64</nlevels>
  <signedGradient>0</signedGradient>
  <SVMDetector>
    1.27085615e-02 1.97666083e-02 1.07755959e-02 -1.10727120e-02
    -3.84894982e-02 -1.79512035e-02 1.34083442e-02 2.49471497e-02
    5.96820377e-03 3.40735093e-02 4.79014497e-03 -2.93728942e-03
    1.41428038e-03 -3.00667286e-02 8.51773750e-03 1.00488877e-02
    2.24701613e-02 2.08736118e-02 -1.52763864e-02 -1.56067591e-03
    2.83392356e-03 -1.66883562e-02 -2.46078279e-02 -2.04211492e-02
    -1.51725179e-02 -1.56438518e-02 -1.25703514e-02 -6.60706544e-03
    1.51168099e-02 -5.17077371e-03 7.64603540e-03 -2.36592852e-02
    1.94403250e-03 -5.56080136e-03 -4.63405915e-04 -7.66131841e-03
    3.06061283e-02 5.66254929e-03 8.70805513e-03 -5.59740094e-03
    -2.64790878e-02 -8.24448373e-03 8.71300511e-03 2.68155057e-02
    1.26119107e-02 1.94386411e-02 1.74968187e-02 2.43142098e-02
    1.02902502e-02 -1.92177929e-02 -8.86954460e-03 5.17114298e-03
    1.36895915e-02 -7.45130982e-03 -8.23282404e-04 5.48812887e-03
    1.06653776e-02 -2.85346224e-03 -1.99660789e-02 -1.55135971e-02
    -1.82035789e-02 -1.21784937e-02 -9.03072860e-03 -7.87968747e-03
    4.12254268e-03 5.85833099e-03 4.58763307e-03 -2.64582913e-02
    -7.23083643e-03 -6.17130985e-03 2.63114064e-03 -1.73567422e-02
    1.71728153e-02 -1.04578724e-03 1.04555916e-02 6.50115777e-03
    -2.96457391e-02 -7.69597478e-03 -4.53517074e-03 1.07492302e-02
    -3.41509865e-03 1.34908902e-02 -2.09499383e-03 7.69341318e-03
    6.98052626e-03 -2.14036275e-02 9.37805232e-03 -1.05783232e-02
    1.85627658e-02 1.14491154e-02 -5.76697662e-03 -1.42274948e-03
    6.52057165e-03 -4.71085915e-03 -3.38657014e-02 -7.66030047e-03
    8.20234977e-03 1.87912118e-02 -1.96751533e-03 9.86959506e-03
    1.40487328e-02 1.97056886e-02 2.50628777e-03 -2.09033340e-02
    4.85598482e-03 -9.33577400e-03 1.15932515e-02 1.44871231e-02
    1.06886737e-02 3.86768283e-04 1.43509572e-02 1.27353538e-02
    -1.34702716e-02 7.71626132e-03 9.88192670e-03 1.45841651e-02
    -1.29152893e-03 1.77241620e-02 9.99633130e-03 9.38468706e-03
    1.25574134e-02 -2.62378119e-02 -1.32216550e-02 2.01574266e-02
    1.48009071e-02 4.75335447e-03 5.19268913e-03 2.59314720e-02
    9.14788619e-03 1.02117350e-02 -8.75409786e-03 -3.86822876e-03
    -1.00364955e-02 9.51175229e-04 -2.37192493e-02 2.63032736e-03
    2.99942270e-02 8.57193198e-04 1.29688485e-02 -2.03857310e-02
    -1.44888256e-02 -1.35286921e-03 9.22599901e-03 -7.29612540e-03
    2.10151412e-02 1.11937542e-02 7.08543183e-03 -3.10252816e-03
    -3.75877544e-02 -2.02262215e-02 2.23149881e-02 2.25774311e-02
    6.42397953e-03 1.58165197e-03 1.10653220e-02 2.23368942e-03
    8.93867947e-03 -3.00175790e-02 -5.28752850e-03 1.15330704e-02
    2.55195564e-03 -8.30059405e-03 1.90011226e-02 1.80568099e-02
    4.11630189e-03 4.68984898e-03 -3.16204652e-02 -1.26074962e-02
    8.38715769e-03 -3.43468855e-05 3.58077697e-03 2.29238700e-02
    1.17263990e-02 7.99272396e-03 7.61759095e-03 -4.02022786e-02
    4.05255472e-03 9.98810586e-03 1.18711572e-02 2.11213063e-03
    2.97777243e-02 2.31818426e-02 9.80469026e-03 1.83225814e-02
    -1.03937993e-02 9.16872639e-03 1.53850960e-02 4.35938826e-03
    1.43543463e-02 5.14012761e-02 1.04111675e-02 9.69656743e-03
    4.01214464e-03 -1.68892760e-02 -7.03006377e-03 5.07965498e-03
    2.15192474e-02 3.82941402e-02 1.20207779e-02 8.73537548e-03
    5.80817182e-03 9.80052352e-03 -2.23661456e-02 -6.39161887e-03
    1.11483447e-02 2.24313438e-02 9.03356541e-03 4.10510367e-03
    -4.98198019e-03 -3.02524539e-03 -3.77304945e-03 -2.15736609e-02
    -4.44618799e-03 -8.56107194e-03 1.75216720e-02 1.51366321e-02
    3.11351046e-02 2.14222423e-03 5.93205076e-03 -1.10038072e-02
    -1.10584302e-02 -4.53249225e-03 -6.24160690e-04 9.24460962e-03
    2.25831345e-02 5.04629165e-02 9.88628529e-03 4.40263608e-03
    -2.01008692e-02 -3.77121964e-03 1.08766444e-02 1.11636575e-02
    2.96751037e-03 2.33647916e-02 -2.11792951e-03 1.11822714e-03
    -2.81008007e-03 -9.25753557e-04 -2.51431321e-03 -9.84579045e-03
    -4.39599762e-03 1.34106632e-02 5.71489101e-03 -4.45026066e-03
    1.10467197e-03 -1.25642503e-02 -6.53774338e-03 -9.70189180e-03
    4.52377088e-03 1.93347782e-02 6.37045270e-03 1.40620936e-02
    3.20520364e-02 4.98479977e-03 -7.96684157e-03 -2.01378297e-02
    -5.53448405e-03 2.06020027e-02 1.07994359e-02 -1.22228242e-03
    1.50561286e-02 9.04026162e-03 1.99427493e-02 -6.36611227e-03
    -1.72462128e-02 -2.36352608e-02 1.28180133e-02 1.34385619e-02
    5.38080465e-03 -6.82525197e-03 -9.38554667e-03 2.76021834e-04
    -2.43844949e-02 -1.36485621e-02 -3.25472746e-03 1.69387106e-02
    2.15677880e-02 9.84704937e-04 2.76170764e-03 -2.18444690e-02
    -3.00206337e-03 -2.33468283e-02 -1.29899231e-03 -3.19198519e-03
    2.61442810e-02 3.46560068e-02 6.47464581e-03 -9.40057077e-03
    1.42943058e-02 1.78208314e-02 -6.71285810e-03 -1.50375087e-02
    -2.06960291e-02 4.74210130e-03 1.25368210e-02 6.38996623e-03
    6.47230260e-03 3.19663957e-02 2.66859755e-02 -1.06524490e-02
    -1.12079531e-02 -2.29344722e-02 3.69798765e-03 1.58511456e-02
    -1.10351190e-03 2.63536554e-02 -1.17110917e-02 7.52497604e-03
    -1.30913360e-02 -1.17614504e-03 1.13979615e-02 1.11153722e-02
    1.89226922e-02 1.54682240e-02 -3.84246721e-03 -5.05936984e-03
    4.69000591e-03 -1.50403045e-02 -8.89545400e-03 -9.43546090e-03
    3.71382129e-03 1.86639186e-02 3.89801245e-03 -1.89284375e-03
    2.96399537e-02 2.55211201e-02 -5.78272995e-03 -2.87781283e-03
    -2.16829646e-02 1.00690434e-02 2.72134598e-03 1.07638948e-02
    2.34678183e-02 1.56698618e-02 1.82360914e-02 -7.83163868e-03
    -5.77888498e-03 -1.87653601e-02 1.70696732e-02 5.70629258e-03
    5.35146100e-03 3.13704810e-03 3.03014152e-04 8.88950564e-03
    -1.38387317e-02 4.52460302e-03 -1.39454557e-02 7.46088754e-03
    6.79332390e-03 8.88269395e-03 1.14284568e-02 -5.83314896e-03
    3.62796220e-03 -1.69455316e-02 6.61154464e-03 -1.42505178e-02
    7.77976075e-03 3.75599903e-03 9.89669934e-03 -9.17853380e-04
    1.62067991e-02 2.88075162e-03 -1.91155579e-02 -1.90635901e-02
    -2.31853742e-02 1.02754356e-02 9.51195415e-03 1.94255542e-02
    1.39843225e-02 2.46115532e-02 2.40579173e-02 -8.56802799e-03
    -1.73688587e-02 -9.13834572e-03 2.80742045e-03 1.47006549e-02
    4.24970351e-02 2.72134021e-02 1.64032128e-04 9.72852297e-03
    -1.06236814e-02 -4.17415006e-03 -1.33964485e-02 7.13580428e-03
    1.52955167e-02 1.91546660e-02 -5.48539124e-03 4.64750780e-03
    2.53976677e-02 -3.41725099e-04 5.04721235e-03 -1.06931003e-02
    1.35389166e-02 1.15695642e-02 2.85346266e-02 8.75869673e-03
    6.72097271e-03 1.42286234e-02 -1.04773492e-02 -2.67716199e-02
    -3.19353491e-02 -5.41902380e-04 1.28237559e-02 4.02427614e-02
    9.45254322e-03 1.83393862e-02 1.29609490e-02 -2.54924060e-03
    -8.36044829e-03 -2.13552359e-02 2.12830678e-02 2.14020014e-02
    3.44127137e-03 4.91176499e-03 6.38274057e-03 1.84007958e-02
    -8.97501130e-03 -9.63321794e-03 -1.87199321e-02 1.25358040e-02
    7.67393131e-03 2.28662435e-02 9.05944500e-03 2.11975668e-02
    1.77635234e-02 -5.40880905e-03 -2.78638909e-03 -1.95245203e-02
    3.10752494e-03 2.18137307e-03 9.69505496e-03 9.22766235e-03
    1.47549324e-02 6.66771084e-03 -4.99567203e-03 -2.79616518e-03
    -1.36446604e-03 2.88215578e-02 1.60787683e-02 -1.88350549e-03
    4.45341459e-03 1.09724374e-02 1.16381971e-02 1.86187017e-03
    9.36223019e-04 -2.94926222e-02 2.63518114e-02 -1.78248959e-03
    -8.16066843e-03 2.46586930e-03 1.02398051e-02 1.30019458e-02
    8.80160893e-04 6.52342243e-03 1.20660905e-02 1.67163629e-02
    8.48157797e-03 7.78033072e-03 6.11819141e-03 3.91736440e-03
    7.17926258e-03 -2.22306885e-03 9.40185692e-03 -1.40580162e-02
    -2.46669212e-03 1.47772231e-03 1.59835964e-02 2.74266489e-03
    9.31871776e-03 1.78552885e-02 2.05835584e-03 -1.28138950e-03
    -3.79205868e-02 1.46229165e-02 -4.96125082e-03 -3.28949583e-03
    1.26669630e-02 7.15703378e-03 5.67602692e-03 -5.89133799e-03
    -5.59273874e-03 -3.54907326e-02 7.40099559e-03 -3.66964634e-03
    3.72081087e-03 2.30863448e-02 1.27581963e-02 7.28730252e-03
    6.54837163e-03 5.14717773e-03 -9.25053086e-04 9.75082256e-03
    -4.68755187e-03 2.62912810e-02 2.16968190e-02 1.89600291e-03
    7.33624445e-03 -2.62977835e-03 5.78681845e-03 -2.33577639e-02
    1.78709216e-02 2.97491206e-04 2.43803747e-02 2.26751380e-02
    9.10739414e-03 1.65847814e-04 -4.85622510e-03 -9.59694292e-03
    -3.56092677e-02 6.78942597e-04 -4.73808823e-03 1.63326301e-02
    3.30866575e-02 1.54789106e-03 4.35080705e-03 1.34097924e-02
    -6.54939050e-03 -3.88081931e-02 9.63478722e-03 1.21760210e-02
    2.94634309e-02 3.09276078e-02 5.68231754e-03 1.98311601e-02
    -1.15576833e-02 5.28696133e-03 -6.67442102e-03 3.29131596e-02
    8.79025739e-03 1.99044365e-02 2.71125119e-02 -1.46479048e-02
    1.05629414e-02 -1.23831546e-02 -5.31444466e-03 -1.69586372e-02
    9.57354438e-03 2.26503448e-03 3.26398723e-02 8.39324668e-03
    1.83401722e-03 7.08204368e-03 -7.12461956e-03 -5.94053243e-04
    -5.19654388e-03 -1.22866388e-02 -2.96214409e-02 -1.90259796e-02
    -3.81320552e-03 -1.24320597e-03 6.02745870e-03 -1.45103456e-03
    7.87456241e-03 -3.03035192e-02 1.16406695e-03 8.96859448e-03
    4.06619394e-03 -4.73121181e-03 1.04299020e-02 6.20713132e-03
    7.37169618e-03 2.86547169e-02 1.84131209e-02 2.64976034e-03
    -1.44068003e-02 -1.44130997e-02 1.70332927e-03 3.62175354e-03
    1.03009474e-02 -4.30263951e-03 1.44908708e-02 -2.80776564e-02
    7.73830246e-03 8.19867477e-03 -8.50945886e-04 -4.06586420e-04
    8.26878764e-04 -1.76498049e-03 -7.08154449e-03 2.61572539e-03
    -2.14036778e-02 -9.98417474e-03 1.99173344e-03 -1.45996455e-03
    -1.23621915e-02 4.62229643e-03 8.66097119e-03 -2.09096048e-04
    1.38307484e-02 -2.17325520e-02 1.54496506e-02 1.56065850e-02
    3.00847441e-02 1.84215438e-02 4.22165933e-04 5.08552883e-03
    -1.36735542e-02 -2.22405605e-03 -2.38408577e-02 -1.46283731e-02
    -1.23767136e-02 -1.92634221e-02 -2.08241548e-02 -3.23837786e-03
    3.58077162e-03 -6.51694881e-03 9.84310172e-04 -1.64437052e-02
    7.63370423e-03 -5.15781622e-03 2.40435638e-03 -2.33601481e-02
    -1.15832770e-02 2.30823969e-03 1.98285631e-03 -4.22958704e-03
    -2.04970948e-02 -1.80760480e-03 4.09925357e-03 1.76118650e-02
    -1.21534318e-02 9.06008389e-03 1.06621953e-02 1.03623774e-02
    -5.19017037e-03 -1.51382852e-02 -1.47761451e-03 5.49672684e-03
    2.03379989e-02 7.81623926e-03 -1.60934422e-02 -3.18981265e-03
    -6.73517177e-04 7.22818589e-03 -6.52400125e-03 5.02953585e-03
    -1.62348077e-02 -8.17172602e-03 -2.99586486e-02 -8.42549000e-03
    -1.73488676e-04 -1.23974896e-04 -2.22284044e-03 -1.04747871e-02
    2.99970293e-03 -1.11453608e-03 1.55176409e-02 -2.11123209e-02
    6.25918340e-03 1.59957316e-02 -9.54231527e-03 4.77302028e-03
    5.81388455e-03 -3.54799652e-03 4.57556173e-03 1.73722040e-02
    -6.58348249e-03 -2.64462526e-03 1.60165690e-02 -9.17672273e-03
    4.11152514e-03 -1.53164975e-02 -1.65271927e-02 1.00771692e-02
    8.82502366e-03 -1.51160434e-02 -1.88499205e-02 -6.12531556e-03
    -1.45126628e-02 1.09435129e-03 -1.30255285e-04 -1.22420434e-02
    6.18218631e-03 7.77176069e-03 -2.23937295e-02 -6.37127459e-03
    6.35500578e-03 -9.49436054e-03 4.09830688e-03 -2.80753411e-02
    -1.27830803e-02 2.45547239e-02 1.18117770e-02 -9.15696472e-03
    1.66083965e-02 2.22190842e-02 2.13353615e-03 -7.50278181e-04
    -1.65171716e-02 -9.32996906e-03 1.38349505e-02 -2.72558955e-03
    -1.90695692e-02 1.64774973e-02 2.27789637e-02 9.23248008e-03
    1.43068330e-02 -7.73956114e-03 5.41826803e-03 1.15943849e-02
    7.43259536e-03 -6.76832628e-03 1.64300390e-02 1.87236965e-02
    -8.54054408e-04 -1.73857936e-03 -7.89554976e-03 4.04171040e-03
    2.81171855e-02 7.11915269e-03 -1.37614626e-02 2.38593500e-02
    2.63880100e-02 1.33551215e-03 1.29816355e-02 1.46854427e-02
    2.44360999e-03 9.79462173e-03 1.13796853e-02 5.11053437e-03
    4.35158145e-03 4.82498528e-03 6.04959996e-03 7.45197712e-03
    -1.75425445e-03 -9.20280255e-03 -6.14985870e-03 7.67688919e-03
    -1.69124140e-03 5.62836183e-03 7.98382424e-03 -5.27033536e-03
    1.10533731e-02 3.11223464e-03 -7.46036763e-04 -3.40950792e-03
    1.05161835e-02 -5.69394184e-03 2.31153071e-02 2.01559234e-02
    -7.12378242e-04 1.51965115e-02 2.08511297e-02 -5.46109769e-03
    -6.60586311e-03 1.66941695e-02 1.72543135e-02 1.50535889e-02
    1.41579453e-02 -6.77143363e-03 1.51827913e-02 -6.41900115e-03
    -5.08155907e-03 -8.09384696e-03 1.71059463e-02 1.53779266e-02
    1.18049961e-02 5.91650698e-03 -9.73818544e-03 1.01864487e-02
    1.08781410e-02 7.90468650e-04 1.33348908e-03 9.87683889e-03
    -1.07633537e-02 5.90920728e-03 -3.96043499e-04 -8.86758137e-03
    7.21663376e-03 3.15575651e-03 1.09403348e-02 -4.26660385e-03
    -8.52948986e-04 6.09958265e-03 1.79814678e-02 7.02439994e-03
    -2.23169047e-02 -1.62964333e-02 -8.11512931e-04 4.63022850e-04
    -6.05122885e-03 1.53620914e-02 1.52533967e-02 2.57214326e-02
    -6.12635212e-03 -1.74282417e-02 7.60255009e-03 -7.14180572e-03
    4.59067710e-03 4.43118811e-03 5.11433184e-03 2.63570249e-03
    1.08501706e-02 -8.94816406e-03 -2.28420962e-02 -1.71575211e-02
    -4.65994654e-03 1.63445878e-03 -6.69255154e-03 -6.91586314e-03
    2.84028775e-03 9.83701739e-03 -1.93485077e-02 -2.34626476e-02
    -9.72237065e-03 1.00521501e-02 4.61980794e-03 4.08874126e-03
    3.46270483e-03 3.19858943e-03 3.09294183e-02 -6.00372441e-03
    -1.39565347e-02 -1.27940834e-03 7.37295020e-03 3.06025293e-04
    -1.01225497e-02 -2.42317189e-03 6.70785736e-03 1.79544203e-02
    -4.57880879e-03 -5.03618037e-03 9.62392241e-03 -5.33132814e-03
    -1.50217453e-03 -4.17579943e-03 8.07502214e-03 -7.75401830e-04
    -7.07744015e-03 -9.43669118e-03 -1.03902956e-02 -1.38587342e-03
    1.77513268e-02 2.31190142e-03 7.28303986e-03 6.67977100e-03
    -5.33061009e-03 -6.41638832e-03 -2.75890483e-03 -9.96076874e-03
    -5.02393302e-03 -5.71257947e-03 -3.40336910e-03 -8.84738564e-03
    -1.13603072e-02 -3.88022838e-03 1.17878458e-02 3.79838003e-03
    -2.98841344e-03 1.25848874e-02 -1.78271474e-03 8.90203752e-03
    1.15016354e-02 1.94866452e-02 6.60680840e-03 1.17353653e-03
    -1.14383865e-02 -2.00784877e-02 -1.00373849e-02 -9.72206146e-03
    1.69547535e-02 9.41033568e-03 8.53052270e-03 1.26088166e-03
    1.27657922e-02 6.99138222e-03 -1.03631765e-02 3.94451711e-03
    -4.70040925e-03 -6.97263982e-03 -1.03525417e-02 -7.00181350e-03
    1.77253224e-02 3.28192534e-03 1.11140194e-03 -1.71521287e-02
    6.44985121e-03 -1.17919091e-02 -1.68686043e-02 -9.72840656e-03
    1.41871823e-02 4.96534072e-03 4.81004454e-03 6.37067715e-03
    -1.61053631e-02 1.30981556e-03 -6.90175127e-03 1.36558339e-02
    3.42058763e-03 6.73766574e-03 1.47159705e-02 -5.11130830e-03
    -2.12034769e-03 -1.69440322e-02 8.90027266e-03 -1.95770264e-02
    -1.01536876e-02 -1.36487214e-02 2.49880999e-02 -4.95485496e-03
    2.89558526e-03 -2.00108625e-03 -1.69530865e-02 -6.38072658e-03
    -1.22745680e-02 -5.91352070e-03 8.26151483e-03 2.43776143e-02
    -8.17469729e-04 -5.53219719e-03 5.38084842e-03 -4.55391593e-03
    8.24757013e-03 -2.16463655e-02 1.23209702e-02 -1.02689089e-02
    2.33425219e-02 1.33289844e-02 5.91859243e-05 -7.36114150e-03
    -1.84507389e-02 -1.09445415e-02 -2.60476340e-02 -1.38450200e-02
    -2.51150224e-02 1.68043617e-02 -2.50870828e-03 -6.87230332e-03
    2.29128497e-03 -9.86544881e-03 5.44342492e-03 -4.70889509e-02
    -7.81275891e-03 -8.22873227e-03 2.46448312e-02 5.58888121e-03
    3.60976293e-04 -5.95963735e-04 -8.06199946e-03 -3.66039108e-04
    -6.68921368e-03 1.25564812e-02 -1.13934334e-02 2.44244486e-02
    1.96291339e-02 2.34407303e-03 5.67217730e-03 -9.81169753e-03
    -1.12765050e-03 -7.62580708e-03 5.38121676e-04 -1.09780254e-02
    1.19951749e-02 2.08411552e-03 -2.96024606e-03 1.03444583e-03
    -1.39208101e-02 2.73969374e-03 -2.90288292e-02 -1.09742470e-02
    2.26019742e-03 2.51327958e-02 1.29653122e-02 -8.89520999e-03
    -5.86206373e-03 -9.93629079e-03 7.07143359e-03 -2.46290267e-02
    -1.39513686e-02 -2.10976135e-02 2.04497036e-02 1.38820624e-02
    -1.24762871e-03 7.92535022e-03 1.43823083e-04 9.56546888e-03
    1.22066494e-03 1.31564559e-02 -4.28309664e-03 3.77335446e-03
    -5.12965210e-03 -1.99408177e-03 5.92728704e-03 -1.00257038e-03
    1.35070868e-02 -1.96529757e-02 -4.46663564e-03 -9.77475755e-03
    5.19449031e-03 -9.92740132e-03 -5.09941811e-03 1.15192988e-05
    -9.61205084e-03 3.12229665e-03 -2.10663173e-02 5.46029769e-03
    7.97365047e-03 1.79970823e-02 1.76397562e-02 -8.59290175e-03
    -9.29844752e-03 -2.17412394e-02 -1.20269516e-02 -2.21386589e-02
    4.40269988e-03 2.75344728e-03 4.61303303e-03 1.22846812e-02
    8.25144351e-03 -2.65118130e-03 8.05378705e-03 5.00971777e-03
    8.96978949e-04 7.71636609e-03 -4.42853291e-03 1.92044824e-02
    9.75393131e-03 6.22813636e-03 4.20296006e-03 1.03237797e-02
    1.23212384e-02 -6.67982595e-03 2.79341191e-02 -7.50896637e-04
    1.08072655e-02 1.83965750e-02 1.35285044e-02 -1.10950815e-02
    -5.43077243e-03 -1.74027972e-03 -1.47534497e-02 -2.07906449e-03
    1.18323425e-02 2.34621633e-02 2.43077017e-02 1.34059796e-02
    -9.74818412e-03 9.29906790e-04 -2.85526179e-03 -3.38534340e-02
    -3.86409089e-03 8.84355744e-04 1.04257539e-02 1.40918633e-02
    2.01648455e-02 2.51884554e-02 3.98799917e-03 2.03180201e-02
    1.08035831e-02 3.97761129e-02 1.06777363e-02 2.34312452e-02
    2.63708290e-02 -5.37907332e-03 1.04819220e-02 -9.19245090e-03
    3.20985127e-04 7.14122178e-03 9.44563188e-03 -1.03861792e-02
    1.87157262e-02 -4.38826811e-03 1.37182763e-02 1.08414404e-02
    5.63555025e-03 1.75640378e-02 -2.77057430e-03 1.34838233e-02
    2.75933417e-03 1.71073470e-02 1.30754896e-02 -1.36421295e-02
    -1.01610832e-02 -1.26058636e-02 -1.85105950e-03 -9.57741926e-04
    -7.43197650e-03 -9.06554796e-03 1.78491399e-02 -2.33147051e-02
    -7.10399006e-04 -1.15315598e-02 -1.07460292e-02 7.59649882e-03
    -8.67254846e-03 2.23550759e-03 3.77367111e-03 -3.22509580e-03
    -1.08309826e-02 3.85814067e-03 -4.20764321e-03 -4.38103452e-03
    1.17777875e-02 -1.96926352e-02 1.24158780e-03 -6.49265200e-03
    -1.83001437e-04 -7.88851059e-04 -4.11282713e-03 8.33628420e-03
    -2.34617619e-03 2.42929626e-02 -5.09800389e-03 1.09139048e-02
    1.31302783e-02 3.12354174e-02 -1.61689632e-02 -5.98870637e-03
    5.15271118e-03 6.57201745e-03 3.00756227e-02 -2.08055973e-02
    8.46983085e-07 -7.75493681e-03 4.61035222e-03 -1.19077452e-02
    1.37959206e-02 -1.69106934e-03 -1.16427345e-02 -1.27458116e-02
    -1.81601848e-02 1.35961955e-03 -3.64518492e-03 -4.51272028e-03
    -1.06497807e-02 -8.45154189e-03 -4.80930088e-03 -1.16700018e-02
    -1.48941681e-03 -1.22463191e-02 1.91251980e-04 1.29711628e-02
    1.89150255e-02 -2.01524310e-02 -1.21864828e-03 1.81046985e-02
    1.12725552e-02 2.03433000e-02 -2.42496957e-03 2.47427588e-03
    -5.03939530e-03 1.08002406e-02 -2.87427194e-02 -1.66866593e-02
    -1.94014772e-03 -3.52624035e-03 1.62075721e-02 1.22825301e-03
    2.48270179e-03 -1.26620261e-02 2.59133824e-03 -3.32438126e-02
    -9.85462777e-03 -2.97222356e-03 -1.42985454e-03 5.50072081e-03
    5.05458284e-03 5.06029651e-03 1.48582049e-02 6.78594224e-04
    -2.11946033e-02 -1.11676687e-02 9.19012167e-03 -6.70694141e-03
    -6.08162908e-03 -6.92330906e-03 2.68353857e-02 1.91241130e-02
    1.55950710e-02 -1.01654083e-02 -3.00041423e-03 -1.21480343e-03
    9.54625284e-05 1.09215556e-02 -2.73958333e-02 -9.78820957e-03
    -1.71192065e-02 -1.17783491e-02 -2.40568630e-02 -7.21247075e-03
    -3.29777203e-03 -2.11107247e-02 -8.02952982e-03 -2.83701867e-02
    1.67049207e-02 5.54651814e-03 9.15764365e-03 -2.29223482e-02
    -2.33259462e-02 -1.55114979e-02 -1.53995557e-02 -1.48211932e-02
    -4.00262047e-03 7.53569358e-04 1.67122129e-02 1.13831330e-02
    -2.29203403e-02 -8.83871876e-03 -7.94932991e-03 -1.31364875e-02
    -1.01034958e-02 -1.10979909e-02 -3.39116156e-03 2.48360801e-02
    7.97901768e-03 4.68815025e-03 2.36771302e-03 3.55925877e-04
    -1.00655546e-02 -4.29906975e-03 -8.00113473e-03 1.10232215e-02
    2.81233015e-03 -8.33130628e-03 -1.27100768e-02 6.33554626e-03
    -1.90821372e-03 -4.91278572e-03 6.33652206e-04 1.07887527e-02
    -1.14358624e-03 -6.73267106e-03 -1.68601628e-02 -5.45579067e-04
    -8.58313777e-03 -1.82083305e-02 -1.27508407e-02 -8.77367239e-03
    -1.16626434e-02 1.40983530e-03 1.28201591e-02 -1.86439999e-03
    -1.20707303e-02 1.58107318e-02 -9.42464825e-03 -1.28348861e-02
    5.16699906e-03 8.87671951e-03 4.10299003e-03 1.23225451e-02
    1.57704540e-02 -4.94284509e-03 -9.96013731e-03 -1.85607281e-02
    -1.60344280e-02 -1.94274029e-03 -6.53223973e-03 -2.04104055e-02
    -8.81532393e-03 -2.76344754e-02 -1.25485687e-02 2.37258058e-02
    -1.26496674e-02 -1.13316635e-02 1.16671212e-02 -5.10813529e-03
    -1.26777543e-02 -3.59155441e-04 4.74009290e-03 1.24125099e-02
    2.23488193e-02 -5.34555595e-03 -8.67443718e-03 1.09980889e-02
    2.38936348e-03 7.09306099e-04 3.36170924e-04 -4.28361061e-04
    -1.46572117e-03 1.34733748e-02 4.08742949e-03 -1.16477152e-02
    1.88734997e-02 -1.06204916e-02 -4.16908180e-03 -7.63038313e-03
    -1.69668067e-02 -2.26637372e-03 2.39974707e-02 -3.74443736e-03
    -7.62403477e-03 2.07579881e-02 1.09573964e-04 4.17425763e-03
    -4.58863191e-03 8.67587049e-03 -5.68150717e-04 1.21122748e-02
    7.80213531e-03 -7.84571748e-03 2.64636483e-02 -1.56064350e-02
    2.71852757e-03 -2.74145743e-04 -3.60681862e-03 2.40532891e-03
    1.48146525e-02 -6.77560782e-03 -2.56154351e-02 1.59865152e-03
    7.38002267e-03 -1.83311829e-04 -5.31850243e-03 1.81250623e-03
    7.01628067e-03 1.54297391e-03 -2.39081644e-02 -2.05747969e-02
    1.00742504e-02 -3.25022242e-03 -5.44540910e-03 -8.61171342e-04
    7.49348023e-04 1.09658130e-02 1.26171764e-02 -5.63337514e-03
    -7.90343247e-03 1.51809631e-02 -4.73565701e-03 -1.97605193e-02
    -9.33945458e-03 -3.74407228e-03 1.26108099e-02 4.08567581e-03
    -2.21463609e-02 -1.81065928e-02 5.56154037e-03 -1.67886801e-02
    -4.41201078e-03 -4.28588508e-04 -6.45800494e-04 1.19923428e-02
    3.39065189e-03 -2.05045640e-02 -1.26189794e-02 7.58708222e-03
    1.62606332e-02 -1.31714931e-02 -5.12983464e-03 -2.99732841e-04
    6.74364995e-03 8.87568668e-03 -2.03420408e-03 4.59623942e-03
    1.69687960e-02 -7.58719118e-03 -1.26600266e-02 -1.63232982e-02
    -1.92069157e-03 -7.86485430e-03 7.68859778e-03 -8.64508562e-03
    -4.26147506e-03 1.08883977e-02 1.42406579e-02 -1.56867746e-02
    -1.17563074e-02 -6.79479120e-03 2.54100207e-02 -2.15867558e-03
    -1.46108689e-02 -1.06185880e-02 8.02548137e-03 -1.11970995e-02
    -8.28860968e-04 -6.76466525e-03 -4.08258103e-03 1.75643265e-02
    2.26045102e-02 1.42965717e-02 1.79154761e-02 2.27664895e-02
    1.01169234e-03 -6.14580745e-03 -1.76801230e-03 9.20357555e-03
    1.08115086e-02 -5.86169073e-04 -9.44906753e-03 -6.74303807e-03
    1.46535989e-02 1.30038392e-02 1.18909869e-02 -7.20611261e-03
    9.08361748e-03 -3.22319823e-03 9.22955107e-03 -4.95848199e-03
    -9.05295648e-03 1.43304691e-02 -5.08987159e-03 -2.44248519e-03
    -4.46351431e-03 -3.60814319e-03 2.08033174e-02 7.84726813e-03
    -1.78167084e-03 -7.30753783e-03 1.78908166e-02 4.28157765e-03
    1.14452401e-02 -1.67327424e-04 1.64637796e-03 2.52597150e-04
    2.49987422e-03 -9.88466665e-04 -1.75349116e-02 1.25907259e-02
    6.41801907e-03 2.83881053e-02 5.77361463e-03 -6.73856307e-03
    8.30017962e-03 -1.03629129e-02 -1.50365965e-03 -1.74930207e-02
    -2.71100528e-03 -1.36384312e-02 -7.46339653e-03 -6.16517384e-03
    -5.67590632e-03 -5.16308099e-03 1.27142007e-02 8.35648086e-03
    -8.73964559e-03 1.46012446e-02 -3.63841187e-03 3.15713398e-02
    1.49913272e-02 -8.32688715e-03 5.45527041e-03 -5.18008368e-03
    -1.71900005e-03 -9.28089954e-03 9.02616512e-03 -6.35961071e-03
    1.36314398e-02 9.58996243e-05 -1.66305415e-02 -1.02024535e-02
    -9.28580482e-03 -4.89018904e-03 -5.41189592e-03 1.74414759e-04
    7.70197436e-03 -2.77981954e-03 -6.29326981e-03 9.44433361e-03
    -6.31777942e-03 -7.53134955e-03 -5.10411989e-03 -1.09273354e-02
    -1.00780670e-02 -2.45616715e-02 4.11255576e-04 -9.20191221e-03
    4.43394762e-03 -8.85474402e-03 -1.17827840e-02 5.04573854e-03
    -4.38255898e-04 1.96402874e-02 1.10577256e-03 -3.55140469e-03
    -9.93778184e-03 1.67533488e-03 -1.45859243e-02 -3.04526533e-04
    1.70914619e-03 -9.54360701e-03 8.07622168e-03 -1.37759577e-02
    -4.83773788e-03 -1.02752922e-02 -2.57534999e-03 -7.52849155e-05
    -3.37233650e-03 1.06778108e-02 -6.28613634e-03 5.77323604e-03
    -2.17056908e-02 1.61585084e-03 1.80408941e-04 6.55082334e-03
    -1.31221721e-02 -4.43091849e-03 1.83815956e-02 3.56138381e-03
    1.51568726e-02 -1.06711602e-02 -1.26310000e-02 -3.94282804e-04
    1.63418539e-02 -6.70685945e-03 8.46527473e-06 -6.00016792e-04
    -8.25406797e-03 3.47363483e-03 -1.19700041e-02 -4.99210972e-03
    2.43204646e-04 1.60333421e-03 -9.71472915e-03 -1.27328718e-02
    -4.57807351e-03 -2.46955943e-03 1.48767298e-02 -7.84142967e-03
    -5.98637573e-03 3.56680201e-03 1.48817925e-02 -7.21335690e-03
    -1.23754162e-02 5.00285020e-03 -1.54478382e-03 2.44788616e-03
    -1.18657397e-02 -1.20954532e-02 1.79918408e-02 7.00878957e-03
    -1.99639276e-02 -1.52564505e-02 -3.32368980e-03 -1.81389228e-02
    -1.73518248e-03 -7.66348280e-03 1.82112642e-02 4.10504546e-03
    3.64644337e-03 -1.67218149e-02 -1.22814877e-02 2.60599714e-04
    -4.67040343e-03 1.05121825e-02 -5.03448956e-03 -2.60653411e-04
    7.24665774e-03 4.29206248e-03 -7.63869286e-03 -4.91614407e-03
    -1.13127206e-03 -8.58952012e-03 8.37804005e-03 -1.34477681e-02
    8.75349855e-04 6.80975709e-03 -7.87122454e-03 -1.52958678e-02
    3.40300915e-03 -8.58798996e-03 -1.41244065e-02 4.92856093e-03
    2.01436342e-03 1.11886468e-02 1.75205749e-02 8.68770014e-03
    -1.09495986e-02 1.07602747e-02 -7.32604275e-03 -3.92259099e-03
    -1.57834042e-03 -2.43152529e-02 -1.21260649e-02 1.05288289e-02
    -1.34932506e-03 -8.28573597e-04 -1.05964471e-04 3.17676738e-03
    -6.06747577e-03 1.61819831e-02 1.43038640e-02 9.22258198e-03
    2.45495122e-02 1.24410577e-02 -9.30061936e-03 -5.20463055e-03
    -4.56696237e-03 -8.00892059e-03 1.12713790e-02 -1.38073191e-02
    -1.61745236e-03 1.92656200e-02 3.55662918e-03 -1.21312113e-02
    1.40716908e-02 4.79237316e-03 4.54849238e-03 9.11486056e-03
    -1.40708196e-03 -1.19022708e-02 1.60519453e-03 1.58137642e-02
    1.08109158e-03 -9.12099611e-03 -6.23712363e-03 -6.25321409e-04
    1.11569250e-02 1.88753121e-02 1.04553124e-03 4.62134182e-03
    1.65881068e-02 -1.38708437e-02 2.11934559e-03 -4.94782347e-04
    -1.78687333e-03 1.07504874e-02 -3.39115877e-03 -7.70123815e-03
    2.52832584e-02 4.20056935e-03 -5.86620066e-03 -1.93654243e-02
    -5.13170473e-03 -7.21207238e-04 1.29238144e-02 -5.63453929e-03
    -1.44967204e-02 -8.32165650e-04 5.33809746e-03 -2.25901790e-02
    -2.21907976e-03 1.32708708e-02 2.71719974e-03 2.02957094e-02
    1.07028224e-02 5.07343514e-03 7.13031739e-03 2.29954962e-02
    -7.24151265e-03 -1.67700313e-02 9.96793807e-03 1.15213655e-02
    2.74642706e-02 -1.31079776e-03 -1.16379652e-03 -2.27504573e-03
    1.22853620e-02 -1.42866531e-02 3.38829099e-03 -4.57972568e-03
    -7.12918071e-03 5.53807896e-03 -6.35481847e-04 5.25268074e-03
    2.12654285e-02 2.44131684e-02 -9.05656535e-03 -4.81241895e-03
    4.00693621e-03 7.30493222e-04 1.10091409e-02 -2.14322340e-02
    -4.23727185e-03 4.54642484e-03 2.72309259e-02 -1.00802789e-02
    -1.39440373e-02 1.87921822e-02 9.52251721e-03 1.27255823e-02
    3.80158587e-03 7.38644914e-04 -7.44438544e-03 -5.58704557e-03
    -2.44796667e-02 -8.89433175e-03 1.00357793e-04 4.33572801e-03
    2.08452307e-02 1.20428903e-02 -3.90133914e-03 -1.02059566e-03
    -5.42880176e-03 -1.86259672e-02 -5.81318454e-04 8.07688478e-03
    8.52335896e-03 3.21397255e-03 -5.30519895e-03 -1.47041967e-02
    1.02913482e-02 2.07023881e-02 -1.36102857e-02 -1.09198578e-02
    -1.20437732e-02 -4.98297112e-03 3.28666321e-03 -1.04117673e-02
    -1.18205138e-02 -1.59837324e-02 -1.04834614e-02 -3.68905067e-03
    2.01650779e-03 -3.41501669e-03 3.43432464e-03 1.06995376e-02
    -1.23681792e-03 -3.14332522e-03 -7.53723830e-03 -8.38421937e-03
    -4.22808761e-03 -6.08126912e-03 -1.49870468e-02 -7.88542721e-03
    1.43192885e-02 9.75288264e-03 9.26133152e-03 3.53819318e-03
    5.12830867e-03 -1.27383471e-02 -6.60346868e-03 -1.16550131e-02
    -2.07400788e-03 -1.23167289e-02 1.55284582e-02 -1.21297864e-02
    -1.36158271e-02 -1.26907267e-02 3.91324377e-03 -1.28859757e-02
    -2.63749659e-02 -1.16148125e-02 -3.01385345e-03 5.53104794e-03
    -6.58669835e-03 -8.08554329e-03 -9.23559070e-03 -2.21461318e-02
    -5.61420340e-03 -1.13270152e-02 -1.66823249e-02 1.15462467e-02
    -2.76180403e-03 -6.01711683e-03 9.96430684e-03 -1.49866985e-02
    -1.54429972e-02 -2.49897572e-03 -9.12270136e-03 -1.06325913e-02
    -2.07047770e-03 7.33285164e-03 2.20371550e-03 1.24232024e-02
    -1.87311799e-03 -3.61872930e-03 -1.15764490e-03 -1.26563031e-02
    -1.73775852e-02 -1.33680562e-02 -5.42823877e-03 -5.51610766e-03
    -5.11366921e-03 -2.55972939e-03 -1.17864488e-02 1.76555160e-02
    -2.47461931e-03 -6.28579594e-03 -2.09805351e-02 -2.49035627e-04
    4.39953851e-03 -2.08753115e-03 -1.01007978e-02 -2.44216621e-03
    -1.03332745e-02 -1.58046782e-02 -2.09671874e-02 -1.28897885e-02
    3.22397775e-03 -6.82558445e-03 3.59673868e-03 -8.42408370e-03
    -1.65970456e-02 1.60165839e-02 5.78372134e-03 -1.70836933e-02
    3.19956266e-03 3.42905670e-02 1.57489832e-02 9.20533296e-03
    -2.20347522e-03 1.08575132e-02 1.72970910e-02 1.95377111e-03
    -1.42260492e-02 -2.31350418e-02 -1.05709471e-02 5.85713470e-03
    -9.96970199e-03 -1.60734206e-02 -1.18405942e-03 2.38696020e-03
    -1.02408500e-02 -2.76499782e-02 -5.09255799e-03 1.36205098e-02
    8.26795027e-03 -1.50828632e-02 -2.52468884e-02 -9.08139348e-03
    9.70046967e-03 7.86672719e-03 -7.06647057e-03 1.39549067e-02
    3.06802746e-02 7.28787901e-03 9.36486199e-03 8.05422023e-04
    -1.42325200e-02 4.71963547e-03 1.29220095e-02 -4.04418074e-03
    2.19411496e-02 1.52865434e-02 -6.01639133e-03 1.08440360e-02
    -1.25163898e-03 -1.15333423e-02 8.25173408e-03 7.29089556e-03
    -1.62139758e-02 9.23831761e-03 1.62568577e-02 -5.87978214e-03
    -1.43053988e-02 -1.20715275e-02 4.00400674e-03 3.93217010e-03
    -6.34872215e-03 -2.46325731e-02 1.62321143e-02 -6.92576729e-03
    -1.67619660e-02 -1.30890198e-02 1.19294028e-03 -7.02569680e-03
    1.64562929e-02 -1.19726523e-03 -4.67911549e-03 2.10683495e-02
    1.44652743e-02 -7.32846372e-03 5.22062473e-04 1.13748712e-02
    7.21409265e-03 1.95010621e-02 -4.52875346e-03 -1.11101754e-02
    6.92896731e-03 5.20203914e-03 2.97640986e-03 1.36512173e-02
    1.87068395e-02 1.67950355e-02 9.86523274e-03 -1.75144710e-02
    -1.35417292e-02 6.85322657e-03 2.87502399e-03 -1.69022121e-02
    -1.38690714e-02 7.25470297e-03 4.38042404e-03 2.03990899e-02
    -2.31715944e-02 -1.41902743e-02 3.57615901e-03 -1.17922493e-03
    -1.00154607e-02 -1.29976636e-02 1.20349154e-02 1.83817372e-02
    1.04935868e-02 5.56425750e-03 -1.91918819e-03 1.03511270e-02
    1.18199363e-02 -4.11663111e-03 -5.06559620e-03 1.27354322e-03
    1.89787056e-02 7.51645491e-03 -7.56871887e-04 -3.72202531e-03
    1.54562723e-02 -4.86198952e-03 5.62292850e-03 -2.09897384e-02
    -1.05983485e-02 2.28070542e-02 6.89083571e-03 -1.96274854e-02
    -1.15099987e-02 4.10412857e-03 5.13003394e-03 -5.71997091e-03
    -2.26797387e-02 -2.42979149e-03 1.73817072e-02 1.07844630e-02
    2.71145953e-03 -9.29125305e-03 2.43495405e-03 -1.09868869e-02
    9.87219904e-03 -1.60556789e-02 -1.17026679e-02 1.74129587e-02
    9.35623981e-03 6.93847891e-04 -5.73420292e-03 8.11241940e-03
    1.24363871e-02 1.96713805e-02 -5.52869728e-03 -1.20021531e-03
    3.46256271e-02 -8.17915308e-04 -6.03541732e-03 -5.22347447e-03
    1.77176960e-03 6.40119473e-03 1.59095638e-02 -7.47483736e-03
    4.67509090e-04 1.24631273e-02 2.50592111e-05 6.84911711e-03
    -1.61824503e-03 -6.79545512e-04 2.33044359e-03 9.28871147e-03
    -1.54777030e-02 -1.39302353e-03 1.23792943e-02 2.30762339e-03
    -4.24268935e-03 4.31698514e-03 5.81360236e-03 8.88641272e-03
    6.51180465e-03 -1.61074065e-02 8.48062430e-03 4.30446258e-03
    1.11500006e-02 4.27577412e-03 -6.76803244e-03 3.68085364e-03
    3.28530814e-03 3.48192342e-02 6.05716603e-03 -2.00715428e-03
    9.05207731e-03 -1.98039925e-06 -8.87049362e-03 -1.08010806e-02
    -1.94699632e-03 1.08441357e-02 1.80828106e-02 -1.61531381e-02
    -2.07475349e-02 -6.31667441e-03 1.45725626e-02 4.65623423e-04
    -2.71246023e-03 8.05461500e-03 2.83077243e-03 1.62428208e-02
    -6.29002880e-03 -7.32684229e-03 3.81300459e-03 1.46220848e-02
    -1.92707200e-02 -2.62100752e-02 -1.15789259e-02 1.01192603e-02
    2.83461739e-03 -5.06076869e-03 -1.83216874e-02 3.82316881e-03
    5.42180147e-04 2.71486305e-03 -3.71127832e-03 1.69435535e-02
    6.79107103e-03 1.37167033e-02 -1.30546128e-03 -4.03432088e-04
    -1.68143504e-03 1.01608913e-02 2.99146422e-03 -1.66567508e-02
    6.64343685e-03 -1.52606787e-02 9.88931209e-03 -1.23246694e-02
    4.48941765e-03 4.62728180e-03 -7.74133223e-05 -7.42029492e-03
    -1.06377341e-02 1.40003525e-02 7.16974493e-04 7.86664523e-03
    7.35366950e-03 -6.88749319e-03 -1.34287053e-03 -1.31854368e-02
    -5.84163750e-03 -1.26328086e-02 -6.61002565e-03 -2.44519953e-02
    1.11628613e-02 1.35801872e-03 1.66527438e-03 -1.56754851e-02
    4.78660688e-03 -8.13859142e-03 -1.92413162e-02 2.86089373e-04
    -9.43292957e-03 -5.31081017e-03 -1.00396564e-02 3.92832467e-03
    2.19585933e-03 -4.63112863e-03 -8.92561860e-03 -1.41500114e-02
    -5.32789435e-03 -6.49053138e-03 -3.57550406e-03 -4.55058645e-03
    1.35118850e-02 -6.80262048e-04 -2.02021841e-03 -9.77432262e-03
    -6.96376618e-03 2.96555320e-03 -1.07823289e-03 -9.36085638e-03
    -2.30759662e-02 1.30563276e-03 -8.76033027e-03 3.63288820e-03
    -1.19703216e-02 -1.29738320e-02 -1.72280928e-03 -8.92299414e-03
    -4.11556615e-03 -2.25406196e-02 7.67695019e-04 3.25911050e-03
    -4.79586748e-03 -1.14011986e-03 -6.76652696e-03 4.42972966e-03
    -9.03788197e-04 9.39921825e-04 7.37025030e-03 1.48051120e-02
    -3.47661716e-03 -1.35617461e-02 9.69005574e-04 -1.57471176e-03
    -1.80257682e-03 -1.16012180e-02 -4.01961664e-03 -1.04958806e-02
    -1.66902726e-03 -1.13958158e-02 4.85705532e-04 -4.31102933e-03
    -1.64686032e-02 -1.43310777e-03 4.73780977e-03 -4.55524540e-03
    -1.82636885e-03 1.87735651e-02 7.76535040e-03 -6.91515952e-03
    -3.24033550e-03 -1.39771365e-02 -6.48562238e-03 -1.04815885e-02
    -5.64788328e-03 1.61409192e-03 -3.67180072e-03 5.59837045e-03
    -1.11208586e-02 4.77410527e-03 -4.40570991e-03 1.44990534e-02
    1.24338316e-02 8.16834252e-03 3.40565201e-03 -9.32956114e-03
    -1.88063253e-02 -8.95374734e-03 4.73808218e-03 -2.88510608e-04
    1.88743938e-02 -1.20862294e-02 3.87645280e-03 2.45544408e-02
    -5.10950526e-03 -9.20895860e-03 -1.21288025e-03 -1.28980937e-05
    -1.11800926e-02 9.39562451e-03 -4.97017056e-03 1.18220942e-02
    -2.83307186e-03 -1.56631116e-02 -7.37557700e-03 -1.88009138e-03
    1.32899615e-03 1.25453470e-03 2.29057707e-02 -1.15100369e-02
    3.16830236e-03 1.35851260e-02 7.46387523e-03 3.17959057e-04
    -1.08062020e-02 -5.35160396e-03 -2.63373251e-04 1.07837226e-02
    -1.16631212e-02 -1.10244472e-02 1.60675868e-02 -5.02435490e-04
    6.84612314e-04 -3.33552063e-02 -1.34840682e-02 3.45633773e-04
    1.31607577e-02 -6.20376831e-03 1.20034406e-03 2.24902271e-03
    2.87905755e-03 -9.52586904e-03 -1.82118695e-02 -3.12195066e-03
    -6.02006493e-03 1.03031276e-02 8.34533421e-04 1.69855135e-03
    2.61306763e-02 1.51355006e-02 1.02199456e-02 -4.40568887e-02
    -1.82493590e-02 -2.38482524e-02 2.35145897e-04 -4.76679858e-03
    1.17375674e-02 9.17023234e-03 -9.85290483e-03 -1.44302296e-02
    4.89953393e-03 -6.80728117e-03 -9.08613554e-04 1.31201418e-03
    3.59874475e-03 7.21838372e-03 6.82996586e-03 -1.46190554e-03
    -7.38718314e-03 7.68187316e-03 -9.31408082e-04 6.16632076e-03
    -2.11989600e-03 -2.05302760e-02 3.55052040e-03 1.17623126e-02
    7.44974101e-03 1.09521288e-03 -7.02820020e-04 -1.18334009e-03
    -1.36310961e-02 1.16909351e-02 1.33308293e-02 2.00628377e-02
    1.35171099e-03 1.11829862e-02 -8.78833514e-03 6.51585590e-03
    1.47622377e-02 -4.62078489e-03 1.66453654e-03 -2.51027886e-02
    2.47807708e-02 -1.15575036e-02 -1.13745574e-02 -3.74365016e-03
    1.52560638e-03 -1.26619253e-03 1.14485268e-02 1.00457724e-02
    -3.19747697e-03 -1.32026430e-02 1.16165308e-02 5.60285430e-03
    4.79417213e-04 -4.69012593e-04 1.35195663e-03 -9.17856395e-03
    5.10295108e-03 -3.45462328e-03 -6.45946106e-03 -1.45177555e-03
    -1.28845079e-03 -6.36365870e-03 -2.97510833e-03 1.10938959e-02
    6.29896065e-03 3.31718568e-03 -1.60019975e-02 2.58061336e-03
    1.33104119e-02 1.05452510e-02 -8.56199581e-03 -5.32557303e-03
    -1.61430389e-02 -1.14396699e-02 -1.77826011e-03 -2.51356214e-02
    1.99512392e-03 1.43984221e-02 2.26341188e-02 -2.13411022e-02
    -8.09482485e-03 -6.12764433e-03 -1.98255908e-02 -2.41798628e-02
    -1.69045683e-02 -1.31123820e-02 -1.86665609e-04 -3.94707965e-03
    -5.31599112e-03 -1.01218109e-04 -1.04269963e-02 -6.65140292e-03
    -1.32363122e-02 1.85414404e-02 -8.05946242e-04 -4.05762717e-03
    -1.99393965e-02 -9.33693722e-03 2.96555809e-05 -1.08005749e-02
    -2.05849390e-02 -2.47992147e-02 -3.36987861e-02 -8.21443833e-03
    1.15659377e-02 1.84508283e-02 -1.68046094e-02 5.43349981e-03
    -1.79908387e-02 -1.70804709e-02 -2.03242023e-02 2.91742780e-03
    6.10523298e-03 -6.39149547e-03 6.60977606e-03 -1.84767209e-02
    -1.27840077e-03 -8.00835155e-03 -1.36217223e-02 -1.84902269e-02
    -6.81318995e-03 -2.74686911e-03 7.26173050e-04 -3.49923596e-03
    -1.48100965e-02 1.03465021e-02 1.15218631e-03 -8.48477893e-03
    -2.23059505e-02 5.10338740e-03 1.16002886e-02 -1.31353419e-02
    -6.80895103e-03 8.52611195e-03 -8.72932281e-03 -9.86762810e-03
    -1.87129788e-02 -1.78236309e-02 -8.92267283e-03 3.39477183e-03
    4.03157715e-03 6.32632815e-04 -2.80225333e-02 -9.12671257e-03
    2.53902370e-04 -1.71219725e-02 -1.41458027e-02 -7.39158830e-03
    9.54622403e-03 4.61659627e-03 -1.43971937e-02 -1.15031283e-02
    2.34935936e-02 3.38715647e-04 -1.50172217e-02 -2.82503963e-02
    -4.98362724e-03 -2.44574319e-03 -1.27079326e-03 -7.97107816e-03
    1.66217759e-02 1.81807112e-02 6.67780696e-04 -1.88655108e-02
    7.91689754e-03 1.36437342e-02 -7.68204499e-03 -6.96934341e-03
    -1.16971489e-02 1.03846006e-02 8.61723162e-03 8.24872963e-03
    -1.01821376e-02 -1.34606725e-02 -8.83759744e-03 -2.65793805e-03
    5.84715558e-03 -7.85106327e-03 6.25387672e-03 -3.59055091e-04
    8.69568344e-03 -1.32397059e-02 1.11307120e-02 -3.81649006e-03
    -2.16381494e-02 -2.01346185e-02 -4.95125726e-02 -2.00110674e-02
    1.67745091e-02 -1.17507903e-03 -2.47134548e-02 1.09849293e-02
    3.96181503e-03 -6.35335548e-03 -1.78285874e-02 -1.16075082e-02
    2.02531405e-02 2.43127579e-03 -1.61139946e-02 -2.31898837e-02
    2.77599581e-02 6.84575364e-03 9.94355767e-04 -8.89822468e-03
    3.10137664e-04 2.98008174e-02 8.85441201e-04 -2.20053014e-03
    -2.33802609e-02 2.20135134e-02 -8.73710588e-03 -1.82899088e-02
    -2.72636525e-02 -2.31496580e-02 1.45943405e-03 9.59020166e-04
    -1.59547925e-02 -9.71617643e-03 2.04589479e-02 6.41421974e-03
    -3.43630393e-03 -2.93879062e-02 -2.90808398e-02 5.97387180e-03
    4.81070252e-03 -8.73798970e-03 -4.91333939e-03 -3.76390480e-03
    -9.38104372e-03 -1.88787635e-02 -1.25558460e-02 -5.18572144e-03
    1.90601293e-02 1.58986952e-02 -1.03150122e-02 4.76307562e-03
    1.57776047e-02 4.49145958e-03 -1.94327012e-02 -1.11413673e-02
    1.49933761e-03 3.26937027e-02 -3.27038392e-03 5.55197988e-03
    1.84288510e-04 -1.17774047e-02 -2.14283559e-02 -8.83155223e-03
    -1.70908980e-02 -2.05927044e-02 9.17979609e-03 1.67718176e-02
    2.66867913e-02 2.37786286e-02 1.77807603e-02 1.55077782e-03
    -1.58707146e-02 -9.94011643e-04 7.57939648e-03 2.52531618e-02
    4.87022521e-03 -3.67189967e-03 -1.52333442e-03 1.06058363e-02
    1.92949306e-02 1.97681040e-03 -8.60702433e-03 -4.38119331e-03
    1.36229042e-02 -2.82908441e-03 -1.04980934e-02 -9.96061601e-03
    1.20879421e-02 -8.13974626e-03 1.19264675e-02 3.01800109e-03
    1.02482280e-02 1.08172810e-02 9.93904099e-03 1.27964821e-02
    -1.37153184e-02 -7.34814350e-03 1.44317152e-03 -1.30090974e-02
    -1.35563696e-02 -8.24123062e-03 2.05119271e-02 1.77358445e-02
    -4.71712928e-03 -2.37952638e-02 -2.30434164e-03 -1.67505946e-02
    9.20860376e-03 7.14070816e-03 7.77765084e-03 1.70035511e-02
    -1.50514180e-02 -9.97475628e-03 -6.23141462e-03 1.17585277e-02
    9.07938741e-03 5.74291078e-03 -1.04946215e-02 1.41482381e-02
    5.70658548e-03 2.84925057e-03 -1.38855691e-03 8.05099960e-03
    1.14800176e-02 -4.60976362e-03 1.20171360e-04 -1.81066394e-02
    1.32116387e-02 4.52506961e-03 -5.45058283e-04 -6.36325078e-03
    -1.15008373e-02 7.72151956e-03 4.30073217e-03 4.55938885e-03
    -3.16092419e-03 -1.74869038e-03 1.13662696e-02 -1.19740493e-03
    -1.76869729e-03 3.66675830e-03 2.90914299e-03 -1.81539729e-02
    2.69104075e-03 -9.95034352e-03 7.64376763e-03 1.84294097e-02
    1.96157414e-02 1.44138886e-03 -5.20897424e-03 1.31059969e-02
    -1.11814318e-02 7.06066668e-04 -2.48747226e-03 6.42594416e-03
    1.78759620e-02 9.49022360e-03 -6.06105383e-03 -1.03054345e-02
    4.03514644e-03 2.14915397e-03 -4.57706768e-03 -1.43525377e-02
    -8.24029557e-03 1.80351064e-02 6.48204994e-04 9.54329316e-03
    6.58672675e-03 1.55387176e-02 -1.74791329e-02 7.92562589e-03
    4.84783156e-03 1.61303841e-02 2.58892663e-02 2.51561473e-03
    -8.63347016e-03 -5.54729905e-03 1.81554947e-02 -4.76862490e-03
    -9.29683447e-04 -8.51663994e-04 3.51418951e-03 3.71207879e-03
    7.61873554e-03 -8.41809344e-03 -9.50621627e-03 1.33179137e-02
    1.78502817e-02 5.04360721e-03 -8.33613891e-03 -3.71392793e-03
    2.49932408e-02 -1.21470746e-02 -2.35112348e-05 -3.32786306e-03
    -1.32751027e-02 -1.38997464e-02 9.22992546e-03 -1.07074343e-03
    -7.41857151e-03 8.86872504e-03 5.11020515e-03 -9.31689143e-03
    -7.01763993e-03 2.19501425e-02 2.67134365e-02 3.09230457e-03
    -1.56484190e-02 -1.16648832e-02 1.03940107e-02 -1.49287200e-02
    -7.95029860e-04 -1.48078762e-02 -9.93299391e-03 2.27184407e-03
    1.16137601e-02 -9.37972777e-03 -1.02661289e-02 9.49895009e-03
    -7.02972198e-03 1.44834071e-03 -7.53013650e-04 3.09070735e-03
    7.42581487e-03 5.21075027e-03 -7.52864173e-03 2.98422389e-03
    1.13658495e-02 -3.94937024e-03 -1.34883886e-02 -5.69258118e-03
    2.51324698e-02 -2.31522485e-03 -9.04280134e-03 -2.11776998e-02
    -1.46519428e-03 1.63978301e-02 -9.75974649e-03 -2.01308521e-05
    -6.09511277e-03 5.22689754e-03 1.24452794e-02 9.30580590e-03
    -7.86084030e-03 -4.58459696e-03 -3.09643033e-03 -8.91239103e-03
    -1.26915667e-02 -6.88788807e-03 6.91254018e-03 -1.20743755e-02
    -2.04140637e-02 -2.59776805e-02 -7.65882805e-03 -1.00315940e-02
    -1.03744734e-02 -1.38378767e-02 -1.81433093e-02 9.00424458e-03
    -6.16903696e-03 -2.54799752e-03 -4.26325435e-03 9.87692177e-03
    1.21080261e-02 -1.45115685e-02 -2.42098249e-04 -1.03729684e-02
    1.59224328e-02 1.24541000e-02 5.49491146e-04 -4.14074026e-03
    -8.99014529e-03 1.14637846e-02 -1.91035904e-02 -5.81408245e-03
    -9.98246204e-03 6.85062539e-03 -1.22144343e-02 -2.44860677e-03
    -1.62079912e-02 7.70076236e-04 -1.50634339e-02 -1.59835201e-02
    -3.37709353e-04 -9.07240529e-03 1.53764542e-02 8.70995410e-03
    1.04830286e-03 -1.10792939e-03 1.09067736e-02 -1.57656334e-02
    -8.41054693e-03 -6.13744976e-03 -1.58551857e-02 2.40913443e-02
    3.48106259e-03 5.91090787e-03 -1.09962421e-02 -1.28854401e-02
    -8.57717264e-03 -1.43781183e-02 1.65338733e-03 -9.60328709e-03
    2.76747625e-02 -1.69457484e-03 1.25946812e-02 -1.44148292e-02
    -3.57978512e-03 -2.08724644e-02 -1.54991547e-04 2.89514894e-04
    -9.55709629e-03 1.97402835e-02 4.54463559e-04 3.76594439e-03
    1.92057923e-03 9.03580897e-03 8.30605812e-03 3.76499374e-03
    3.33891972e-03 -1.25784362e-02 7.11928215e-03 -6.30559400e-03
    1.25893466e-02 -2.43548071e-03 7.73554575e-03 -4.26365249e-03
    -8.17795284e-03 4.92520351e-03 -5.57116652e-03 1.99858304e-02
    3.57221672e-03 5.14597073e-03 6.92979945e-03 -7.14167394e-03
    -2.42113564e-02 -1.87448990e-02 6.21351879e-03 -8.06611218e-03
    5.24429744e-03 -7.73815252e-03 1.02084661e-02 -8.59818794e-03
    -2.33463384e-02 -3.10437828e-02 6.60983333e-03 1.37072466e-02
    6.21062983e-03 7.88791385e-03 -3.74016236e-03 -1.29126434e-04
    7.17839831e-03 4.76370146e-03 -7.79576739e-03 6.69159787e-03
    1.71434768e-02 3.42534180e-03 5.26465708e-03 -1.99748520e-02
    1.52970478e-02 5.76616591e-03 -6.51976559e-04 -1.66011937e-02
    -5.13750222e-03 6.68364950e-03 -1.03590554e-02 -6.96090143e-03
    6.09248597e-03 1.32908383e-02 3.76210129e-03 8.81457329e-03
    -2.93451827e-03 1.20635028e-03 2.80727819e-02 1.80616847e-03
    3.84173286e-03 -1.90406293e-02 4.29483410e-03 -3.24853067e-03
    -2.71847122e-03 -3.62242083e-03 6.99604303e-03 8.07687268e-03
    3.59857478e-03 -9.22975875e-03 -1.06856087e-02 4.50133346e-03
    8.00583512e-03 1.98657196e-02 5.40506188e-03 1.20123196e-02
    6.91448245e-03 4.31337999e-03 -3.38863907e-03 -3.03104855e-02
    5.40242204e-03 1.46614267e-02 -4.84794751e-03 -1.33324144e-02
    2.96896760e-05 1.27826305e-02 5.00044413e-03 6.49525551e-03
    -1.83998328e-02 8.42662621e-03 6.30053366e-03 -1.48035260e-02
    -5.39131975e-03 -7.07290368e-03 -2.05648374e-02 -1.34153385e-02
    1.36226008e-03 -2.32533142e-02 -5.25381183e-03 -1.15794642e-02
    7.46508688e-03 -2.56388504e-02 8.18837713e-03 -1.54274818e-03
    4.97242087e-04 4.63732146e-03 -4.79749124e-03 4.50290181e-02
    3.26777287e-02 1.11015718e-02 6.96431147e-03 -1.99778285e-03
    -1.49132125e-02 -7.07952026e-03 9.30505455e-04 -6.86978456e-03
    1.70041639e-02 -1.92023508e-04 -4.65911254e-03 -4.28048521e-03
    5.72446641e-03 -1.75038539e-02 -2.02109646e-02 -2.03080177e-02
    -2.19351556e-02 -6.70770183e-03 -4.36646491e-03 -1.52515597e-03
    -1.44492714e-02 1.78877451e-02 -9.38585494e-04 -1.99944396e-02
    -2.12067980e-02 -9.11792833e-03 8.95606261e-03 9.00783634e-04
    1.70022305e-02 -1.41051291e-02 1.01111075e-02 3.71193804e-04
    -8.25247727e-03 -1.13646463e-02 -1.64375585e-02 7.38348812e-04
    2.94427411e-03 -1.78115233e-03 1.63603295e-02 2.90481728e-02
    1.25054484e-02 -7.26045249e-03 -6.25551492e-03 -2.79978756e-03
    1.24979857e-02 2.14231946e-02 1.79494042e-02 2.54865661e-02
    1.01575172e-02 1.36420354e-02 -1.84552595e-02 -1.82267167e-02
    -3.12444866e-02 -6.41769683e-03 3.17254476e-03 6.43746741e-03
    -1.58791542e-02 1.18240132e-03 1.28818359e-02 -1.90573931e-02
    -2.45327726e-02 -2.54278984e-02 -8.55719089e-04 1.21702943e-02
    3.19651968e-04 -1.83417778e-02 1.65964160e-02 2.48992406e-02
    -5.80379041e-03 -4.81567485e-03 -2.64502838e-02 6.08015805e-03
    1.27591081e-02 1.98431760e-02 7.59034604e-03 1.32766310e-02
    2.67672203e-02 3.65229184e-03 -4.05307487e-03 -1.15006324e-02
    8.57986044e-04 1.17077585e-02 3.86156365e-02 1.20919989e-02
    4.95232595e-03 7.39352778e-03 -1.15939686e-02 -9.40935593e-03
    -2.19702218e-02 -9.57635604e-03 1.50299929e-02 -5.67950867e-03
    -1.04590775e-02 -3.94985545e-03 3.25764995e-04 -7.61657953e-03
    2.85042711e-02 -4.39114822e-03 -2.40025353e-02 -9.63845756e-03
    -1.57220084e-02 -2.90851407e-02 -1.40363360e-02 5.03064739e-03
    -1.19997421e-03 -2.14220071e-03 -2.69117821e-02 -1.13122929e-02
    1.68167949e-02 2.21315473e-02 1.12731737e-04 -1.19765094e-02
    6.33852696e-03 1.70981847e-02 2.67033875e-02 -1.75628753e-03
    8.83361441e-04 1.09113948e-02 1.37620792e-02 -6.91210851e-03
    4.14837792e-04 -2.39480031e-03 -3.82217113e-03 3.14214975e-02
    -5.85158588e-03 -2.56620329e-02 -2.34039165e-02 -2.40816548e-02
    -1.55618796e-02 6.24419143e-03 -5.89760114e-03 4.13824152e-03
    2.43116152e-02 1.93647500e-02 -2.96287751e-03 -1.64604541e-02
    -2.53928732e-02 -6.61862083e-04 -3.42836254e-03 6.35972130e-04
    6.18933234e-03 2.53724642e-02 -1.54569782e-02 -1.67728197e-02
    -1.59922596e-02 -9.94026079e-04 -8.56834836e-03 2.31640763e-04
    -6.15722407e-03 1.98056046e-02 3.50217558e-02 1.96295977e-02
    -3.87249095e-03 4.98573703e-04 -1.06585883e-02 1.86182894e-02
    4.95507475e-03 1.94915090e-04 -2.61574052e-03 -5.23897354e-03
    -1.09200431e-02 -7.10860174e-03 -1.88019499e-02 -2.37967372e-02
    -1.91017590e-03 1.52454600e-02 1.40231997e-02 2.00797115e-02
    1.71856321e-02 6.18842337e-03 -1.83046481e-03 -1.75322369e-02
    4.15551802e-03 1.59709447e-03 1.17683271e-02 5.49733639e-03
    1.08195022e-02 1.90428458e-03 -1.58319306e-02 -1.82145499e-02
    -6.04982302e-03 -2.06599031e-02 1.39056314e-02 2.10614260e-02
    6.27384009e-03 6.99671032e-03 1.85716543e-02 -6.07620692e-04
    1.62929427e-02 1.24652693e-02 2.29209918e-03 2.28224359e-02
    1.29307732e-02 1.04953535e-03 -1.01907142e-02 -4.99844726e-04
    4.51902626e-03 -3.05707543e-03 -1.56508926e-02 3.58566083e-03
    3.32098710e-03 1.91476010e-02 5.31912921e-03 -7.96884019e-03
    1.95062719e-03 3.89851327e-03 1.76290907e-02 3.27146007e-03
    2.12585554e-03 6.10407023e-03 1.15105603e-02 4.76295128e-03
    -9.55057424e-03 7.65924156e-03 4.30567889e-03 2.16517225e-02
    1.57495253e-02 1.58294302e-03 8.76754709e-03 8.87957588e-03
    3.69029888e-03 2.87779549e-05 4.72872239e-03 -4.37816512e-03
    1.53985368e-02 1.50016381e-03 7.47158146e-03 9.44853015e-03
    6.59555895e-03 9.45520960e-03 -4.74400120e-03 -2.81904708e-03
    1.38321810e-03 7.20301270e-03 4.36146045e-03 3.01493681e-03
    4.40718280e-03 1.52167352e-03 7.70188542e-03 7.56445574e-03
    -3.28008784e-04 -7.65216164e-03 -1.29121868e-02 -9.54302307e-03
    4.18466330e-03 1.12773571e-02 1.38845062e-02 4.60536126e-03
    -1.01289162e-02 -1.56623358e-03 6.48597395e-03 2.67234910e-02
    1.41817785e-03 1.17129013e-02 1.57895926e-02 1.08147198e-02
    -7.05919368e-03 -4.00668476e-03 4.16682009e-03 6.00482058e-03
    8.76573939e-03 -6.31993124e-03 1.13062244e-02 9.60047450e-03
    -2.05695583e-03 7.15093734e-03 -6.50112377e-03 9.96791013e-03
    -1.71663761e-02 -1.03085497e-02 -4.12195222e-03 1.30114211e-02
    1.32323019e-02 -5.77767612e-03 -6.93588145e-03 -1.02765253e-02
    2.31595449e-02 1.81648396e-02 3.12189828e-03 3.38898879e-03
    6.48045866e-03 -8.82613938e-03 2.09659357e-02 8.73312447e-03
    1.19988993e-02 3.79501656e-02 2.88915914e-03 -2.36956333e-03
    -1.46003638e-03 1.97928809e-02 2.67414320e-02 -5.27369417e-03
    -2.65148678e-03 -1.28470007e-02 2.70985290e-02 -4.54121036e-03
    -1.47247948e-02 -5.10211568e-04 2.53727380e-03 -9.44330916e-03
    -1.53265195e-04 1.69020810e-03 -9.05985571e-03 2.22751368e-02
    2.77666617e-02 8.35151318e-03 -6.87393965e-03 -1.12022795e-02
    -3.42055643e-03 -1.84288919e-02 8.24140292e-03 -7.54878344e-03
    -2.90204131e-04 -1.02401841e-02 -5.38085401e-03 -1.53113613e-02
    -1.91003196e-02 -8.05530138e-03 8.15345161e-03 8.90633743e-03
    -3.08580627e-03 2.35411078e-02 1.63723864e-02 2.64904136e-03
    -1.17215440e-02 -6.94145449e-03 -6.49514550e-04 -4.76207444e-03
    5.64068742e-03 -1.58870872e-02 1.28243817e-02 -8.76074377e-03
    8.51022173e-03 -3.12860077e-03 3.86597961e-03 -1.13770878e-02
    1.29741465e-03 1.33664217e-02 -4.22580913e-03 -1.00860139e-03
    2.13044276e-03 -3.88129568e-03 -1.56678259e-02 -7.75377080e-03
    -1.15960243e-03 1.10478103e-02 2.11555492e-02 -6.17616018e-03
    8.71717755e-04 -1.06380126e-02 -2.51698717e-02 -1.59298275e-02
    -1.57835763e-02 7.72431318e-04 -3.19681619e-03 2.43649837e-02
    -6.21785736e-03 2.10493933e-02 7.04982597e-03 -8.68293177e-03
    -8.55753478e-03 3.15823173e-03 -1.04088075e-02 9.98491794e-03
    1.54640088e-02 5.21022687e-03 1.44368717e-02 -2.41428148e-03
    -1.91073176e-02 -8.98188259e-03 5.44512970e-03 -5.70791354e-03
    -1.15905376e-02 1.71120651e-02 -1.22597674e-03 4.22854442e-03
    -1.56739857e-02 2.92266277e-03 -1.11332610e-02 -1.26368506e-02
    -1.30081829e-02 -7.67553283e-04 1.58688482e-02 1.28131604e-03
    2.15311218e-02 -4.15832223e-03 2.85465433e-03 -1.14764683e-02
    4.57500946e-03 -1.60246585e-02 -3.41314753e-03 2.41459049e-02
    3.80110065e-03 2.26536226e-02 -6.85079722e-03 -8.84108536e-04
    -7.01924227e-03 -1.70538877e-03 -1.68577526e-02 1.17078768e-02
    3.06226406e-02 3.34318052e-03 2.37237029e-02 -3.29887681e-03
    2.26720199e-02 -2.70555331e-03 9.06695984e-03 -1.14869783e-02
    9.30556655e-03 1.27636567e-02 -2.07741954e-03 1.36940200e-02
    2.11591178e-05 6.75414037e-03 -8.39990214e-04 7.12050358e-03
    -2.74883537e-03 1.21061029e-02 1.86061878e-02 3.59725207e-04
    1.31227504e-02 -1.10954521e-02 4.53678239e-03 -1.41695831e-02
    -6.55248761e-03 -9.16338293e-04 2.13267505e-02 2.87653115e-02
    -2.80238828e-03 2.41204407e-02 5.83002158e-03 2.58977767e-02
    -5.45185432e-03 1.08193215e-02 6.46897545e-03 4.66449419e-03
    1.83768757e-02 -3.15843266e-03 2.71799844e-02 -3.35896458e-03
    1.57047566e-02 -7.36141345e-03 5.21773938e-03 -4.20877244e-04
    2.52752956e-02 3.28542516e-02 1.44581301e-02 1.43916151e-02
    -8.18826538e-03 -6.13561599e-03 -2.71073706e-03 3.39168822e-03
    5.95931150e-03 9.39329155e-03 1.66296978e-02 -2.50868965e-03
    8.36904068e-03 -1.29640037e-02 6.61033066e-03 -3.77606112e-03
    -1.42167974e-03 -1.83085795e-03 2.44712103e-02 1.98880751e-02
    1.33823429e-03 2.80086063e-02 5.03662042e-03 9.31711588e-03
    -7.99322221e-03 8.71946849e-03 1.22729903e-02 5.97423268e-03
    7.63496943e-03 9.90575925e-03 1.85887627e-02 8.96727294e-03
    1.27252899e-02 -2.75956088e-04 7.51620997e-03 -1.04840985e-02
    5.02568530e-03 5.72482357e-03 9.40780714e-03 -2.88517680e-03
    -1.35681974e-02 6.60223141e-03 1.58488974e-02 7.65673677e-03
    7.51627469e-03 3.01535032e-03 -1.04361447e-02 1.11686951e-02
    -9.32494830e-03 -2.10934337e-02 3.84199060e-03 1.44099947e-02
    -4.92566079e-03 1.25997337e-02 -1.03422301e-02 -6.80598139e-04
    6.00861560e-04 -1.34884538e-02 -7.74242869e-03 1.65728219e-02
    8.27580318e-03 -1.78133380e-02 -1.01883365e-02 -2.57444475e-03
    -9.13682580e-03 4.48417086e-05 -1.39077182e-03 -1.15100928e-02
    7.10937520e-03 -5.10188006e-03 -1.25874151e-02 2.77573662e-03
    1.08247390e-03 -1.33841224e-02 -2.59964890e-03 -9.71675199e-03
    8.02606053e-04 2.72795260e-02 1.74088683e-02 -1.11372387e-02
    6.78940397e-03 -1.38778500e-02 -1.23115880e-02 -5.24311699e-03
    -5.62153198e-03 6.34241384e-03 1.56660806e-02 6.93398667e-03
    -1.04783010e-02 -1.16621088e-02 7.52327149e-04 -9.49039403e-03
    9.71231726e-04 -9.42043494e-04 7.57319247e-03 5.37163438e-03
    -3.06489761e-03 1.56674301e-03 8.80192034e-03 -3.68907209e-03
    -1.30187161e-02 -1.06706806e-02 -1.86289363e-02 -1.33870831e-02
    -3.09009803e-03 1.92682538e-03 -2.58452469e-03 -4.25940240e-03
    -6.92194188e-03 -6.32468797e-03 -8.77572503e-03 -8.83324910e-03
    -1.23536233e-02 -7.58951809e-03 -4.80376696e-03 -6.06845180e-03
    3.13951564e-03 1.13119632e-02 -6.43885788e-03 -1.71137284e-02
    -4.74316766e-03 -7.78513635e-03 7.29013700e-03 -5.16457297e-03
    2.21157121e-03 7.39234919e-03 -3.72214825e-04 -1.27213644e-02
    -1.64343212e-02 -1.30404737e-02 -2.50073429e-02 -4.97554603e-04
    -7.72829028e-03 -4.76892013e-03 -8.98349285e-03 1.19659258e-02
    -4.06655762e-03 -1.83177851e-02 -3.38760088e-03 -2.31858948e-03
    2.94668544e-02 4.58645495e-03 5.62190823e-03 7.79297901e-03
    4.86474810e-03 -2.96307355e-03 -1.18733682e-02 -1.37778930e-03
    -2.62882505e-02 7.18789222e-03 -1.18176462e-02 1.30991386e-02
    -4.70523117e-03 1.09199705e-02 1.13471085e-02 -2.12213933e-03
    -3.36447591e-03 -1.12147024e-02 1.30742872e-02 -8.14634282e-03
    1.53103834e-02 2.38183280e-03 1.29368110e-02 -2.69632670e-03
    -1.64679568e-02 4.40705102e-03 -2.09781379e-02 1.82744619e-02
    9.26481385e-04 1.21722780e-02 1.90074537e-02 1.58870425e-02
    -5.23788715e-03 -1.69549268e-02 3.44825070e-03 -5.62248519e-03
    1.77661404e-02 1.47028463e-02 1.50020784e-02 6.83550769e-03
    6.48925267e-03 9.87717882e-03 1.86101871e-03 -7.61620281e-03
    -1.88729875e-02 -4.84802015e-03 8.31020344e-03 2.45033726e-02
    1.87444948e-02 6.96887216e-03 -5.84798167e-03 8.99069663e-03
    4.87892050e-03 -1.54075054e-02 -3.92028922e-03 1.78859755e-02
    2.86509171e-02 4.23026420e-02 3.09646577e-02 3.41281120e-04
    -1.98816285e-02 -1.72381513e-02 -2.92910654e-02 -4.53317631e-03
    1.73824131e-02 1.55867329e-02 3.02225333e-02 2.81328466e-02
    1.61131122e-03 -1.58825200e-02 -2.52725892e-02 -5.70141748e-02
    -1.08660385e-02 2.23752018e-03 3.59755196e-02 5.00769019e-02
    9.36388678e-04 -1.12442777e-03 -3.56257102e-03 7.11376453e-03
    -2.29875762e-02 -1.16579561e-02 4.78031486e-03 2.34141313e-02
    3.00168470e-02 -8.85660853e-03 3.78626841e-03 -2.14958075e-03
    1.47892646e-02 -7.60045554e-03 2.27891118e-03 1.37980198e-02
    3.99624668e-02 3.93824317e-02 2.28128806e-02 1.98698872e-05
    -1.51157090e-02 -1.52603779e-02 -6.11216947e-02 -1.28335860e-02
    1.67373463e-03 4.19867188e-02 5.73277026e-02 1.85147841e-02
    7.48049421e-03 -1.74715035e-02 1.01520214e-03 -5.27191684e-02
    -6.65027602e-03 -8.50708969e-03 5.33510558e-02 7.55722523e-02
    -1.82425370e-03 2.26778761e-02 -2.20375811e-03 -4.18391125e-03
    -1.61853340e-02 -1.00016815e-03 -2.94074020e-03 2.24653073e-02
    2.36456152e-02 1.86698698e-02 1.70304868e-02 1.17235095e-03
    2.64489581e-03 -2.31479257e-02 1.89503636e-02 1.45141687e-02
    2.27890834e-02 3.50718312e-02 1.75390709e-02 1.73560195e-02
    -1.32237338e-02 -1.33062759e-02 -4.70844768e-02 -1.17249908e-02
    -1.59060173e-02 4.48826328e-02 7.29761943e-02 5.38104735e-02
    2.83685420e-02 1.32329753e-02 -1.11797843e-02 -4.43989709e-02
    4.77613322e-03 -2.84462678e-03 4.24124859e-02 6.08518720e-02
    2.48079514e-03 1.03117311e-02 1.56158081e-03 6.03937032e-03
    -4.12904518e-03 1.60170123e-02 1.94289722e-02 8.67801835e-04
    1.82701387e-02 1.93222705e-03 2.60946713e-03 -3.65209416e-03
    9.20042675e-03 -1.21031487e-02 1.18141407e-02 1.51149454e-02
    1.26068173e-02 1.29803354e-02 5.70954755e-02 3.68806534e-02
    1.64971072e-02 -3.85056774e-05 -2.51150876e-02 -4.76540904e-03
    -1.32033285e-02 1.67109221e-02 4.90475334e-02 4.64131460e-02
    3.48237194e-02 2.45200880e-02 3.83745460e-03 -4.14915979e-02
    -3.07583308e-04 3.99643229e-03 1.83711909e-02 4.30143476e-02
    6.85767445e-05 4.38540708e-04 -1.52298743e-02 6.99494593e-03
    -1.07991314e-02 2.08365060e-02 1.12834331e-02 6.15935074e-03
    4.45178850e-03 -1.22218141e-02 1.50534569e-03 -6.55742781e-03
    8.57171509e-03 -1.54045084e-02 1.01473769e-02 -5.71260042e-03
    -4.14336380e-03 -1.29073393e-02 4.70266454e-02 4.44375798e-02
    2.60508452e-02 1.69666484e-02 -3.64165008e-02 3.00843804e-03
    2.14600824e-02 2.16595698e-02 4.55039628e-02 3.24956886e-02
    3.39518078e-02 1.95785500e-02 1.82507075e-02 -3.62962745e-02
    -1.65154343e-03 9.93827078e-03 2.81257811e-03 1.66467261e-02
    1.82427764e-02 1.71990041e-02 2.62012631e-02 4.43100296e-02
    1.01743639e-03 1.03871210e-03 -8.38012993e-03 1.11113796e-02
    2.49495320e-02 9.31449980e-03 5.63768484e-03 -8.32408899e-04
    3.92218791e-02 4.48993361e-03 -8.71331245e-03 -1.82831772e-02
    3.19654495e-03 1.10886544e-02 3.01357545e-02 3.69544290e-02
    2.50790287e-02 2.73452066e-02 -3.34408283e-02 -6.86643971e-03
    -1.33797862e-02 -2.05424987e-03 2.35522147e-02 1.30860601e-02
    -4.29362664e-03 -1.16726113e-02 1.30784484e-02 -3.31311636e-02
    -5.81217138e-03 -1.16069848e-02 -2.26578582e-03 1.21976146e-02
    2.08778810e-02 1.17682014e-02 1.30967805e-02 2.72002742e-02
    -1.15994352e-03 -3.60129541e-03 -1.83639247e-02 2.47601885e-03
    3.45574343e-03 2.10548360e-02 2.21535680e-03 4.46318882e-03
    1.56580526e-02 -2.37453682e-03 -1.84211152e-04 -6.67929137e-03
    1.21271079e-02 7.12583167e-03 2.90119816e-02 2.76373215e-02
    7.92259630e-03 1.00254128e-02 -5.05739450e-02 -1.81805957e-02
    -2.14869231e-02 1.13880625e-02 2.82347985e-02 1.29902447e-02
    9.16315708e-03 8.27686023e-03 2.35798843e-02 -3.57699394e-02
    -9.68803838e-03 -1.95048470e-02 -1.80920167e-03 2.03456581e-02
    1.61877032e-02 2.41568964e-03 -1.63024664e-02 1.61086936e-02
    -1.73815072e-03 -2.97383661e-03 3.46836657e-03 1.49653088e-02
    8.89458973e-03 3.17874737e-03 4.00042813e-03 7.78399454e-03
    2.08720681e-03 -2.18212698e-02 -1.53220696e-02 2.36615189e-03
    2.47571431e-02 6.86612120e-03 2.93683428e-02 1.11560533e-02
    4.31698468e-03 3.35068479e-02 -2.06791945e-02 -1.29129319e-02
    -1.87761988e-02 1.28351268e-04 6.67467387e-03 1.75422877e-02
    3.65726463e-02 1.23427408e-02 1.98434331e-02 -1.43000297e-02
    -2.54857242e-02 -1.06581673e-02 9.69559979e-03 -6.58551976e-03
    5.83223591e-04 3.73149989e-03 -1.03142101e-03 1.58277936e-02
    5.63934154e-04 -1.42205169e-03 1.24885736e-03 1.07164485e-02
    6.85811276e-03 2.78235767e-02 2.02762354e-02 6.96368981e-03
    2.45343503e-02 -1.83072130e-04 1.09451888e-02 -9.70301870e-03
    1.15660066e-02 1.27007710e-02 7.05859810e-03 -1.03129551e-03
    -6.24728913e-04 2.11658422e-02 -1.92263573e-02 -2.38752346e-02
    -1.51060866e-02 1.00672357e-02 3.60459991e-04 1.92627721e-02
    2.11927164e-02 -7.42429355e-03 1.65360309e-02 -2.92844474e-02
    -1.97724178e-02 -3.27887423e-02 1.26098227e-02 1.68329142e-02
    5.10001890e-02 3.72736529e-02 -2.36387132e-03 2.06014924e-02
    4.85288911e-03 1.59406532e-02 -1.45893507e-02 1.39585678e-02
    3.30682062e-02 3.04420367e-02 2.04259325e-02 -2.13168125e-04
    2.60302275e-02 1.25343585e-02 1.80507917e-02 1.65756769e-03
    1.43172219e-02 2.60490347e-02 2.49158554e-02 2.03559566e-02
    -3.23548680e-03 2.31012776e-02 -3.56849059e-02 -8.15254077e-03
    -3.07282899e-02 9.28353332e-03 2.71279402e-02 1.42952399e-02
    1.39837367e-02 -6.23345468e-03 1.15355523e-02 -3.31772231e-02
    -1.26850381e-02 -2.54604332e-02 4.92039195e-04 1.87447742e-02
    4.04747687e-02 2.21593343e-02 1.03242807e-02 2.68988330e-02
    2.34346883e-03 6.98757637e-03 2.66960193e-03 2.13826187e-02
    3.02159674e-02 3.23898308e-02 3.91165428e-02 1.17776841e-02
    1.83306225e-02 -1.45580694e-02 -1.42916469e-04 2.27728253e-03
    2.48067006e-02 1.87088400e-02 2.96575837e-02 1.27990646e-02
    3.68067995e-03 6.94681332e-03 -3.73673066e-02 -2.45337710e-02
    -1.41739426e-02 1.37962205e-02 1.46658318e-02 3.77216265e-02
    3.49082351e-02 5.72191272e-03 1.07296351e-02 -6.32952377e-02
    -1.76781397e-02 -4.43144096e-03 2.03066412e-02 2.46036351e-02
    -1.65432811e-01</SVMDetector></car_64x128>
</opencv_storage>
