<?xml version="1.0"?>
<opencv_storage>
<HOGpedestrian64x128 type_id="opencv-object-detector-hog">
  <winSize>
    64 128</winSize>
  <blockSize>
    16 16</blockSize>
  <blockStride>
    8 8</blockStride>
  <cellSize>
    8 8</cellSize>
  <nbins>9</nbins>
  <derivAperture>1</derivAperture>
  <winSigma>4.</winSigma>
  <histogramNormType>0</histogramNormType>
  <L2HysThreshold>2.0000000000000001e-01</L2HysThreshold>
  <gammaCorrection>1</gammaCorrection>
  <nlevels>64</nlevels>
  <signedGradient>0</signedGradient>
  <SVMDetector>
    1.58243757e-02 1.37586473e-02 1.25596263e-02 9.60991718e-03
    -1.36852299e-03 -2.60836654e-03 -1.43148033e-02 -4.72904230e-03
    4.38189600e-03 4.90964111e-03 1.81414150e-02 1.24891987e-02
    9.82965156e-03 1.03893420e-02 -9.06957965e-03 -1.67591982e-02
    -4.13530180e-03 8.48057400e-03 1.67809036e-02 9.42475069e-03
    2.11225823e-02 2.54199579e-02 1.13718631e-02 -3.90150724e-03
    -9.13487573e-04 -3.03822756e-03 1.16730733e-02 1.33591192e-02
    1.27954986e-02 3.10237221e-02 1.19778570e-02 2.85854079e-02
    -6.13077893e-04 -5.06906398e-03 -6.37622504e-03 2.00329758e-02
    -2.57250969e-03 1.76359843e-02 7.74899172e-03 4.79657017e-03
    -3.02903191e-03 -8.48325342e-03 -1.19501157e-02 1.21250062e-03
    1.55057339e-02 3.01732827e-04 1.96674839e-02 1.09609524e-02
    1.81931891e-02 -1.17117935e-03 1.14690671e-02 -4.80886223e-03
    6.12601405e-03 -3.48141883e-03 -4.20899363e-03 3.03050294e-03
    1.49293188e-02 1.40428143e-02 3.68505437e-03 -6.63611246e-03
    -1.98661964e-02 1.22909131e-03 1.16875106e-02 -6.37602014e-03
    -7.21559254e-03 7.88422488e-03 1.95565056e-02 1.24079622e-02
    1.03324773e-02 -2.42505688e-03 6.37882994e-03 8.42282828e-03
    2.26738513e-03 1.58072449e-02 1.30227581e-02 1.40836295e-02
    8.26803222e-03 1.35568930e-02 -4.37355973e-03 9.56279039e-03
    1.06050791e-02 1.01730926e-03 9.68984421e-03 6.74999226e-03
    1.92306179e-03 -6.04211586e-03 -1.08593365e-03 -1.04827508e-02
    3.80990864e-03 7.38436589e-03 8.33558757e-03 2.54232809e-03
    1.47896055e-02 1.16122728e-02 1.18592950e-02 6.45146426e-03
    6.16822290e-05 9.21345502e-03 1.34930080e-02 1.38056893e-02
    -1.39699606e-02 -5.31914737e-03 -6.82689855e-03 -8.15074611e-03
    -1.51142711e-04 2.03289860e-03 5.42342197e-03 1.46253230e-02
    1.36585729e-02 1.05403112e-02 1.47110494e-02 -6.10403775e-04
    -8.86129029e-03 -8.33601318e-03 -5.39786927e-03 1.10720785e-03
    9.18323174e-03 1.67622603e-02 2.08074506e-02 2.42014267e-02
    1.78765913e-03 -6.32996671e-03 -6.19519455e-03 -1.58508066e-02
    -7.59562990e-03 1.79416463e-02 1.99947995e-03 -2.47526495e-03
    9.24004335e-03 1.14210055e-03 1.23004699e-02 8.15597159e-05
    1.20099611e-03 1.04271350e-02 9.08430107e-03 2.49797967e-03
    4.50361846e-03 1.36508038e-02 5.52730775e-03 3.28064105e-03
    -7.26420339e-03 -1.86881907e-02 2.28434408e-04 1.68901812e-02
    1.45036699e-02 2.08340101e-02 3.08083110e-02 2.12676288e-03
    -8.64627119e-03 3.21784843e-04 -6.28765626e-03 8.39703251e-03
    2.57115066e-02 1.95069127e-02 2.10670214e-02 3.01524401e-02
    -1.07778492e-03 -2.05370355e-02 -1.54415574e-02 -4.84360475e-03
    -2.19515944e-03 1.98365301e-02 -1.98581349e-03 -7.59024173e-03
    7.89680611e-03 -1.74227415e-03 -2.16353568e-03 -4.69120638e-03
    -1.24563985e-02 1.25488406e-02 2.42474079e-02 -4.25013527e-03
    1.09869754e-03 6.34732982e-03 2.89966585e-04 -1.23051566e-03
    7.19177304e-04 8.78905039e-03 7.61425775e-03 1.50546050e-02
    3.65528688e-02 1.81294810e-02 1.72451288e-02 8.64767469e-04
    -1.76183507e-02 -6.12312462e-03 8.96232296e-03 2.08957121e-02
    2.70850882e-02 2.73936521e-02 1.42102549e-02 1.49065712e-02
    1.19099449e-02 -8.16943962e-03 -2.23182258e-03 1.11490376e-02
    1.02389697e-02 2.35790219e-02 6.72431244e-03 -5.69863198e-03
    9.39448131e-04 9.11542028e-03 -7.89413974e-03 5.27369650e-03
    1.97670292e-02 1.71387438e-02 9.12966486e-03 1.56756025e-02
    5.29155228e-03 -4.10886947e-04 9.36428830e-03 2.10724236e-03
    6.38581673e-03 -6.55146036e-03 9.19691636e-04 1.59474108e-02
    2.62123346e-02 1.51065737e-02 8.10388476e-03 9.30787064e-03
    -2.20946316e-02 -8.63701163e-04 6.58869464e-03 5.75109338e-03
    1.72785968e-02 2.34182738e-02 1.47812171e-02 9.15813353e-03
    1.23012885e-02 -1.19754765e-02 -5.75810764e-03 8.92635994e-03
    1.18558416e-02 1.46268615e-02 3.20438179e-03 2.39654165e-03
    -1.85125403e-03 3.51922563e-03 -1.46440547e-02 -4.94994409e-03
    -1.15001015e-02 -7.13536143e-03 1.80419639e-03 8.02866928e-03
    1.23216445e-02 3.89753352e-03 1.22437032e-03 -1.13815293e-02
    -4.01020981e-03 2.89580494e-04 1.17375366e-02 3.74957058e-03
    1.60048828e-02 1.78876594e-02 1.55806607e-02 1.25089912e-02
    -5.74018946e-03 -6.62479037e-03 -5.85088413e-03 1.59647875e-02
    1.22110983e-02 1.74422525e-02 2.00853813e-02 2.08487660e-02
    8.40601139e-03 -1.07675651e-02 -6.03452511e-03 3.00916354e-03
    1.30033353e-02 1.39499232e-02 2.32293131e-03 6.64848508e-03
    -1.27683661e-03 1.80453679e-03 -7.37978518e-03 -8.94098729e-03
    3.19021242e-03 2.03043874e-02 -5.07628603e-04 6.47152588e-03
    1.80303268e-02 8.17229878e-03 1.33548630e-02 -3.63085745e-03
    -8.77475925e-03 4.08193888e-03 1.66343339e-02 1.21042207e-02
    1.21280653e-02 6.39267557e-04 1.71040632e-02 1.05836345e-02
    2.58088904e-03 1.32564120e-02 2.11890135e-02 1.63180083e-02
    2.49917787e-02 2.43152361e-02 -4.49637650e-03 1.42624257e-02
    7.56925764e-03 -2.20026542e-02 -9.37779783e-04 -2.03663809e-03
    -1.85130048e-03 2.22562402e-02 5.42361755e-03 5.49486792e-03
    1.23825874e-02 1.48340762e-02 1.68470503e-03 -8.30794033e-03
    1.05354737e-03 6.72556134e-03 8.32379237e-03 6.08022464e-03
    1.39742596e-02 1.09347347e-02 5.28466841e-03 -6.50506979e-03
    2.09401408e-03 1.35956155e-02 1.31502561e-02 1.58959832e-02
    3.69903259e-02 1.41350459e-02 2.59516332e-02 7.17059523e-03
    2.31673708e-03 5.40472334e-03 -9.54386219e-03 -1.70531555e-03
    2.19758041e-02 1.47827882e-02 1.09328879e-02 2.06831601e-02
    -3.54289287e-03 -2.63456609e-02 -1.46163423e-02 -1.14779463e-02
    -8.20949674e-03 1.12151355e-02 7.81196309e-03 8.92846659e-03
    1.01148766e-02 7.81945605e-03 1.35992728e-02 1.49579756e-02
    1.60040837e-02 2.62108911e-02 2.37132479e-02 1.55598223e-02
    1.35008916e-02 1.30602503e-02 -2.82623083e-03 -1.46382358e-02
    -4.48946329e-03 2.95346091e-03 4.04933188e-03 8.03854875e-03
    -7.84176867e-03 6.19890913e-03 1.46646872e-02 9.59076802e-04
    5.20994095e-03 1.03172027e-02 1.23629225e-02 1.49540547e-02
    8.23340553e-04 -7.93268066e-03 1.10162366e-02 3.66687798e-03
    -1.81102683e-03 -4.09761257e-03 8.43701791e-03 3.23361228e-03
    6.09318912e-03 8.56291875e-03 9.44175478e-03 1.38179278e-02
    1.85113549e-02 1.27382316e-02 1.55562488e-02 5.61774708e-03
    1.45898070e-02 1.23456232e-02 9.10418108e-03 4.26610146e-04
    -1.25674158e-03 7.05236103e-04 5.43905143e-03 4.72124200e-03
    1.38941929e-02 5.16398950e-03 1.62857901e-02 7.77948089e-03
    5.67370374e-03 1.31364828e-02 1.23326676e-02 7.03275809e-03
    8.04838631e-03 1.09187905e-02 2.28455337e-03 1.08338902e-02
    1.89078990e-02 -2.59421719e-03 7.65983295e-03 4.95010288e-03
    -5.07927267e-03 -9.86996529e-05 -2.61998648e-04 -1.03662862e-03
    -2.75364704e-03 5.14965039e-04 7.94479856e-04 9.94603150e-03
    1.33938706e-02 8.08859710e-03 6.27872208e-03 8.42459314e-03
    1.24624344e-02 1.06372209e-02 6.15236303e-03 -3.95601196e-03
    6.88454276e-03 1.61711704e-02 -3.89047200e-03 3.05604027e-03
    8.69604200e-03 -5.59623865e-03 -1.45617845e-02 -3.88342538e-03
    1.00148171e-02 1.45351151e-02 1.20421555e-02 -1.29707614e-02
    2.43075681e-03 7.10687088e-03 8.38936400e-03 -4.65586130e-03
    8.57378449e-03 4.61360952e-03 1.02543887e-02 1.57926474e-02
    -1.00902189e-02 5.60191879e-03 1.76664125e-02 1.95336761e-03
    -2.53861565e-02 1.38637528e-03 1.11623975e-02 7.80266011e-03
    1.22602154e-02 -1.82486381e-02 -7.12489244e-03 4.09869208e-05
    3.88116855e-03 1.02426042e-03 1.96494423e-02 3.64825875e-03
    2.18761712e-03 1.11506684e-02 -6.99925702e-03 -2.99476560e-05
    1.40299846e-03 1.22506749e-02 1.23924138e-02 2.07919236e-02
    -2.22638855e-03 -2.33276573e-04 1.18015828e-02 -8.90044123e-03
    4.97599307e-04 6.60296669e-03 -1.35379983e-03 -1.82481371e-02
    1.72166550e-03 5.40679181e-03 2.59653293e-03 6.03629742e-03
    -6.92297658e-03 -1.16362125e-02 -2.64901714e-03 -5.20779192e-03
    -1.44322654e-02 8.43048934e-03 -5.97922085e-03 2.30053859e-03
    1.34210307e-02 -2.87304795e-03 -1.17478048e-04 2.48072459e-03
    6.25428697e-03 2.54439027e-03 2.18229387e-02 9.85569041e-03
    1.80596523e-02 8.27900879e-03 2.05717725e-03 -8.71940050e-04
    1.52102429e-02 5.06574800e-03 9.80271678e-03 1.65501554e-02
    4.67405934e-03 5.09678246e-03 7.73982331e-03 3.01157334e-03
    -8.98894016e-03 4.80069779e-03 -6.31695241e-03 -1.15641847e-03
    1.59458872e-02 -2.75173094e-02 -3.75574268e-03 1.00313481e-02
    9.03030217e-04 5.55459457e-03 5.37983561e-03 1.82780679e-02
    7.63419783e-03 8.17768648e-03 2.12502815e-02 1.18776951e-02
    9.03083570e-03 4.77916095e-03 -1.05930567e-02 1.97488554e-02
    1.43344784e-02 2.54453048e-02 1.78211555e-02 -2.85154185e-03
    3.31375329e-03 1.47664854e-02 4.26718639e-03 -1.29417435e-03
    4.66663297e-03 7.73562817e-03 1.62285026e-02 1.24060279e-02
    4.72773769e-04 -7.72155169e-03 1.52859874e-02 2.94220671e-02
    5.43231424e-03 -9.71870613e-04 7.92925886e-04 2.57546594e-03
    -6.05827989e-03 3.89077165e-03 -1.87443965e-03 1.04597565e-02
    1.60755403e-02 1.44952191e-02 -9.13127512e-03 -8.86613561e-04
    -5.35729807e-03 -5.91227366e-03 8.68803915e-03 2.57099862e-03
    9.99522954e-03 2.96736918e-02 -3.53673985e-03 -7.73648964e-03
    -8.78283288e-03 -1.31018991e-02 -5.57629811e-03 1.31727736e-02
    6.50316663e-03 1.10627273e-02 2.55662445e-02 9.25433636e-03
    -2.72536278e-03 -1.07794721e-02 7.05589354e-03 -3.54101812e-03
    6.19743206e-03 5.30583691e-03 3.33513971e-03 8.87143519e-03
    -1.03683947e-02 -1.98086328e-03 -8.12621787e-03 -3.24811117e-04
    -1.24633603e-03 -1.04310904e-02 -3.45306611e-03 4.58247587e-03
    8.93667620e-03 -3.97209218e-03 1.14061881e-03 -8.60070344e-03
    -3.00755212e-03 -3.11725028e-03 4.68101166e-03 8.25873401e-04
    5.74745378e-03 1.60453189e-02 -1.96018834e-02 1.48651598e-03
    -3.52782849e-03 4.58669337e-03 -3.81430448e-03 4.57955897e-03
    2.47707416e-04 1.62535850e-02 2.20542569e-02 -7.81591050e-03
    1.56258214e-02 2.80725188e-03 1.27766719e-02 1.07695805e-02
    -9.75139532e-03 -6.96601288e-04 1.49012683e-02 1.31755956e-02
    1.22592282e-02 1.29366852e-02 -4.69024759e-03 -6.53706607e-04
    3.66847869e-03 -1.61645003e-04 5.64995455e-03 2.79969140e-03
    -5.85415820e-03 -2.04333030e-02 -3.57860420e-03 -1.70863525e-03
    1.06021063e-02 1.49947568e-03 6.58399565e-03 2.31003365e-03
    7.26842554e-03 1.52673274e-02 8.39014165e-03 2.18160711e-02
    -1.43346097e-03 9.95278638e-03 8.17201566e-03 1.68454126e-02
    1.17286053e-02 6.29327912e-03 -1.74959586e-03 -1.14487801e-02
    8.52063391e-03 7.80937145e-04 4.31944290e-03 1.00611541e-02
    -5.26386872e-03 1.09678591e-02 1.22260367e-02 7.47311162e-03
    3.75560555e-03 9.68686305e-03 7.97176268e-03 2.20243111e-02
    9.60276369e-03 -1.09973326e-02 -2.61498918e-03 5.76715125e-03
    1.14079136e-02 -2.27039494e-03 2.27533616e-04 -2.46039010e-03
    1.38304429e-02 8.75583291e-03 8.85924604e-03 2.80566607e-03
    7.01639429e-03 -1.19965611e-04 3.59278522e-03 -2.57593486e-03
    8.05824716e-03 2.72249128e-03 3.53514147e-03 4.78839688e-03
    -8.13709665e-03 2.09417063e-04 6.24781568e-03 1.86358858e-02
    7.44524272e-03 4.93747089e-03 -5.80934389e-03 9.71951336e-03
    -3.06713907e-03 -1.91418570e-03 2.47437111e-03 4.48169746e-03
    -2.60434835e-03 -3.10048228e-03 -1.66623835e-02 1.35885812e-02
    2.09720973e-02 -1.68112793e-03 -7.17644626e-03 6.27260469e-03
    5.08234557e-03 -1.24501316e-02 -6.47378201e-03 7.69859646e-04
    1.51239419e-02 1.37895569e-02 1.25334142e-02 1.09851663e-03
    6.49288809e-03 8.03919882e-03 1.79235283e-02 3.49418446e-03
    -8.12145416e-03 -9.97981429e-03 5.88225201e-03 3.32906959e-03
    4.53525037e-03 9.97576676e-03 -1.22430956e-03 -9.14737408e-04
    -7.75066484e-03 -1.03140557e-02 -5.12396917e-03 9.38611012e-03
    -3.07788933e-03 -1.06050614e-02 3.48523667e-04 6.94704289e-03
    -6.35555806e-03 7.41990097e-03 2.29617152e-02 2.31401008e-02
    3.96050606e-03 6.49778638e-03 -2.61307904e-03 -6.19439455e-03
    9.99288820e-03 -5.53862238e-03 2.27165152e-03 -1.09675918e-02
    -1.46934192e-03 1.10660940e-02 -1.36034656e-03 -5.86319249e-04
    6.36675279e-04 1.15183974e-03 -9.39962082e-03 1.76136009e-02
    2.39021499e-02 1.32946838e-02 9.94568225e-03 9.16806981e-03
    9.41066444e-03 -1.92294666e-03 1.56727806e-02 -7.57907936e-03
    2.03453451e-02 1.64819267e-02 9.39678866e-03 6.28173118e-03
    5.65792248e-03 -1.88808038e-03 -3.90418968e-03 8.73152073e-03
    -6.82242960e-03 -1.99912046e-03 -2.30456609e-02 -7.05588795e-03
    9.42948833e-03 4.89401352e-03 -6.37792097e-03 9.02960892e-04
    4.57045902e-03 -1.67102534e-02 -7.94320833e-03 -3.84035683e-03
    7.83068314e-03 1.80000328e-02 7.92441051e-03 1.34327607e-02
    1.41121715e-03 1.36972535e-02 -1.14176115e-02 3.63586325e-04
    -1.40594144e-03 1.36374601e-03 -4.15979838e-03 7.25465408e-03
    1.09446784e-02 1.12576354e-02 2.16651168e-02 3.96598689e-03
    -5.52701810e-03 1.26011029e-03 -1.60561525e-04 -4.80480911e-03
    -3.26973409e-03 -8.61648470e-03 -1.05092423e-02 2.41636392e-03
    -5.74855180e-03 6.11419883e-03 1.38735468e-03 2.29069442e-02
    1.15417931e-02 7.82760698e-03 -1.53439224e-03 -7.54156674e-04
    -1.51596451e-03 -2.80271424e-03 -4.92166169e-03 2.99887010e-03
    9.71714873e-03 -2.28173914e-04 -5.79279731e-04 -2.18279939e-03
    7.15402374e-03 6.60951063e-03 -1.21321168e-03 -2.68119690e-03
    -5.95320715e-03 5.96682727e-03 -6.81626203e-04 5.56776300e-03
    -6.34746067e-03 -2.74919323e-03 -4.28001396e-03 -3.66909290e-03
    -1.00258170e-02 -7.49030383e-03 1.13411006e-04 3.94221308e-04
    3.07273958e-02 1.06875291e-02 8.73883069e-03 1.02343904e-02
    1.76679175e-02 -5.01939701e-03 8.05557799e-03 1.10866269e-02
    1.74714644e-02 1.86334960e-02 6.02954160e-03 1.31818571e-03
    -8.14740139e-04 -4.55635786e-03 5.66272624e-03 4.29687370e-03
    1.26553606e-02 2.41602790e-02 9.97874700e-03 -3.39844846e-03
    -4.93306026e-04 3.82733741e-03 1.11445934e-02 -9.09929350e-03
    -6.09627413e-03 -1.69333047e-03 2.82258261e-03 5.13228821e-03
    9.84658115e-03 9.85812512e-04 6.13406207e-03 -8.42597149e-03
    1.14936428e-03 6.51293201e-03 1.32388826e-02 -6.04887120e-03
    1.01075449e-03 -7.68120401e-03 -1.51455484e-03 -5.50968898e-03
    4.17357776e-03 9.57211852e-03 1.67699531e-02 1.94011703e-02
    1.31281316e-02 1.21615715e-02 3.56925972e-04 5.44834044e-03
    2.49544112e-03 -2.59297667e-03 -2.74979044e-03 3.53849865e-03
    8.36588442e-03 -2.13720440e-03 6.79955957e-03 2.95238476e-03
    -2.30151205e-03 -2.61347741e-05 -4.18937858e-03 5.07156877e-03
    2.53804424e-03 5.22563700e-03 7.91308586e-04 1.44402394e-02
    5.53362723e-03 2.48558889e-03 7.63863418e-03 -3.03621963e-03
    7.34644895e-03 1.13852927e-03 3.69482883e-03 9.44823213e-03
    1.27879987e-02 4.07863362e-03 1.36028063e-02 8.46490171e-03
    1.29509494e-02 -4.82225977e-03 4.69834916e-03 9.11085308e-03
    1.13020660e-02 1.11037213e-03 -9.62645840e-03 -1.09460414e-03
    -4.15469706e-03 -9.30652395e-03 -8.16481188e-03 -1.54348742e-02
    7.73165468e-03 8.19517672e-03 1.36190290e-02 6.48066634e-03
    1.09891156e-02 9.45234485e-03 1.40030049e-02 6.49193907e-03
    9.96353943e-03 1.75662506e-02 2.42442563e-02 1.27334548e-02
    -9.31757560e-04 9.14659165e-03 -2.55405973e-03 -2.83661811e-03
    -1.41422180e-02 -3.66190658e-03 9.74401273e-03 1.35367457e-02
    7.94649217e-03 7.00975256e-03 2.00451468e-03 1.45381759e-03
    -9.20680631e-03 -2.24784925e-03 -6.92753540e-03 1.06520690e-02
    4.79956158e-03 -6.85000268e-04 8.40262161e-04 8.28525890e-03
    -2.35934334e-04 -6.54930700e-05 -6.07775692e-05 2.88704317e-03
    9.70496237e-03 -5.97930094e-03 1.13782519e-02 6.33211387e-03
    1.33648198e-02 7.77220260e-03 3.35190375e-03 1.95837300e-03
    -6.89991983e-03 1.45447003e-02 1.68815535e-02 3.59412143e-03
    -1.39588397e-03 1.10687595e-02 -1.74627334e-04 1.62044680e-03
    7.57987751e-03 5.72224706e-03 1.58059839e-02 5.66455815e-03
    1.12789106e-02 1.18907052e-03 8.82947352e-03 -1.19287362e-02
    -9.02098417e-03 5.44761354e-03 6.21721009e-03 2.02344600e-02
    2.64107548e-02 4.20758361e-03 -3.85526265e-03 3.92311253e-03
    -8.69476050e-03 -5.73529629e-04 -2.94033089e-04 8.18421692e-03
    1.49261439e-02 1.91877354e-02 1.58654023e-02 1.26894154e-02
    1.61699969e-02 -3.84343392e-03 -6.74297800e-03 2.00518090e-02
    2.27833036e-02 3.82134467e-02 2.45477352e-02 1.73505861e-02
    1.65514573e-02 1.07591338e-02 1.64948069e-04 -3.60510242e-03
    1.09581631e-02 1.53267616e-02 9.53372847e-03 2.26929374e-02
    -4.30432567e-03 4.99172276e-03 8.32326338e-03 4.07177926e-04
    1.12623442e-03 3.41909099e-03 5.06482087e-03 9.62573802e-04
    1.44382771e-02 -7.13920733e-03 6.61935564e-03 2.40811217e-03
    8.20952281e-03 -2.13822420e-03 8.85014702e-03 1.25433272e-02
    6.76785037e-03 2.85128155e-03 2.27209907e-02 1.96948405e-02
    7.22640520e-03 9.66968888e-04 -7.90803041e-03 -5.49104949e-03
    3.32137616e-03 -4.22942685e-03 2.21522041e-02 2.75447574e-02
    4.77308454e-03 -2.92390794e-03 4.79178783e-03 -3.38373147e-03
    8.05622805e-03 1.19589753e-02 -9.05551482e-03 1.73550118e-02
    -1.97088951e-03 1.09360844e-03 2.97831185e-03 6.04179036e-03
    -9.24545806e-03 1.90905351e-02 2.41697188e-02 1.11195063e-02
    -8.25760234e-03 -1.45660911e-03 -1.49712164e-03 1.45879742e-02
    6.26934133e-03 -2.51219468e-03 3.88294575e-03 2.06994358e-03
    -1.23530710e-02 -1.18353851e-02 2.33984683e-02 -5.66465687e-03
    5.39166504e-04 1.85811450e-03 -2.50221207e-03 1.01006245e-02
    1.38797937e-02 5.57173882e-03 -1.24602963e-03 1.22311822e-05
    -1.66991763e-02 2.79779290e-03 2.04814156e-03 3.80823249e-03
    1.10384952e-02 6.46827230e-03 -4.54481132e-03 -7.56306690e-04
    -6.40188064e-03 -5.72892511e-03 9.88089200e-03 2.64622979e-02
    -1.21002421e-02 6.98623108e-03 6.52429648e-03 4.25005145e-03
    -4.44309367e-03 2.51253974e-03 -2.89170677e-03 4.88618203e-03
    1.57278124e-02 -5.88477170e-03 -2.35416112e-03 -1.82939135e-03
    2.60788249e-03 -1.10816313e-02 -3.97876045e-03 -6.67888625e-03
    4.23459383e-03 1.71031710e-02 1.27573649e-03 6.10092422e-03
    -1.80581864e-02 -9.36075393e-03 4.65069897e-03 1.28421858e-02
    5.00227837e-03 2.98143434e-03 1.42822275e-03 2.73965765e-03
    1.72107946e-02 6.58307516e-04 -4.06246074e-03 1.56781618e-02
    5.54581126e-03 5.46751777e-03 6.93535665e-03 2.03737691e-02
    -5.10948943e-03 1.23815751e-02 2.55004456e-03 2.60650343e-03
    -4.11109347e-03 3.24948248e-03 7.76868407e-03 7.76706310e-03
    1.81155931e-02 1.71322306e-03 1.85273532e-02 -7.46310828e-03
    -1.16429874e-03 -5.76127367e-03 1.15320068e-02 1.56264775e-03
    -2.64994591e-03 2.05270178e-03 -1.72796175e-02 2.03951192e-03
    3.13937222e-03 3.68306355e-04 1.48247965e-02 1.51464324e-02
    1.17300777e-02 -2.35911296e-03 1.42901922e-02 2.48867320e-03
    1.80902872e-02 3.93799925e-03 1.60283353e-02 9.79625247e-03
    9.21661220e-03 3.49386665e-03 9.80540877e-04 1.67120248e-02
    1.26933046e-02 1.42998695e-02 -7.06422422e-03 -2.37029279e-03
    9.35100205e-03 1.81994587e-03 -5.10168215e-03 2.65336526e-03
    1.02248937e-02 -1.02956221e-03 6.28254050e-03 -9.71735455e-03
    -6.69198018e-03 -2.79569277e-03 1.39099890e-02 8.45351780e-04
    -1.03610093e-02 2.52095945e-02 6.79318374e-03 9.02374089e-03
    3.90847260e-03 5.45806810e-03 9.80964117e-03 8.65894649e-03
    -7.41499884e-04 3.38197034e-03 2.40723696e-02 2.16632430e-03
    -4.61201853e-04 5.70811285e-03 6.39547885e-04 1.09568350e-02
    8.68151989e-03 6.73633767e-03 8.30006320e-03 2.94666435e-03
    -1.92431302e-03 6.76240772e-04 -1.76043098e-03 5.73436264e-03
    -7.46457232e-03 -1.79473020e-03 6.64040260e-03 1.15503352e-02
    1.72695387e-02 5.40609797e-03 6.35256176e-04 4.12856974e-03
    -1.68416719e-03 -1.00880647e-02 6.00156514e-03 6.63201883e-03
    -3.25168041e-03 8.91012233e-03 3.72661231e-03 3.63382138e-03
    5.29808877e-03 5.05434442e-03 9.75610781e-03 1.34169473e-03
    1.16977068e-02 -7.50505948e-04 1.74813140e-02 -1.68033745e-02
    5.76872984e-03 -2.44182069e-04 5.84650133e-03 -5.44865662e-03
    5.90362260e-03 6.46658149e-03 1.29902884e-02 9.93262604e-03
    4.05771891e-03 4.21553152e-03 -2.34294985e-03 -2.09251721e-03
    1.25453109e-02 9.32262838e-03 6.68008532e-03 1.60337631e-02
    7.40539888e-03 1.01643149e-03 -8.29791534e-04 -3.34057468e-03
    -1.14707062e-02 9.37369093e-03 5.43855410e-03 7.01113790e-03
    1.37084455e-03 8.91848188e-03 -6.92501012e-03 5.33837127e-03
    3.85175622e-03 1.28716370e-02 -6.01092070e-05 8.96752812e-03
    1.26523785e-02 6.56541111e-03 1.34160705e-02 -8.62447266e-03
    1.51552856e-02 1.25966442e-03 3.68150230e-03 -2.16827565e-03
    9.88531578e-03 2.75114924e-03 7.82633200e-03 2.79670628e-03
    -1.61363315e-02 5.90178603e-03 1.95552828e-03 -4.27779648e-03
    1.88498311e-02 1.20826438e-02 1.02402158e-02 4.68474301e-03
    2.43764697e-03 -1.14859799e-02 1.10340640e-02 1.36682512e-02
    2.02661250e-02 3.49336164e-03 1.39596509e-02 9.84699186e-03
    5.34362905e-03 1.42839821e-02 -1.20966025e-02 2.23265905e-02
    -3.04878573e-03 -9.05453600e-03 -2.57856259e-03 1.32153351e-02
    -3.80151934e-04 -1.14021404e-02 4.24135756e-03 -6.80101244e-03
    1.31606627e-02 1.08243302e-02 7.45068770e-03 5.51242335e-03
    1.56470146e-02 1.30662890e-02 8.16353876e-03 1.08042797e-02
    -1.07909469e-02 1.16504440e-02 6.82541914e-03 1.29206041e-02
    -8.65503587e-03 8.77297018e-03 6.77880179e-03 7.75572937e-03
    1.20067624e-02 5.52465033e-04 -8.86369310e-03 -2.91734730e-04
    -1.11332140e-03 -1.64753827e-03 1.60909928e-02 -2.58803833e-03
    -4.01328318e-03 1.16945459e-02 -5.32325078e-03 2.23080777e-02
    1.60764419e-02 2.19227578e-02 1.29954647e-02 5.62738627e-03
    -5.23679238e-03 -8.89614411e-03 -2.76264129e-03 -1.96215063e-02
    8.65818653e-03 -1.69625040e-02 -3.96957342e-03 1.68168247e-02
    1.18741887e-02 -3.67816829e-04 9.89824068e-03 8.64460785e-03
    1.71368625e-02 6.65990170e-03 -1.04723936e-02 6.40793284e-03
    2.04721503e-02 5.49635710e-03 -4.27747704e-03 -1.57487707e-03
    1.72062463e-03 1.33458162e-02 3.70639539e-03 -7.93254189e-03
    1.82682052e-02 1.46907596e-02 1.76928025e-02 3.80056188e-03
    -2.05277209e-03 -5.72465733e-03 1.74282375e-03 3.86949396e-03
    -1.74757596e-02 -4.56092833e-03 1.36531526e-02 9.63511353e-04
    -7.53097842e-03 -1.07557606e-02 -7.37686642e-03 -3.98670090e-03
    3.08700278e-03 -4.26178682e-04 -5.44971181e-03 6.80303853e-03
    -6.20367005e-03 -7.31692091e-03 -4.65052575e-03 -6.70749694e-04
    1.23146670e-02 6.95253431e-04 -2.07949243e-03 5.51546644e-03
    1.97890308e-03 -2.95516383e-03 6.34442549e-04 6.86538173e-04
    9.18074045e-04 6.11213455e-03 5.00269840e-03 1.28564145e-02
    1.75695140e-02 2.10477598e-03 -1.62438559e-03 9.37346078e-04
    5.49260853e-03 5.98816958e-04 -1.83085518e-04 -1.13682577e-03
    -1.43906346e-03 -2.25047185e-03 5.20776305e-03 9.21550952e-03
    7.42382929e-03 9.93663259e-03 -5.01929782e-03 4.56460315e-04
    9.64704622e-03 7.05413008e-03 2.70948242e-02 2.29759123e-02
    5.78443473e-03 1.45818880e-02 9.51215532e-03 -1.76188696e-04
    1.06043404e-03 5.59277693e-03 4.45069419e-03 1.05414195e-02
    2.73177400e-03 1.69947203e-02 1.21046649e-02 4.79297386e-03
    2.24015187e-03 -8.25643074e-03 3.98964109e-03 1.70753070e-03
    5.14174346e-03 1.08552026e-02 5.84988575e-03 -1.47481530e-03
    7.42086396e-03 -2.05199164e-03 -1.06723979e-02 -3.11344862e-03
    6.93868424e-05 8.84272810e-03 1.43941678e-02 4.91510937e-03
    1.00581003e-02 1.86514556e-02 6.21860335e-03 -1.12188375e-03
    -1.25445295e-02 -2.77981535e-03 5.93723450e-03 3.28152743e-03
    3.70840565e-03 6.91039907e-03 1.01834126e-02 -1.72239274e-03
    5.49579645e-03 4.91686491e-03 1.23435026e-02 1.34139853e-02
    1.40602281e-02 -8.53835884e-03 -3.84944212e-03 8.39914475e-03
    6.87175198e-04 -1.61690943e-04 -2.65251449e-03 -9.87627730e-03
    3.04488931e-03 9.65867471e-03 -4.96211788e-03 6.83998363e-03
    1.76221747e-02 4.35373839e-03 6.92512281e-03 1.68219442e-03
    1.18584675e-03 2.79642735e-03 1.16200866e-02 8.77295039e-04
    3.28845228e-03 3.67313367e-03 -6.56839088e-03 5.21875639e-03
    1.11529808e-02 -1.00971228e-02 8.58890917e-03 4.77881590e-03
    2.00679456e-03 3.50970571e-04 9.09612142e-03 6.29180344e-03
    1.41729154e-02 8.89598206e-03 -7.26527302e-03 1.15527073e-02
    2.78054234e-02 -3.26498644e-03 7.16008537e-04 5.41047705e-03
    -3.73197859e-03 1.10123970e-03 -1.84611918e-03 -5.14481543e-03
    8.80739372e-03 1.49877521e-03 1.37641691e-02 1.15543902e-02
    5.92016755e-03 -1.56187266e-03 1.37157505e-02 1.83813218e-02
    -1.87027873e-03 2.22912058e-02 1.02226520e-02 -5.73900528e-03
    2.93276110e-03 4.41844203e-03 3.48993693e-03 1.30001595e-02
    9.31616500e-03 -9.10727680e-03 -1.52323116e-03 3.58281587e-03
    6.20414456e-03 1.68533586e-02 1.52449897e-02 7.31838372e-05
    -7.74092181e-03 1.33166825e-02 1.13037536e-02 1.29696066e-02
    8.82290956e-03 5.21619731e-05 2.35134130e-03 8.04759748e-03
    -7.49760598e-04 -7.91244954e-03 1.07758511e-02 8.20483547e-03
    3.64508876e-03 3.34124360e-03 7.00153597e-03 2.48268284e-02
    1.40129710e-02 6.39277790e-03 -2.95021385e-03 1.83937214e-02
    2.73224502e-03 1.67743058e-03 1.40472380e-02 5.69186127e-03
    2.09627692e-02 2.02857964e-02 1.14034023e-02 1.31824857e-03
    7.84901343e-03 -4.24763327e-03 7.89677538e-03 7.66125182e-03
    1.22442255e-02 2.75567779e-03 1.04195708e-02 2.96263094e-03
    -5.09012910e-03 -1.34125131e-03 2.86225555e-03 8.18370935e-03
    2.17116717e-02 1.34592252e-02 -5.25075058e-03 5.77687472e-03
    -4.91119828e-03 -4.11122758e-03 2.25125719e-03 6.02701772e-03
    -5.71234443e-04 7.85098691e-03 7.45092286e-03 5.62345888e-03
    1.24082938e-02 6.09895820e-03 -5.22234431e-03 1.14066189e-03
    5.98624349e-03 1.31275561e-02 1.40173230e-02 7.21861422e-03
    -2.79330858e-03 5.78111690e-03 -2.52439221e-03 -5.81442285e-03
    -3.93305859e-03 1.78286072e-03 1.40105495e-02 8.86212289e-03
    1.67834833e-02 3.55592277e-03 9.17612109e-03 1.22078997e-03
    1.07171817e-03 7.70622864e-03 -2.75957002e-03 8.43672431e-04
    1.89927616e-03 2.63778129e-05 -1.10122738e-02 4.70088469e-03
    -2.19948683e-03 9.23544168e-04 7.52561074e-03 1.13263847e-02
    1.80136170e-02 4.27667983e-03 5.06868062e-04 7.64495053e-04
    8.74485727e-03 -3.37584806e-03 3.09193134e-03 5.60491392e-03
    -7.26204365e-03 -1.50800485e-03 -7.23993545e-03 -1.08617861e-02
    -5.77956764e-03 -6.14746567e-03 -1.71199790e-04 -2.00153608e-03
    7.08051072e-03 4.22170706e-04 8.53994023e-03 -8.14550463e-03
    2.54480029e-03 -4.15324001e-03 6.01092412e-04 2.04009339e-02
    1.77144725e-02 7.14854244e-03 -2.55600251e-02 -3.55732255e-03
    -1.13232399e-03 4.31723986e-03 1.63675554e-03 -5.89832105e-03
    1.59232207e-02 -1.73819228e-03 2.01145951e-02 7.75173586e-03
    9.56061296e-03 -1.67930638e-03 1.51601061e-02 1.67365223e-02
    5.81346685e-03 1.80669557e-02 1.49278520e-02 2.48066091e-04
    -2.25439705e-02 -2.78239325e-03 1.35786496e-02 5.64236939e-03
    1.61239207e-02 4.99014882e-03 2.55957320e-02 1.55328214e-02
    1.43874371e-02 -8.92676227e-03 5.13845822e-03 -3.71933146e-03
    1.79468933e-02 3.55459796e-03 2.02741451e-03 1.43802753e-02
    -7.26436498e-03 3.60451615e-03 1.12255616e-02 1.52096394e-02
    1.69049297e-02 8.26284103e-03 3.55376629e-03 -4.79076477e-03
    1.41103566e-02 -3.17281554e-03 8.40827730e-03 -1.20272988e-03
    1.34688206e-02 1.27926348e-02 3.49405920e-03 1.03621101e-02
    8.37412756e-03 1.53845977e-02 5.90395881e-04 -3.03964107e-03
    -8.55966378e-03 7.28022167e-03 -3.03371064e-03 -7.47030182e-03
    8.91877711e-03 -3.22172442e-03 1.31038642e-02 -4.98381036e-04
    3.57546238e-03 -8.94000940e-03 1.28690656e-02 5.86695364e-03
    5.78515325e-03 6.88437140e-03 -1.63820048e-04 3.00086625e-02
    8.73380434e-03 1.68344565e-02 3.70296114e-03 7.23144179e-03
    3.83378868e-03 -2.81922956e-04 8.16217344e-03 8.64523370e-03
    1.68798771e-02 4.00298694e-03 4.78883414e-03 -1.24796815e-02
    -5.98703697e-03 -3.02709499e-03 8.98386911e-03 3.81766050e-03
    -2.33898871e-03 1.06688030e-02 7.10418029e-03 1.59627311e-02
    -8.78582941e-04 1.15171345e-02 1.45198693e-02 9.16658994e-03
    3.47437570e-03 4.61917417e-03 4.65190178e-03 -4.02222667e-03
    1.38813360e-02 -7.98861205e-04 2.59615085e-03 1.86439212e-02
    6.63864380e-03 2.49511935e-03 -5.22040529e-03 7.29347859e-03
    5.46917785e-03 1.78240743e-02 -4.07348108e-03 5.78181539e-03
    1.39044188e-02 -5.43955993e-03 5.69013366e-03 -6.82793744e-03
    4.34217043e-03 -1.06247608e-02 1.61684416e-02 -2.31068814e-03
    4.39375825e-03 6.21639192e-03 3.11827543e-03 -5.30759525e-03
    3.73228500e-03 8.23382847e-03 -6.19888678e-03 1.67041272e-02
    -5.74240228e-03 4.25871229e-03 1.80465505e-02 2.20394437e-03
    -1.17444200e-03 9.49401036e-03 9.37312096e-03 7.23464275e-03
    1.66977048e-02 -8.67611077e-03 1.03932479e-02 3.52796656e-03
    9.82925575e-03 1.30055435e-02 2.93921027e-03 8.13748501e-03
    2.42909859e-03 1.35521386e-02 -3.84011568e-04 7.01749697e-03
    3.29269120e-03 2.50711362e-03 6.75988122e-05 1.17843132e-03
    7.15605263e-03 -1.71568170e-02 1.10293683e-02 -9.54356603e-03
    -1.80045678e-03 -6.37861621e-03 6.80178870e-03 6.54517440e-03
    1.41528826e-02 1.91452671e-02 1.73788089e-02 2.30260715e-02
    -5.19162742e-03 1.36917355e-02 7.30022835e-03 -7.68653757e-04
    1.15105174e-02 1.25377830e-02 -4.23891237e-04 -5.85010974e-03
    1.10110538e-02 -1.64149702e-03 8.22398439e-03 9.00994614e-03
    1.08811418e-02 1.07858051e-02 8.18802882e-03 1.12347761e-02
    -8.83087516e-03 1.79747865e-02 -5.04893076e-04 5.69788041e-04
    -3.65439861e-04 1.14323441e-02 -7.54884072e-03 -3.05041671e-03
    8.74098670e-03 4.58158692e-03 2.62977071e-02 5.04757091e-03
    6.84494060e-03 7.87997269e-04 3.47462296e-03 1.61028039e-02
    1.35805104e-02 3.76259908e-04 -5.93183562e-03 1.04087992e-02
    7.03154597e-03 6.26749941e-04 6.24227943e-03 1.04390830e-02
    1.52637782e-02 1.53563013e-02 1.21860420e-02 1.48609849e-02
    1.81320794e-02 -6.71156595e-05 3.37657315e-04 1.26506137e-02
    1.00880917e-02 -6.17241114e-03 -6.50979904e-03 4.47453000e-03
    4.29651653e-03 1.65013894e-02 -5.22062322e-03 6.11951621e-03
    -1.09402009e-03 3.57820233e-03 -4.11698036e-03 -2.61862227e-03
    -2.54993606e-03 3.87344300e-03 4.47738962e-03 -2.16590450e-03
    2.73363455e-03 1.06795439e-02 4.54550202e-04 -6.43458741e-04
    1.32433912e-02 3.71444714e-03 1.09763723e-03 6.70503452e-03
    -2.27685217e-02 -1.03841759e-02 6.78562419e-03 -3.67971486e-04
    -5.16357506e-03 3.50669981e-03 -2.44180067e-03 4.98905871e-03
    1.31394360e-02 5.20224171e-03 -4.20887629e-03 9.41969268e-03
    -3.17254849e-03 -3.02641420e-03 -2.71619949e-03 -1.66507869e-03
    8.26145406e-04 1.37343202e-02 -7.15067331e-03 -6.97446929e-04
    1.71013153e-03 -2.69071525e-03 2.17241677e-03 6.05976849e-04
    -3.05292872e-03 -1.86437238e-02 -2.83395464e-04 3.34260892e-03
    3.44972382e-03 2.60804733e-03 7.35291978e-03 3.66680906e-03
    5.89343021e-03 3.79387755e-03 5.12254331e-03 1.65722277e-02
    2.07983907e-02 1.83895398e-02 1.52834272e-02 -2.73055094e-03
    7.67136877e-03 5.01006236e-03 1.21665886e-02 4.71240701e-03
    -1.07844761e-02 7.19158491e-03 7.20303087e-03 7.70660490e-03
    -7.56979745e-04 1.49576424e-03 8.74612294e-03 1.66698894e-03
    -4.21037572e-03 -1.18090054e-02 2.88027315e-03 1.31783003e-04
    -8.37184303e-03 -1.92216656e-03 -3.91961960e-03 5.11120632e-03
    3.44379601e-04 -1.45474514e-02 1.15930638e-03 -1.37610070e-03
    9.87128355e-04 8.29999242e-03 -2.88505759e-03 4.00791783e-03
    -3.12169269e-03 1.19583467e-02 8.34663864e-03 -1.24807237e-02
    5.64821810e-03 2.08207848e-03 -4.73958760e-04 4.86300653e-03
    7.89500400e-03 -3.56662576e-03 4.00475226e-03 -6.68864639e-04
    3.91774718e-03 6.04548771e-03 -1.42905284e-02 3.12924432e-03
    1.22454278e-02 6.16550737e-04 6.97051035e-03 3.33977654e-03
    -7.98240304e-03 1.39412470e-02 4.27372335e-03 5.58774685e-03
    1.64095089e-02 4.08218009e-03 9.01286770e-03 1.05363308e-02
    -6.23179507e-03 -2.20835749e-02 -3.24763078e-03 2.69378140e-03
    -7.61502422e-03 3.01259453e-04 7.68866902e-03 1.17272306e-02
    3.39762284e-03 -3.87922511e-03 -3.44894989e-03 1.40701588e-02
    7.20964884e-03 -8.94399267e-03 5.86503278e-03 2.92321518e-02
    1.40654314e-02 1.03978338e-02 -8.34210962e-03 -1.89058632e-02
    1.38786277e-02 6.91485079e-03 1.83800876e-03 2.01393235e-02
    6.07270189e-03 1.45233665e-02 1.15573192e-02 -3.11991572e-03
    -4.27813036e-03 4.60777618e-03 9.71275102e-03 5.06090233e-03
    2.80844653e-03 7.68261682e-03 1.81971043e-02 -4.45785845e-05
    -1.60121284e-02 -2.97629042e-03 1.30999628e-02 -2.77779269e-04
    5.36017679e-03 3.83295876e-04 1.91723760e-02 8.15229304e-03
    1.11818686e-02 -8.70130118e-03 -1.76188741e-02 6.37757685e-03
    5.77422604e-03 2.26217788e-03 1.18532963e-02 1.35522448e-02
    1.16916765e-02 -4.47491510e-03 -1.03464304e-02 -9.28264391e-03
    1.55546656e-02 1.18439961e-02 9.25524626e-03 1.29244383e-02
    1.78184863e-02 2.13267114e-02 5.10805193e-03 -3.60016455e-03
    -7.73462118e-04 1.25584528e-02 6.72602514e-03 2.08322573e-02
    1.16524259e-02 2.89973663e-03 7.37631973e-03 7.59582268e-03
    3.32898833e-03 -9.16169863e-03 -1.10243110e-03 -1.12440744e-02
    2.73653772e-03 -7.81975687e-03 1.66491531e-02 6.03095070e-03
    3.85100459e-04 -1.74774742e-03 4.43387486e-04 1.12024425e-02
    1.87085010e-02 1.69273708e-02 3.03817205e-02 1.06123267e-02
    8.96263681e-03 2.72414205e-03 -1.21167058e-03 -1.29554272e-02
    7.72782229e-03 9.51241050e-03 2.39257086e-02 9.58192255e-03
    5.28557086e-03 1.09889647e-02 8.80713575e-03 2.80566933e-03
    -9.55625251e-03 1.61066130e-02 3.37809604e-03 2.13882904e-02
    1.26293339e-02 1.39414947e-02 2.13261805e-02 2.78101526e-02
    8.76018312e-03 -8.07902310e-03 3.81756411e-03 -2.73064175e-03
    1.05463667e-02 8.95618740e-03 2.77922279e-03 8.90694559e-03
    1.34119391e-02 6.27733115e-03 -7.88903702e-03 1.64290965e-02
    1.22840581e-02 2.56172679e-02 1.41951963e-02 1.32472988e-03
    1.27163716e-02 1.63134225e-02 3.15508922e-03 -1.05036609e-02
    8.37038830e-03 1.56221120e-03 4.42169327e-03 3.98264220e-03
    8.72921199e-03 1.45995356e-02 1.85818784e-02 1.48707079e-02
    -4.98215016e-03 1.17264539e-02 5.40652173e-03 -1.84185582e-03
    9.35692061e-03 5.58738876e-03 6.14871131e-03 4.66920756e-04
    -1.99168711e-03 -1.42647959e-02 2.14083516e-03 6.31841458e-03
    1.11530507e-02 9.11816396e-03 1.00395698e-02 2.08538417e-02
    1.22568477e-02 2.76769814e-03 -1.40554493e-03 1.34822112e-02
    2.54650507e-03 -3.23605491e-03 9.08715464e-03 -4.63092281e-03
    1.07416185e-02 -4.12108609e-04 -2.98004667e-03 -1.01518342e-02
    6.30387012e-03 4.69507324e-03 4.15824540e-03 1.48906922e-02
    5.18538151e-03 1.41631849e-02 1.39657333e-02 -3.21820751e-03
    3.27214063e-03 -7.97480461e-04 -5.04863355e-03 3.78939882e-03
    -7.79741677e-03 -8.66918708e-04 1.15784677e-02 2.57861055e-03
    -3.94578499e-04 8.95221345e-03 -8.20056163e-03 -6.51701447e-03
    2.44926405e-03 -1.15008764e-02 2.44249916e-03 1.38933230e-02
    1.47663569e-02 3.71456682e-03 1.04445992e-02 5.64768352e-03
    4.24185814e-03 5.34956297e-03 1.04862889e-02 3.42996418e-03
    1.44251715e-02 9.29250568e-03 1.60813320e-03 2.63788290e-02
    1.49649484e-02 1.42522007e-02 5.79933822e-03 -6.38783444e-03
    2.54625250e-02 1.44916624e-02 3.74132022e-03 1.51787596e-02
    1.70121361e-02 4.69990680e-03 -6.84810430e-03 1.71542745e-02
    2.64569577e-02 2.72334181e-03 5.89605467e-03 -5.16330311e-03
    -6.01382554e-03 7.25238770e-03 1.74299367e-02 -3.89188621e-03
    1.06342286e-02 -2.25916086e-03 7.89234135e-03 -1.13905862e-03
    -2.25766003e-03 2.05303319e-02 5.20794094e-03 1.33267110e-02
    3.24421888e-03 1.79059114e-02 2.36305855e-02 3.21110897e-03
    9.78716463e-03 4.12249845e-03 8.54324270e-03 -9.88192391e-03
    4.25839471e-03 -3.04295740e-04 7.62075931e-03 9.15250648e-03
    -6.43633073e-03 7.37303356e-03 -2.86693429e-03 1.19050022e-03
    1.11122951e-02 1.04745515e-02 -5.96241606e-03 9.00406856e-03
    -2.20220722e-03 -1.50300295e-03 1.46329477e-02 -5.20080328e-04
    2.12570233e-03 6.53465744e-03 2.05216911e-02 -9.80705488e-03
    1.14184134e-02 6.62454916e-03 8.80930107e-03 1.16859321e-02
    -2.54586618e-03 7.89080467e-03 1.09463036e-02 7.79173430e-03
    4.92966315e-03 3.20588052e-03 7.17653381e-03 1.57702826e-02
    1.20324884e-02 1.05613610e-02 1.69398710e-02 3.14565143e-04
    8.37070926e-04 -1.07974727e-02 -7.49054505e-03 8.44408292e-03
    8.36597569e-03 9.30735376e-03 6.24390040e-03 2.93698930e-03
    1.49274385e-02 2.27409620e-02 1.12918178e-02 1.58348195e-02
    1.28881736e-02 1.55162159e-02 7.54776923e-03 6.05537463e-03
    -3.45276436e-03 -1.54546900e-02 6.03157980e-03 2.86087138e-03
    9.34661925e-03 1.82373431e-02 1.18988603e-02 -3.19988030e-04
    9.09417681e-03 1.63793191e-02 1.45678325e-02 2.70081963e-03
    1.65573624e-03 -7.84755975e-04 3.08244443e-03 8.78718589e-03
    2.79104616e-03 8.86540953e-03 -1.66488742e-03 -1.19698495e-02
    5.88726159e-03 -1.77955290e-03 -3.52022331e-03 -6.68908982e-03
    1.30816670e-02 1.10273305e-02 1.28195854e-02 2.56664190e-03
    -5.73197845e-03 1.48213748e-02 4.31234157e-03 9.66685731e-03
    1.93845201e-02 2.73977430e-03 4.18051938e-03 1.58815477e-02
    9.94900800e-03 -7.37354206e-03 -2.10238365e-03 4.44135396e-03
    1.33532602e-02 1.14815878e-02 4.33025230e-03 1.07931730e-04
    6.39520492e-03 1.75370486e-03 9.13724117e-03 2.03815252e-02
    -5.96603611e-04 -7.39208935e-03 4.32304060e-03 6.14327379e-03
    9.91518609e-04 -3.30323074e-03 4.94334009e-03 -3.56921647e-03
    2.43561575e-03 5.45729790e-03 4.70929174e-03 1.24863116e-02
    -3.82130907e-04 -6.52873656e-04 1.02245938e-02 1.94526780e-02
    6.52196165e-03 1.22073526e-02 3.55215976e-03 1.18243713e-02
    2.39567319e-03 1.41086215e-02 1.14164148e-02 8.59849807e-03
    1.40056871e-02 -4.35814401e-03 1.01544065e-02 -1.97486114e-03
    4.65466315e-03 7.45893875e-03 -6.35719858e-03 -3.64654069e-03
    6.35311659e-03 1.46154519e-02 3.56517761e-04 8.66457727e-03
    1.39190275e-02 1.26442099e-02 -1.68976374e-03 -1.94049696e-03
    1.24852479e-04 8.02701619e-03 -7.43070443e-04 -2.22790390e-02
    -8.43582209e-03 3.28032323e-03 1.48523748e-02 8.41947738e-04
    1.22345686e-02 1.39866509e-02 1.21978521e-02 1.27337629e-03
    -1.64097417e-02 8.69819149e-03 3.18012177e-03 6.29555667e-03
    3.48039740e-03 -4.68649389e-03 1.36602530e-02 1.19697191e-02
    1.49985366e-02 -1.53249269e-03 1.06232269e-02 -1.16359079e-02
    -4.01009433e-03 -2.60738377e-03 1.11891460e-02 -1.76526781e-03
    1.15906319e-03 -2.49706581e-03 -2.05457844e-02 -5.76730492e-03
    2.43163854e-03 7.80697819e-03 4.38906485e-03 3.23877390e-03
    1.66875534e-02 6.43592374e-03 1.89087689e-02 -1.48563343e-03
    1.08012185e-02 4.72916849e-03 5.77593734e-03 -2.62430683e-03
    -1.05106756e-02 1.07146781e-02 9.98024922e-03 1.40946144e-02
    -6.77923206e-03 1.05881151e-02 -1.22153182e-02 -8.23426410e-04
    -6.73090864e-04 -3.87811405e-03 6.15791825e-04 7.90506974e-03
    1.76362391e-03 -9.02943872e-03 1.24690579e-02 5.81636885e-03
    -5.29079232e-03 8.17845203e-03 -3.77719104e-03 2.79414444e-03
    -5.51086012e-03 6.99514570e-03 -3.92939011e-03 6.96953246e-03
    -3.70889227e-03 3.25841364e-03 5.44909562e-04 6.42818632e-03
    -8.90895724e-03 2.20509083e-03 1.62306894e-02 2.02101003e-03
    7.06080114e-03 -4.36190562e-03 -4.07875329e-03 1.68727301e-02
    2.09160801e-03 4.77008609e-04 1.17471563e-02 2.03269534e-03
    -1.78977195e-03 9.02915187e-03 6.91233261e-04 3.08210403e-03
    9.92192049e-03 -1.24089634e-02 7.27434872e-06 -4.33478691e-03
    7.18441885e-03 -1.30301854e-03 -7.04852259e-03 2.04628333e-03
    -6.91703707e-03 6.24592602e-03 4.50324034e-03 -6.58894004e-03
    6.14199415e-03 6.55576913e-03 -4.99801245e-03 1.34666602e-03
    -1.19064618e-02 6.05189940e-03 2.27935407e-02 2.31278082e-03
    -8.16521887e-03 9.73069866e-04 7.08992500e-03 1.50672067e-03
    3.47978272e-03 -1.25992810e-02 9.33765376e-04 1.60981696e-02
    -4.19654371e-03 9.22240131e-03 -5.00136474e-03 9.24963690e-03
    8.25861352e-04 -6.58491952e-03 -2.67776405e-03 -3.84068931e-03
    2.89226859e-03 -4.27673291e-03 3.12968763e-03 -1.08637381e-03
    6.14099810e-03 -5.25948824e-03 -4.21016151e-03 -4.85594664e-03
    -9.91824549e-03 -2.43494404e-03 -1.25240395e-03 -3.25943367e-03
    5.75254485e-03 1.31453034e-02 1.42733799e-04 1.03505878e-02
    -2.46156170e-03 6.61405677e-04 2.06407928e-03 -4.07878123e-03
    -3.58832371e-03 6.18740683e-03 -1.98178226e-03 5.92276268e-03
    8.11286550e-03 -1.04383845e-02 -3.12377932e-03 3.90220340e-03
    5.85620152e-03 3.15259583e-03 1.39600234e-02 1.57745986e-03
    -1.42809737e-03 3.16895358e-03 5.61490003e-03 -3.65969003e-03
    8.52817949e-03 2.22393628e-02 1.73802823e-02 1.46215893e-02
    -4.12768073e-04 -2.44337153e-02 6.99607143e-03 8.29090085e-03
    2.92635127e-03 1.91029273e-02 3.82156949e-03 -1.70040049e-03
    2.39047930e-02 3.57840071e-03 8.81794095e-03 3.39695392e-03
    -6.12688425e-04 8.44185613e-03 1.10874837e-02 2.58821379e-02
    3.53985094e-03 1.88181233e-02 9.30518005e-03 -6.51029753e-04
    7.13543175e-03 1.44863678e-02 1.87147669e-02 1.94826797e-02
    2.15999447e-02 1.13491761e-02 1.32513167e-02 -2.30797130e-04
    -2.32859720e-02 4.06739127e-04 4.25191130e-03 1.78414881e-02
    1.99026838e-02 1.85707361e-02 7.11785955e-03 3.37847229e-03
    -3.83956754e-03 -2.57548001e-02 -2.42726621e-03 5.34298224e-03
    6.05816115e-03 1.96956508e-02 2.15772111e-02 1.22735985e-02
    2.39383839e-02 1.34584298e-02 -4.77074413e-03 -3.45839304e-03
    1.22271925e-02 4.97739390e-03 1.23394886e-02 2.71432325e-02
    1.72275528e-02 1.40617453e-02 1.32201202e-02 -1.44126266e-02
    -1.45549746e-03 3.80582362e-03 1.02604283e-02 1.80595014e-02
    2.32517272e-02 3.70346359e-03 -1.42834455e-04 1.13030733e-03
    -4.85012494e-03 9.18415748e-03 2.96516158e-03 1.68887491e-03
    2.63893753e-02 1.53096104e-02 1.23660583e-02 3.90803861e-03
    -1.23859998e-02 -2.45224815e-02 -6.77594682e-03 -4.50282299e-04
    1.10573815e-02 2.63490658e-02 1.57194175e-02 1.52645065e-02
    2.93799583e-03 8.75320472e-03 -7.15939328e-03 8.66982434e-03
    1.55614642e-03 1.44807454e-02 2.14083381e-02 2.08362229e-02
    2.00174581e-02 8.11129715e-03 -3.75881046e-03 -1.83529332e-02
    -6.04748027e-03 2.43199291e-03 1.88952032e-02 2.93788575e-02
    1.61436256e-02 1.67286247e-02 8.46666005e-03 -3.60523676e-03
    -1.18139880e-02 -3.65150254e-03 1.02922472e-03 1.96539834e-02
    2.49604005e-02 1.53726693e-02 1.52767906e-02 8.47020559e-03
    -2.94547412e-03 -1.56603865e-02 -4.65290854e-03 -9.54801589e-03
    6.71383168e-04 9.43232793e-03 2.14901865e-02 2.59480011e-02
    1.92821044e-02 5.44506218e-03 9.23636649e-03 3.35659157e-03
    1.24288909e-02 2.44381446e-02 3.39218043e-02 2.43987758e-02
    1.63254719e-02 1.45955570e-02 -9.67863773e-04 -7.17763882e-03
    3.75834666e-03 3.68142617e-03 1.26058180e-02 3.06505281e-02
    2.08181702e-02 1.26441745e-02 6.38369052e-03 -1.55588647e-03
    -6.46490650e-03 7.70123582e-03 5.41837700e-03 6.85598888e-03
    9.16866958e-03 5.93864359e-03 1.00876503e-02 -5.56127983e-04
    -7.32537219e-03 -5.40960487e-03 -6.41725084e-04 2.39316796e-04
    1.70656899e-03 4.17574251e-04 1.69631597e-02 9.81412269e-03
    1.58121362e-02 4.36097523e-03 -8.57589394e-03 9.35918558e-03
    1.32268379e-02 1.59173664e-02 2.43883263e-02 7.02984352e-03
    5.62841725e-03 1.55628985e-02 3.87978368e-03 -3.05909966e-03
    3.11325886e-03 9.43109207e-03 1.60926916e-02 1.77328177e-02
    -1.72525644e-03 1.39659671e-02 8.86274502e-05 -7.83960393e-04
    6.90801023e-03 4.82556224e-03 4.65204800e-03 8.69662873e-03
    7.32863089e-03 -4.10747295e-03 6.50578924e-03 1.99440820e-03
    -3.60534480e-03 1.29419584e-02 5.00823185e-03 7.73871643e-03
    -3.10701638e-04 -1.02548152e-02 2.58176704e-03 2.02285927e-02
    1.87274758e-02 7.47328065e-03 4.90780827e-03 2.15683673e-02
    1.79513227e-02 1.79787688e-02 1.15095135e-02 -1.05643552e-03
    1.56067535e-02 3.15019973e-02 3.81461880e-03 7.82018155e-03
    2.12421920e-02 4.90764063e-03 3.45771038e-03 -4.09480743e-03
    -3.68904392e-03 -5.50160743e-03 -1.05783460e-03 1.89693943e-02
    2.00431105e-02 2.74446588e-02 1.21396938e-02 1.44995544e-02
    2.46328879e-02 -2.61816476e-03 6.42078603e-03 7.68474909e-03
    1.40419733e-02 -8.93033575e-03 -4.54671355e-03 1.62731827e-04
    1.44859450e-02 1.88127048e-02 -1.92184448e-02 -1.03595806e-02
    4.84930584e-03 2.62718964e-02 7.59704551e-03 2.45897602e-02
    2.61722952e-02 1.83752645e-02 -6.32706739e-04 -1.56524044e-03
    4.35261335e-03 1.63434576e-02 2.31036060e-02 1.47732731e-04
    5.33526670e-03 1.08915102e-02 1.40443379e-02 7.74107641e-03
    7.28074508e-03 7.15077389e-03 1.50840532e-03 1.09392898e-02
    -9.04932444e-04 2.18664855e-03 4.82375966e-03 1.81100853e-02
    1.19832531e-02 1.15064299e-02 -7.25913851e-04 6.52711093e-03
    2.13765670e-02 2.93383235e-03 9.82230715e-03 -1.49879977e-03
    -5.44343609e-03 1.18151670e-02 5.53158205e-03 9.29121021e-03
    1.84433032e-02 1.91009492e-02 -3.21365474e-03 -2.88058491e-03
    2.55623693e-03 9.38081276e-03 9.36562940e-03 8.58936924e-03
    1.03107123e-02 1.19100101e-02 2.58696899e-02 -1.02919228e-02
    5.83394431e-03 5.14809368e-03 7.67352199e-03 1.62906703e-02
    9.65111889e-03 -5.97955054e-03 6.46494515e-03 2.56306417e-02
    1.43979155e-02 1.03846025e-02 -6.04576850e-03 2.07679020e-03
    1.23414220e-02 4.93594212e-03 -3.00077815e-03 8.71783588e-03
    9.18158703e-03 -2.43755989e-02 6.52681757e-03 -3.89144942e-03
    6.74220407e-03 6.39225915e-03 1.32665439e-02 1.31389601e-02
    2.10242011e-02 2.41129417e-02 5.35571063e-03 1.40993076e-03
    6.42416398e-06 1.38265798e-02 1.33322366e-02 1.43082831e-02
    5.26579143e-03 1.83467250e-02 1.90887190e-02 -1.04107093e-02
    -1.40113169e-02 2.03197426e-03 1.60004925e-02 1.83549263e-02
    1.19092986e-02 -3.83371324e-03 9.56630334e-03 4.75700479e-03
    6.01883605e-03 1.98577829e-02 8.03013099e-04 1.10164694e-02
    2.08215788e-02 1.32656684e-02 1.49737140e-02 9.47587471e-03
    3.18644475e-03 -1.17936386e-02 -2.58072047e-03 -9.61752667e-05
    9.25266836e-03 1.90697536e-02 1.33901648e-02 1.52901665e-03
    1.37640061e-02 1.87210198e-02 -1.00177764e-04 -3.13448417e-03
    1.34356599e-03 1.00909946e-02 2.32785624e-02 5.57375699e-03
    7.41696404e-03 1.38101093e-02 4.71981009e-03 -1.02411620e-02
    -1.63573219e-04 3.47715832e-04 3.30165285e-03 1.46127334e-02
    2.58687790e-03 1.57106146e-02 2.11176109e-02 1.20406095e-02
    -1.49399682e-03 9.09312256e-03 1.13850683e-02 1.04048699e-02
    9.73313861e-03 9.27059818e-03 8.33433867e-03 1.58615354e-02
    -2.83477391e-04 -3.08322515e-02 3.76861566e-03 1.87987671e-03
    1.01637794e-02 1.64006781e-02 1.11293877e-02 1.61037967e-02
    1.57922599e-02 7.31388573e-03 -8.42856336e-03 -5.70392096e-03
    -2.17537722e-03 -5.45203034e-03 3.96517251e-04 1.22184046e-02
    2.08658557e-02 1.50881177e-02 1.93405349e-03 -1.91685557e-02
    1.35264150e-03 -6.41590683e-03 -7.35420128e-03 1.42693855e-02
    7.33866822e-03 2.32191314e-03 1.51507948e-02 1.00290319e-02
    -1.86065082e-02 -3.76237719e-03 8.39055050e-03 1.46763222e-02
    1.09133609e-02 -2.26004035e-04 8.92730989e-03 1.38063412e-02
    2.38301996e-02 -5.49879670e-03 6.70937914e-03 5.06227138e-03
    7.62009202e-03 8.88875965e-03 1.25898430e-02 8.34092870e-03
    1.41813532e-02 4.95904684e-03 -1.55474478e-02 -7.87108485e-03
    2.74565420e-04 1.94792484e-03 1.30158812e-02 1.18723800e-02
    5.39413374e-03 1.29768737e-02 1.60085931e-02 3.44880600e-03
    1.63517427e-02 7.44819129e-03 1.48791438e-02 1.15551380e-02
    4.76104021e-03 1.44712804e-02 1.25129698e-02 1.80414412e-02
    3.05692200e-04 4.25930135e-03 7.98043329e-04 8.41855723e-03
    5.80267981e-03 1.80834625e-02 1.19508905e-02 1.47341918e-02
    2.94760764e-02 6.74017845e-03 5.82234329e-03 1.47429737e-03
    6.97767269e-03 9.03267786e-03 3.37231229e-03 4.31177113e-03
    1.13571519e-02 1.45289907e-02 -2.08367128e-03 3.99824837e-03
    -8.63549113e-03 2.94294721e-03 5.07855415e-03 8.99626501e-03
    3.34157399e-03 1.40400818e-02 2.41760276e-02 3.93192144e-03
    6.86408766e-03 -3.48833692e-03 -8.01720377e-03 9.83223692e-03
    1.51491887e-03 -4.94351005e-03 6.29668916e-03 1.71435084e-02
    -2.07812730e-02 6.75932784e-03 1.45144097e-03 7.53645832e-03
    9.74181108e-03 1.19320797e-02 1.92004803e-03 4.59946087e-03
    7.29290862e-03 -5.48287248e-03 -2.31402181e-03 -9.06114001e-03
    1.39290956e-03 9.07546002e-03 2.94200680e-03 -4.17971140e-04
    1.47247233e-03 1.29315127e-02 -1.40809622e-02 1.16547579e-02
    1.29219971e-03 -6.82841893e-03 5.88292023e-03 9.49435867e-03
    9.86620039e-03 1.13032674e-02 1.06244758e-02 -6.66632922e-03
    2.99947755e-03 -3.50944552e-04 -2.11366080e-03 1.83221530e-02
    6.92126015e-03 2.75279419e-03 6.54884474e-03 1.84894796e-03
    -8.36714928e-04 -6.78113778e-04 -1.67965367e-02 4.48783534e-03
    6.33647759e-03 2.38827802e-03 2.50466075e-03 7.96767510e-03
    -1.14575960e-03 4.12952667e-03 -7.64247437e-04 -1.21205626e-03
    -6.11576950e-03 -3.51856463e-03 -5.75213553e-03 6.58042543e-03
    9.91986040e-03 5.04302699e-03 -2.56881583e-03 3.84427630e-03
    2.13135802e-03 7.32361339e-03 9.86098871e-03 1.01253372e-02
    1.23091424e-02 2.09574541e-03 1.13570839e-02 -1.50763756e-03
    1.74681135e-02 1.39669618e-02 7.28652859e-03 1.12233451e-02
    8.93066637e-03 -5.66082262e-03 8.69051926e-03 -3.25775822e-03
    -4.72650537e-03 1.86716579e-03 -2.43118405e-03 -5.12186484e-03
    9.03459452e-03 1.74388699e-02 1.83220964e-03 1.15707191e-02
    7.55327288e-03 -1.65176652e-02 -9.70570763e-05 4.13432904e-03
    7.77973235e-03 2.29335297e-02 1.69360712e-02 1.21937823e-02
    1.27440449e-02 1.14294402e-02 4.33068548e-04 1.85754728e-02
    1.84415113e-02 8.29452835e-03 4.35151998e-03 1.47275263e-02
    2.11952180e-02 2.01666001e-02 1.61094144e-02 -9.10534337e-03
    9.17586591e-03 -2.28265394e-03 -2.01701862e-03 1.36080710e-02
    1.79135669e-02 9.39955842e-03 1.80397816e-02 1.70984250e-02
    -2.43925815e-03 1.83566436e-02 4.37879423e-03 2.04020325e-04
    1.96124446e-02 2.59867241e-03 9.13558062e-03 1.82901267e-02
    1.18540721e-02 -1.51862074e-02 9.84865613e-03 5.86350914e-04
    6.79722475e-03 -6.06138026e-04 1.90575756e-02 1.46882143e-02
    1.60180442e-02 9.18057654e-03 2.71689566e-03 1.70492660e-02
    -1.71994336e-03 -1.45618082e-03 2.16303319e-02 7.58527452e-03
    1.09623251e-02 7.76920607e-03 -4.49926592e-03 -1.49121240e-03
    1.17639117e-02 -5.41857677e-03 5.80412662e-03 2.46895887e-02
    4.96010249e-03 1.66533813e-02 2.80417744e-02 1.23589737e-02
    4.89475112e-03 1.34865567e-02 4.70548589e-03 1.79423187e-02
    1.43849412e-02 9.97856818e-03 1.66704357e-02 2.75861844e-02
    6.00827252e-03 -7.05899578e-03 -4.40951111e-03 1.02290632e-02
    9.74408444e-03 1.21786669e-02 8.57331790e-03 1.18166637e-02
    1.79870073e-02 2.85478309e-03 9.77571821e-04 2.52883206e-03
    -9.25602624e-04 1.25091271e-02 2.50878260e-02 7.63726467e-03
    2.45994236e-02 1.36030568e-02 -2.30725273e-03 -7.52160838e-03
    -1.07833522e-03 1.09925661e-02 1.93907823e-02 1.54371811e-02
    1.23656597e-02 1.33018000e-02 2.62334216e-02 8.25123303e-03
    1.40182432e-02 -1.46204009e-04 9.04988870e-03 5.13619976e-03
    1.92003846e-02 -5.67657757e-04 1.42732752e-03 1.13417581e-02
    4.50069318e-03 5.12077706e-03 -5.29947411e-03 -1.17392540e-02
    -4.85506561e-03 1.55003183e-02 5.58849424e-03 1.36751691e-02
    1.07540525e-02 3.76705686e-03 3.25884367e-03 7.86104612e-03
    2.10283063e-02 2.15272829e-02 1.97150018e-02 3.85488849e-03
    1.80587191e-02 1.58414431e-02 1.29421381e-02 4.67803515e-03
    2.45773047e-03 1.48851937e-03 7.07753096e-03 1.33778192e-02
    5.76951448e-03 4.88190865e-03 2.09285282e-02 1.25618083e-02
    -7.58345705e-04 -4.22644475e-03 -7.27458578e-03 1.02666495e-02
    2.14578547e-02 -4.09077946e-03 1.13298232e-02 2.03288347e-02
    1.15235718e-02 -1.58869792e-02 -8.24026577e-03 -8.88812996e-04
    1.28842089e-02 2.52225809e-03 1.57483723e-02 1.65299196e-02
    1.87939014e-02 7.13829510e-03 1.97071349e-03 4.68981732e-03
    1.40719744e-03 2.30203178e-02 2.96804551e-02 1.77625902e-02
    2.18595006e-02 2.07659211e-02 -4.24039597e-03 -1.02140568e-02
    5.99720748e-04 3.56504717e-03 2.58318596e-02 1.92580801e-02
    5.89242065e-03 1.54112950e-02 2.71536391e-02 9.14793834e-03
    -7.27746869e-03 2.08184286e-03 9.35345655e-04 7.49678258e-03
    7.81549420e-03 1.41030003e-04 2.48911437e-02 3.52854580e-02
    3.13983345e-03 -1.63800027e-02 1.34172395e-03 4.13734466e-03
    3.27705435e-04 -6.64633280e-03 4.99066571e-03 2.45529898e-02
    1.01717585e-03 -8.54956917e-03 -6.44517690e-03 -1.03445994e-02
    1.35595929e-02 2.26984359e-02 1.29598593e-02 -1.29483864e-02
    2.00100262e-02 1.21569019e-02 -4.36137337e-03 -8.02324247e-03
    -1.14999432e-02 3.68042011e-03 9.57542658e-03 -3.53242015e-03
    -2.35051522e-03 -3.98519158e-04 8.17642268e-03 1.66635383e-02
    1.28252036e-03 -5.15061338e-03 1.31015079e-02 1.61742624e-02
    6.96515478e-03 1.07527887e-02 4.40293737e-03 1.04352925e-02
    2.06079911e-02 6.48095855e-04 1.40727998e-03 9.46761109e-03
    1.80155188e-02 1.92627702e-02 1.54672097e-02 1.15094567e-02
    5.97401708e-03 1.12697724e-02 -1.52135910e-02 -2.22602929e-03
    1.16867395e-02 5.03363460e-03 -3.86769942e-04 1.84444301e-02
    1.46542378e-02 1.73416212e-02 8.47487524e-03 1.98693853e-03
    7.49895955e-03 1.11780455e-02 1.83571670e-02 2.18703598e-02
    1.00516975e-02 8.28190520e-03 7.51761207e-03 1.33913234e-02
    6.06454862e-03 5.58811985e-03 5.33683924e-03 1.39742587e-02
    6.46912353e-03 1.87930446e-02 5.73512027e-03 6.28899597e-03
    5.98606747e-03 -4.82512685e-03 -3.74205946e-03 7.84261618e-03
    1.60561390e-02 1.90350134e-02 5.24801249e-03 8.20523128e-03
    8.19084607e-03 1.11631118e-02 5.49235195e-03 1.26822165e-03
    1.41314939e-02 1.55500202e-02 5.25578065e-03 2.60295849e-02
    1.83073245e-02 1.37162823e-02 4.09038563e-04 1.93049072e-03
    3.99262551e-03 1.64067168e-02 1.26276361e-02 3.04037780e-02
    1.50173735e-02 1.17958188e-02 2.58090943e-02 2.23663207e-02
    1.18508963e-02 -5.53393224e-03 1.36661967e-02 1.68041959e-02
    1.50089012e-02 1.36000663e-02 1.18646529e-02 2.48496868e-02
    2.18436271e-02 6.83634961e-03 -1.50215337e-02 7.00389268e-03
    -7.08280737e-03 -2.33320869e-03 2.88765915e-02 2.35600658e-02
    2.25916021e-02 1.38728060e-02 1.13982623e-02 7.13643013e-03
    2.37341151e-02 1.63008180e-02 3.22420001e-02 1.32491430e-02
    1.16862264e-02 1.59507543e-02 1.28919473e-02 5.83221298e-03
    -4.47686017e-03 1.90151315e-02 1.05740745e-02 8.49048980e-03
    2.04052124e-02 1.79566853e-02 1.95207987e-02 1.44845238e-02
    2.10160147e-02 1.11016259e-02 1.45091396e-02 4.67829610e-04
    1.59627888e-02 3.69690685e-03 9.46886837e-03 1.80229694e-02
    5.29874442e-03 3.16344178e-03 4.63706302e-03 9.02388245e-03
    -6.36609853e-04 9.16628446e-03 9.59370472e-03 1.65082105e-02
    1.52380224e-02 1.31609002e-02 5.74643072e-03 3.69027792e-03
    2.53881305e-03 9.34003759e-03 1.68663058e-02 9.19049233e-03
    5.86389191e-03 1.79483537e-02 1.06311850e-02 -5.61654707e-03
    -1.34954574e-02 5.41064190e-03 1.34451622e-02 1.24752242e-02
    1.48195541e-02 2.01214645e-02 1.66810099e-02 6.05688617e-03
    -2.28419853e-03 1.93105498e-03 5.09968307e-03 4.28862777e-03
    7.99314678e-03 1.91218890e-02 2.05437802e-02 1.34172672e-02
    6.22757198e-03 -2.03395588e-03 1.07696196e-02 1.01165306e-02
    -6.00096956e-03 1.52072115e-02 9.85144731e-03 3.40520823e-03
    2.24955715e-02 1.38433548e-02 -1.08007528e-02 -1.68903880e-02
    -3.27379745e-03 7.56926974e-03 2.33290978e-02 1.29766781e-02
    1.66608056e-03 1.21164061e-02 5.80860022e-03 -1.87654495e-02
    -5.44385100e-03 2.68403068e-03 2.13200767e-02 2.77292617e-02
    1.28575563e-02 1.88889951e-02 1.45487590e-02 3.50457337e-03
    -6.51348196e-03 1.04396055e-02 1.47802485e-02 1.07643837e-02
    1.57086831e-02 1.03431465e-02 3.83680058e-03 8.69613513e-03
    1.23504177e-02 3.51061509e-03 1.40508786e-02 8.40482302e-03
    2.02970207e-02 1.64362919e-02 2.76975916e-03 2.26087077e-03
    8.89613666e-03 2.85230507e-03 -2.68883426e-02 -3.34098027e-03
    8.06646235e-03 3.41864415e-02 2.18650643e-02 6.86900970e-03
    7.95008056e-03 1.50022861e-02 4.82783560e-03 -2.49166507e-02
    4.96077957e-03 2.29932228e-03 2.35899370e-02 1.57660469e-02
    6.14586193e-03 -4.47081635e-03 4.22254018e-03 1.40442131e-02
    1.88861795e-05 8.08788650e-03 -4.48965607e-03 1.98167544e-02
    1.80688798e-02 1.06623983e-02 1.36577552e-02 1.87222566e-02
    1.00951307e-02 -3.29795619e-03 1.36439577e-02 1.19613446e-02
    1.91289727e-02 1.55370366e-02 -9.99024953e-04 4.93772654e-03
    1.68357827e-02 8.05961713e-03 -2.29364205e-02 3.47763044e-03
    5.19488426e-03 9.56410170e-03 1.07957404e-02 1.22692883e-02
    1.25453146e-02 2.91121025e-02 6.79838518e-03 -1.58811454e-02
    1.40046403e-02 1.95562132e-02 2.99139344e-03 1.15548084e-02
    5.79402270e-03 1.03076799e-02 1.02427844e-02 1.23591013e-02
    -1.32835470e-02 1.05368551e-02 1.08390292e-02 1.32759539e-02
    9.70918778e-03 1.15907723e-02 1.92431323e-02 1.23110097e-02
    1.38130588e-02 -1.56553145e-02 5.06539363e-03 1.24852424e-02
    4.98561142e-03 1.48159042e-02 1.71745550e-02 1.66380946e-02
    2.32321918e-02 1.17673622e-02 -2.54765656e-02 5.83190331e-03
    4.81946487e-03 2.95328489e-03 1.52945537e-02 1.20570371e-02
    2.68695727e-02 2.30525080e-02 1.86385829e-02 -1.04357898e-02
    6.69668103e-03 -1.92876451e-03 5.22129890e-03 2.14448310e-02
    3.21422471e-04 1.37790125e-02 9.56007373e-03 1.38543453e-02
    -9.21984203e-03 1.45554915e-02 1.30632678e-02 1.64244436e-02
    8.91408883e-03 7.28981802e-03 1.14939203e-02 5.47676999e-03
    2.57127043e-02 -4.96140169e-03 1.33030154e-02 6.30656816e-03
    8.66598639e-05 3.15546896e-03 -1.67221704e-03 8.36505927e-03
    9.61749535e-03 1.05041480e-02 -1.78387705e-02 8.39552004e-03
    1.17997676e-02 1.21870907e-02 5.49914502e-03 9.95456125e-04
    9.48057394e-04 5.73942158e-03 2.12554578e-02 -1.10067995e-02
    1.32519398e-02 1.43722249e-02 1.32134557e-02 5.52827911e-03
    1.22531019e-02 8.04838538e-03 6.80690911e-03 1.82583164e-02
    -4.41022543e-03 1.25093441e-02 1.85854360e-03 3.47159593e-03
    2.39569903e-03 1.60648432e-02 1.20799132e-02 2.24074181e-02
    1.36393467e-02 -1.53150037e-02 1.87611207e-03 -5.06413961e-03
    -7.59931467e-03 1.21352002e-02 1.40102422e-02 6.85169455e-03
    1.06505118e-02 2.32848525e-02 -1.09682670e-02 -1.48220838e-03
    6.02413435e-03 1.16905747e-02 5.36965393e-03 1.82717647e-02
    1.59873832e-02 1.42685929e-02 1.13166859e-02 -1.53953983e-02
    -5.44914103e-04 8.70088208e-03 2.44058222e-02 2.35168617e-02
    1.46278925e-02 1.05559444e-02 2.11404748e-02 1.01416828e-02
    9.30302544e-04 1.26018152e-02 -3.67510086e-03 -4.69454471e-03
    2.44247224e-02 -1.29444918e-04 9.47821327e-03 1.64266233e-03
    5.71451150e-03 2.70195841e-03 8.14361032e-03 -1.60133233e-03
    5.49849868e-03 1.57136340e-02 1.74326953e-02 1.37786558e-02
    1.55466022e-02 6.44548424e-03 -7.60559598e-03 3.07702762e-03
    1.58909839e-02 3.17934602e-02 3.09673492e-02 1.15356250e-02
    2.00987123e-02 8.87052435e-03 7.61068519e-03 -1.61232185e-02
    3.98643920e-03 6.06121169e-03 1.60473287e-02 2.49648970e-02
    -9.17197112e-03 4.09162790e-03 1.21592637e-02 1.54681597e-02
    9.04237013e-03 8.53020698e-03 -4.12302045e-03 7.09265843e-03
    5.11203706e-03 -6.84506551e-04 1.01510752e-02 1.29376035e-02
    -2.28550378e-03 -7.87581503e-03 -3.39621422e-03 -5.56010613e-03
    8.23730603e-03 -9.14619770e-04 5.10592014e-03 1.96270999e-02
    1.81344002e-02 1.83021352e-02 -1.08788710e-03 6.99781533e-03
    5.27266553e-03 1.77676715e-02 2.17289496e-02 1.95136759e-02
    8.89090169e-03 1.63182747e-02 4.14313329e-03 -1.44646065e-02
    -1.02949496e-02 -8.87584931e-04 2.14789473e-02 2.06529535e-02
    -9.56484466e-04 8.45298544e-03 1.22223161e-02 9.59444605e-03
    -7.06748571e-03 2.37945220e-04 9.48722847e-03 1.30241439e-02
    1.24782827e-02 -2.26332992e-03 9.24768392e-03 1.62653569e-02
    1.68873072e-02 -2.62612919e-03 1.03719148e-03 3.87750613e-03
    6.14293385e-03 3.98540916e-03 1.49692483e-02 3.24630714e-03
    2.78869532e-02 1.28955124e-02 -2.01724861e-02 -7.58015690e-03
    -3.85057181e-04 1.54489940e-02 1.63682234e-02 1.58198476e-02
    1.08052855e-02 2.36395951e-02 4.33692290e-03 -2.45611295e-02
    -1.09892674e-02 -4.56441054e-03 1.07383654e-02 6.84286468e-03
    1.55682396e-02 8.12590681e-03 6.65660994e-03 1.53555796e-02
    1.10192318e-03 1.78437587e-02 1.00059891e-02 1.41760353e-02
    1.99399851e-02 1.32252946e-02 1.42966525e-03 8.02547392e-03
    3.44073819e-03 -1.30681572e-02 2.40089209e-03 -3.80943704e-04
    3.84467957e-03 6.48085354e-03 1.80574134e-02 9.79413092e-03
    8.54967348e-03 1.39564712e-04 -2.38613207e-02 4.15231055e-03
    7.97481276e-03 1.44772474e-02 2.19313931e-02 9.85103101e-03
    2.14892998e-03 1.01538543e-02 -4.21520183e-03 -1.81566365e-02
    -1.54234725e-03 -2.68105674e-03 -1.29791433e-02 1.88942358e-03
    1.15588438e-02 1.79215893e-02 1.48997912e-02 1.28993187e-02
    8.73806421e-03 -2.88218871e-04 7.01230485e-03 9.17059742e-03
    3.20655480e-03 -5.75568993e-03 1.91304535e-02 1.60125140e-02
    4.05327836e-03 4.62471042e-03 -3.68040428e-03 -7.20591377e-03
    -3.55848204e-03 -1.62876565e-02 2.28551906e-02 1.52211431e-02
    2.07275674e-02 1.58482343e-02 3.84754222e-03 -4.03584586e-03
    -1.93684734e-03 -8.07578489e-03 8.24478734e-03 1.30641721e-02
    2.17474308e-02 2.50111260e-02 1.21558467e-02 -1.47115905e-02
    -5.31843770e-03 -6.80618454e-03 -1.22755114e-02 9.61598766e-04
    -2.17955351e+00</SVMDetector></HOGpedestrian64x128>
</opencv_storage>
